100
"(<bound method NeuralNetwork.active_hyperbolic_tangent of <__main__.NeuralNetwork object at 0x000001B0776819D0>>, None)"
-0.0016595599059485207 0.004406489868843162 -0.009997712503653102 -0.003953348547363205 -0.00706488218365774 -0.008153228104624044 -0.006274795772446582 -0.0030887854591390455 -0.002064650515386601 0.0007763346800671381 -0.0016161097119341047 0.003704390007935191 -0.005910955005369652 0.0075623487278189076 -0.009452248136041477 0.0034093502035680446 -0.0016539039526574598 0.0011737965689150327 -0.007192261228095325 -0.006037970218302424 0.006014891373510732 0.009365231514387952 -0.003731516436815143 0.0038464523133862824 0.007527783045920765 0.007892133270076948 -0.008299115772604441 -0.009218904335342353 -0.006603391608708622 0.007562850068588261 -0.008033063323338998 -0.0015778474998989558 0.009157790603010038 0.0006633056994603415 0.0038375422790094676 -0.003689687379878741 0.0037300185536316734 0.0066925134379474584 -0.009634234453116165 0.0050028862988993495 0.009777221778129895 0.004937146217471798 -0.0044733312729387485 0.0056548880845124945 -0.00806094374618312 -0.0011067675620503319 0.00815219083241433 -0.00412771703252641 -0.004244493228273026 -0.007399428557634447 -0.009612660842594059 0.0035767106587978187 -0.00576743767999882 -0.004689066812555476 -0.00016853681439323379 -0.008932749097658392 0.0014823521098402612 -0.007065428501883797 0.0017861107380656854 0.0039951672004186235 -0.007953311423443483 -0.001718880243608634 0.003888003154554903 -0.0017164146094619474 -0.009000930821078256 0.000717928118310231 0.00317539300124927 -0.0005689167980900403 0.006782673506964514 -0.0019554563452222782 -0.004768419113659622 -0.010796861813945086 -0.02457956110717727 -0.01214869691707548 -0.005850773178138316 -0.008544619632141131 0.003721833181655526 -0.00961022406377392 0.004033534751999212 0.00451995970700903 0.007666121824116195 0.0024734441411121775 0.005018848680546743 -0.0030220331604431496 -0.004601442164699479 0.007917724363921337 -0.0014381762025741027 0.00929680094296771 0.0032688299563689623 0.0024339144041824363 -0.008259946942464787 0.00544482801494126 -0.015149442920777878 -0.015149077712015855 -0.03621527807348294 -0.04087200968039919 -0.021093037115141842 -0.022191034223704786 -0.1084151767314168 -0.11670695289934295 -0.1261176338220113 -0.11677905956309687 -0.10930514864065677 -0.162701721274171 -0.10682498402338504 -0.04029218503429556 -0.015475374621190335 0.008588744674875226 0.0038179383503384786 0.009946457009029611 -0.006553189833093429 -0.007257285007422445 0.008651909260743272 0.0039363632297980036 -0.00867999654555875 0.005109261052049327 0.002718464722300085 -0.0011400206824132228 -0.004896281680951359 -0.008662044619337644 -0.0251317034028694 -0.06060835462441092 -0.07631537060290401 -0.052977086027323296 -0.018882716352319934 -0.039908442348336036 -0.09631721879692422 -0.08260208991763994 -0.04333952898676622 -0.022032924753053303 -0.06578886924800702 -0.13364832273208724 -0.17086014604512634 -0.11767975304046227 -0.06262687057179055 -0.039850114691488275 0.005452808543224978 -0.0022427871187165648 0.0072708370911885745 0.0049424328547436926 0.001124804679808378 -0.0072708954867863 -0.008801646209755766 -0.007803708667507197 -0.027393923058202048 -0.048476777694353525 -0.05108835043975298 -0.007464154178384569 -0.021974640373188692 -0.06638818727808113 -0.1491725818196163 -0.15963478983639726 -0.07495109100746844 -0.03939886610334592 -0.06947601626972548 -0.07897544614630904 -0.09270038121930944 -0.10673862420320221 -0.11873909473056889 -0.1123187969427023 -0.12009975017008606 -0.15156125598884476 -0.18550814560850243 -0.13801402254141332 -0.10823658874778638 -0.033116941663872836 -0.0057364011581882745 -0.0002730977812593644 0.0021265892330666076 0.0013770287417296263 -0.0036527518135567854 0.00807300728164194 -0.008359814250173738 -0.019008674110970798 0.0031520726648809187 0.04180236045368029 0.03263101463291751 -0.051583648072766046 -0.07709727377708478 -0.04066060265448678 0.09581772414150293 0.15863863302822104 0.20773224008159777 0.15571651443672577 0.23072361886393322 0.13831305814776687 0.022354594160565955 0.039907508775658046 -0.02656907051745812 -0.14384249162196916 -0.20642424845573293 -0.18553639394216465 -0.09809616999007875 -0.009249278653649398 0.019198103745298015 0.021797069163289145 -0.00972096854048806 -0.00531275827757159 0.005291572310801852 0.05149447998048212 0.04374624638434392 0.014074193495935285 0.057244805384171794 0.09781655463081856 0.0978411565543667 0.09568116914290287 0.19929101327318316 0.2210681967731886 0.41424706078685253 0.46222649345052746 0.5001950057216913 0.5950952919162394 0.5105358205824909 0.39947807006842573 0.333559087697728 0.2704894204135009 0.13089185050717722 0.010740828356966416 -0.12247144358738442 -0.1451722943133279 -0.09395332432273311 -0.014187114712242576 0.008196623023541846 0.015165837930962444 -0.0031052669463341306 0.008802149646667345 0.004040639740677871 0.05761849985080616 0.03349853407631113 0.054623321426202 0.08192919610506307 0.18405040714729806 0.17842889304569104 0.1609620662836261 0.22411156454367537 0.3580942395760493 0.47535692148141595 0.4589287663571981 0.4740656275207297 0.6438468726965436 0.6834997609601948 0.6504806065896414 0.59112363806122 0.43320111879443385 0.3095536824398138 0.15329951801723424 -0.012791589213444702 -0.07862974383190086 -0.04269973442772504 -0.03539925046648867 -0.00911398769042434 0.009535182980621193 -0.002468393705084511 0.014736896070847978 0.007547287869128601 0.05205790070562737 0.06333978547317345 0.10137186185592925 0.12860470616258793 0.208257030696255 0.1644537876322299 0.1753735742991879 0.25740355649665014 0.23427912688470762 0.24029264998986916 0.1530771840143657 0.3386761814514382 0.623317963979707 0.6859992510497567 0.6562568008737825 0.5892186253939066 0.5374447523823099 0.34731950378351645 0.2588913829889733 0.11059094532243341 0.005160560638938704 -0.016354691681534257 -0.023431812132339472 -0.00475630549884304 0.005952776079171331 0.007599965771268634 0.008683903574644521 0.025688171143395677 0.07259390462336424 0.09832286045307397 0.10472660115248547 0.12859202984222973 0.12426091163963415 0.06983623954067095 0.02845064554902226 0.07541501701545392 -0.043586347108479605 -0.0686250212941927 -0.05069068954523286 0.24922891140694592 0.6444142416179213 0.7062530418562573 0.6251051223897233 0.6323465681432316 0.5310413825915608 0.3886685753107926 0.26157337110269707 0.07843404165829183 0.04468649740888564 -0.004382397368622017 -0.004596757658995362 -0.0012287384770992575 -0.005499200843718308 0.0018502373753159357 -0.003754603245961661 0.027088707190379605 0.07113144051201535 0.09310629605679589 0.04865407266066685 0.039447303652794426 -0.010040009243891226 -0.02274874204209658 -0.10106343585410053 -0.16764495626360848 -0.23790667791106318 -0.1804139035800864 0.07798803403590393 0.5335380620450748 0.755363192888528 0.6214992266461109 0.5361769988163095 0.574891427922355 0.3588494854407541 0.2795539117105452 0.11371867740907297 -0.005365910606485409 0.004172881475186881 -0.011139940832939491 -0.00020859010460314397 0.002767539127259783 -0.009553391440163877 -0.00351275080547627 0.00745844752800222 0.013937249137105872 0.03552942731747245 0.07324846254473309 0.004899132156545819 -0.03650044654157712 -0.08167722842984235 -0.09265278029214802 -0.20764989913310003 -0.3738982648307162 -0.33029575333558087 -0.13558641522089843 0.24005390082358488 0.6015217487865485 0.6574677136015975 0.4686064208782586 0.4402071576822761 0.37074024119711857 0.1593091847303252 0.04468337194457118 -0.059884089299049585 -0.01790223440766488 -0.019679234668319178 -0.024705625839527037 -0.015257307267597157 0.005683588134216552 0.000831187577747465 0.009494807417101644 0.002732088000037944 0.010116856283201298 0.0079038449250209 0.03615719793326745 -0.04647751003406385 -0.1411086382375299 -0.21528462094515352 -0.20108871104210557 -0.3910263952383708 -0.5434882372965097 -0.46622095685631953 -0.11415181019564616 0.29748962076142815 0.49203770970784 0.48059032311421457 0.41915324047346003 0.38385610090537275 0.18105480098267143 -0.009223541878149812 -0.17362236814740264 -0.2044684313145587 -0.059714994646200475 -0.04522882603062556 -0.03204899384394875 -0.012297708049003802 -0.006031615272764506 0.005972084895204203 -0.004053372369854555 -0.009447879760909928 0.001868648989292421 0.015068685232009708 0.0025301479085730275 -0.06807373917303694 -0.24706539475604408 -0.3275101091652947 -0.3098431558351998 -0.444512987530875 -0.5449807413280443 -0.4087617185800702 -0.06748425137056786 0.30529979722094475 0.3150591716387618 0.38395152302013547 0.39157890134481393 0.2153682353698245 0.16205460553200224 -0.11624155619755445 -0.22876499207711692 -0.14987698729810536 -0.09252529044810581 -0.04137729512116038 -0.015243582164725352 -0.007220385593040792 0.00646751428916048 0.0025299231724858744 -0.007131539026595102 -0.008432262002901042 -0.009633347141739855 -0.014429782915824866 -0.007935750747855318 -0.08787070212666387 -0.27239126170006617 -0.4209651844301171 -0.5697009277047451 -0.6091433288309113 -0.5957217741010833 -0.3822828465320387 -0.09866523222000079 0.027932823129765763 0.1654657379977823 0.19956116590514364 0.20329533746487333 0.13221712345988737 0.002943287186512446 -0.19593997169099042 -0.17178988050215557 -0.10249869490521779 -0.10880027189067136 -0.07895010621152435 -0.0032693058454988976 0.011384246161765121 0.006985054602426441 0.00830548639829575 -0.0070888353768320585 -0.006845398602589334 -0.005357256691437695 -0.003970638474347949 -0.030936198518643872 -0.11063773790106324 -0.20965790035346696 -0.4100330035655283 -0.5594802756845791 -0.6343278137069427 -0.5194603110402047 -0.3373521863246723 -0.154352421515634 -0.0002765517650578931 0.09638863492389908 0.17909739732975544 0.11825566180700946 0.05402270635321454 -0.19815697466395127 -0.18985288609621487 -0.1334772731161363 -0.149971858432089 -0.1532697393511472 -0.10588347474789352 -0.04190854252221358 -0.008298327896467932 0.008669435222891616 -0.009381019874576986 0.004337573272633783 0.007820379085846778 -0.007872824876044942 0.0031017423579011794 -0.02003632138799776 -0.0882238805604438 -0.25497993230240396 -0.39440929007797565 -0.462792807435875 -0.41456317754928435 -0.3477628475800856 -0.23258819329919417 -0.15709322711297885 -0.008257198388190647 0.18934791542706367 0.17212361309445473 -0.013137996160510782 -0.09731009156298735 -0.15269590047053394 -0.15460968900151778 -0.16875803828048522 -0.1565459294972625 -0.12889254272678374 -0.12863481045646208 -0.06797866635165936 -0.028085236196611157 -0.0037124676777189917 -0.006504682472873769 0.0021418832394492094 -0.0017282716999767727 0.015872315419355434 0.020103729086743634 0.026784421456929566 -0.10568385790507046 -0.3338363594323619 -0.4469020368670371 -0.46401192356099014 -0.3874361705522292 -0.20919081281945986 -0.15936543303820444 -0.09024070670815139 0.09322053127380854 0.09060090908572581 -0.03380653749705545 -0.03656350939226303 -0.06290307881959084 -0.09184718212267158 -0.11946310895806964 -0.1523822283764224 -0.19421391485809048 -0.1566942254624046 -0.13894972527092372 -0.06326069456641405 -0.01571498072448967 0.009507000685405732 -0.006640334136007702 0.009455751838653105 0.005349497377260261 0.01729326244610088 0.03973407646849856 0.09116506470856711 -0.01006844917913825 -0.29084300105592636 -0.45012137253129375 -0.44809044212183513 -0.29845992940723154 -0.21979693634753192 -0.2617153802837617 -0.17362668324477828 0.016173991174200337 0.0033252502497445853 0.031175006778310744 -0.027244643961278757 -0.08428105022290745 -0.1145809083136026 -0.09001135101808434 -0.09580329446597403 -0.1688077888693624 -0.1265083733037297 -0.10629440948171258 -0.02679017388224397 -0.003896674223212825 0.005402999126241844 -0.007393284380912914 -0.009541697373552364 0.00038164644423979016 0.00994900593885343 0.03179845832509193 0.10094045509157605 0.07289978585058822 -0.11064178931335486 -0.2392045477024975 -0.3420718206212058 -0.25543253567702623 -0.18811644640546485 -0.23363643657262034 -0.12195585594363685 -0.022805453062677655 0.08866044416251956 0.11139954894315875 0.014020136836405473 -0.09204641578174308 -0.11965316058843022 -0.0838489215637586 -0.08243850437479985 -0.09007819668175508 -0.0865728078787384 -0.07275089300622078 -0.031476838395509944 -0.016734319926975338 0.004204074509650392 -0.0029293027466401923 -0.005726135247408377 0.005345690168435332 0.007548900975191015 0.047241538999999715 0.11434144555120535 0.0935790412923334 0.08452049121682761 -0.005712933131641956 -0.07455659578232268 -0.04020151058324594 -0.020357971339596617 0.0055711357989722205 0.06939381066535118 0.033398868536154896 0.06736038464783549 0.16323763542498088 0.043648463706518405 -0.042010903156285306 -0.15085110157466983 -0.11675221776641088 -0.07691236904929147 -0.0541993598120197 -0.04808472675044368 -0.03935749871486383 -0.04511139074605124 -0.00871282624876368 -0.009428705072376253 0.009520871009354953 -0.006803326993118133 -0.005947957495606749 0.00427045108888713 0.04386506372684153 0.0772016156804487 0.10898996626716685 0.16567730411448706 0.1693270481449523 0.2984968635931246 0.3383334706858295 0.3155766972564018 0.3746729665158876 0.3455489055103609 0.21500611541643194 0.159316424047537 0.11646777244790026 0.008364108039003181 -0.051628269722301556 -0.08511725818992202 -0.0865681635961304 -0.02378268199117485 -0.041907288933692693 -0.03886506160962422 -0.025787412845728754 -0.01762694251749225 0.0072530825052469685 -0.004519728264955231 0.0006139487695227888 -0.00011767468207349828 -0.007356777161141238 -0.005194563513943851 0.020845611294919384 0.08795601353435256 0.13081669777962204 0.2017741345955435 0.31083288049516855 0.5436233644625413 0.6109483179271418 0.6117768292589625 0.5365811609990966 0.4695839936631203 0.28962960314115166 0.23628685895340565 0.16259266760920843 0.14844537817669903 0.017200938992057577 -0.05233782063578609 -0.03547235199494549 -0.022529851861777632 0.0019509516150864909 -0.015104522278172768 -0.02574299023625662 0.010827328843124222 -0.009604498009673114 0.007204739948462305 0.0011780762232187665 -0.001935590557883015 0.005174938620446733 0.004338580033849397 0.039195937925588245 0.08270354768368726 0.14640536416641328 0.2161269540987682 0.310801491884616 0.41550071031366054 0.4281551157732161 0.49355185000867896 0.4420138306220224 0.3968207427670121 0.27695994119623757 0.2602748692209387 0.24656338686568155 0.15229825367936495 0.02450914234739297 -0.01977964877691292 0.020320694015814485 0.039035947167867235 0.010019972835100461 0.002994447177330132 -0.0011085491456177868 0.0006442837068813971 0.007660570171276684 0.0008633286047618899 -0.004265767007871389 -0.007232906204141069 -0.0041971107379091665 0.0022774217948250512 -0.0016769428300052298 0.028737818291016678 0.07753261980747493 0.15773256118266551 0.22243309253043472 0.25914176365231184 0.2551371954789307 0.36077271240490316 0.3469054556564702 0.30407872822378473 0.2632921325021809 0.23070803446683344 0.1872991088118381 0.17433605287567233 0.0758409293189942 0.0672965043184151 0.03138734927651457 0.01662162711440992 0.01323012680649066 0.00988961443548496 0.014936944138028447 0.002196809586893834 -3.8887503439850174e-05 0.006857996803856998 -0.008643861313180925 0.001465445430993693 0.008855251508658986 0.00035720096344643744 -0.0051778271187407805 0.01811710744091409 0.01841355285346202 0.06527939361058858 0.0778176068167807 0.07733594229321683 0.10260549915710435 0.12591736119706776 0.06601432238537057 0.0896600934594254 0.0827964687916061 0.08463818875001058 0.07604386883509304 0.045310611283631015 0.05172606788647337 0.04789254010837595 0.02836618439633979 -0.0018133429405269908 0.006859853284751881 -0.000442759911355577 -0.007313227826886077 0.008556979856500216 0.00791939934013297 -0.0001690969996612935 0.007134049930355843 -0.0016284394847180268 0.003669298003326023 -0.002040187211841552 0.00011484034901620803 -0.006208965943321454 0.013206367994092392 0.004206752060100282 0.0018959475202216015 0.002279555103993949 -0.004070577746333419 0.008524650408140459 0.008996643684672567 0.01945024740551951 0.016198158979683627 0.01764065595269745 0.018155027033111136 0.025314258762684637 0.011515061472165937 0.014545253984056776 -0.0023415725204499445 -0.003563600732241921 -0.006547907597604151 -0.0018272554997347517 -0.005171625040688024 -0.0018615601174128416 0.009504446848746241 -0.0035936134835593747 0.009649818899497906
0.002726122517119671 -0.00249817963212178 0.00714968998167193 0.002391734787371475 -0.004959338397383213 0.005857113559537752 -0.001341229825316738 -0.002849776653391172 -0.0033944612694983816 0.003947377512262788 -0.004626997521875469 0.006165560274107603 -0.0040942241120030445 0.0008824276717071446 -0.00024157016389595234 0.007107128251907397 0.007767728687907717 -0.006312311152644665 0.001706969178765021 0.007964100920342743 -0.0010776556193114063 0.008437366109676306 -0.0044201821908605825 0.002176623483875914 0.0036490741953363083 -0.005435885332990318 -0.009724649748845664 -0.0016655207525860787 0.00876963783713468 -0.003139437803391869 0.005594885909651999 -0.006505273743451851 -0.0031609432739509516 -0.007108045583238066 0.00433541628292752 0.003986152473936284 0.0037699463589783763 -0.004932079310274007 0.0035169695109866644 -0.0075014932948664036 -0.0015070176813732055 -0.0037246000190594365 -0.007449907310544024 -0.015210049195173471 -0.002222578837024069 -0.0004875205022844246 0.00018321154186490252 0.0029662551232624915 -0.006601185715654845 -0.00701106402122275 0.000283500870517657 0.0075066545270907805 -0.00632093116905556 -0.0007432176258348015 -0.0014213533194019409 -5.421628160967411e-05 -0.006769784590279762 -0.0031511871773037894 -0.004762391917929596 0.00689053886458958 0.0060066449155280355 -0.0014672168346371289 0.0021403092157807786 -0.007090687794675601 0.00019226588435117264 -0.004061058284261909 0.0031238228432606307 -0.009654804712914439 -0.019721446719522834 -0.03178255292488684 -0.03586793220178754 -0.01732484199212718 -0.028484930570997595 -0.049021613046661534 -0.054018108572740246 -0.029014044867792122 -0.016804013922599583 -0.01527174562049851 -0.009171370511031875 0.0017631845864308823 0.0069993977703193076 0.0050224208074387475 0.0015872108059446603 0.00849408363072056 -0.008705200331169023 0.009826930174636183 -0.00894010914664021 -0.006010089077228773 -0.0015449467671087812 -0.007849822476296647 -0.0002815294466128293 -0.018080065138548578 -0.013815744107188423 -0.01564073238411244 -0.016518579636490484 -0.03686047165772856 -0.05250950005214954 -0.09540063796093794 -0.15632753503657834 -0.18892316377911963 -0.18726097699315408 -0.18008286863809286 -0.1256486838058111 -0.13857552012642532 -0.10914695996047734 -0.06112407715167155 -0.01202671501734897 -0.0015010670298746783 -0.0023506508545816486 -0.0006042191982727953 0.009589667083596128 -0.0027124385926353915 0.005488202666720789 0.0010553519309978495 0.007782621782149656 -0.00290094297700856 -0.00632289606727458 -0.008373873290422681 -0.040919150599133265 -0.025974616292101127 -0.03935772971544578 -0.0304506118760608 -0.019699633194286637 -0.07402749249593221 -0.09423629301365652 -0.153920313821793 -0.18873932218255765 -0.2382456687579208 -0.21528781312588688 -0.17491813084279292 -0.12308481085304483 -0.08268811640463064 0.002947028706001836 -0.0012659585131765514 0.02137486351814247 0.01648316372135265 -0.007453084977313029 -0.0026120014877618744 -0.007155574938544267 0.004537875066891253 -0.00045974011195473556 -0.0010224232658646894 0.007719959423307025 0.0010004548278295814 -0.02893875978935842 -0.0913346623611912 -0.11590428574977016 -0.09092578566379367 -0.05752047816849544 -0.03795689209103096 -0.09591567661558074 -0.09899552249227493 -0.09939513884171701 -0.055819287580967984 -0.06710971806745973 -0.11984882447407479 -0.22130822388214924 -0.22750495387503344 -0.10323321881050439 -0.10891972779774145 -0.07015854444620645 0.03838810605790372 0.03990924452817426 0.07634596857273356 0.03533526416738673 0.012385302720426353 -0.005842891886606344 0.003186898723907294 -0.008581631990592255 -0.006947920259154563 -0.009668482341981317 0.0003819576860778328 -0.02437953133554369 -0.08398962762607956 -0.08599037794729593 -0.043546510000767535 0.05016638028276053 0.0425702159264152 0.005681145786073341 0.04640430088470857 0.03354904728926397 0.026870291959615693 0.023016219975083435 0.004321546443415157 0.019262070801601115 -0.03809521221535415 0.003545178590141654 0.07170740135732905 0.04926474590520703 0.08419537193460558 0.09761574191758776 0.09031033556834284 0.07321526991400698 0.014753813797331516 -0.007773468856770805 0.001871606153336766 -0.007144134343939992 -0.008117994510007212 0.008506465995062875 0.02759458251289053 -0.00017625844721757771 -0.04881370780672652 -0.04615431287885014 -0.03183139032006845 0.0940116332039714 0.14393167073110213 0.19435384965035069 0.15811335992520056 0.20441037157165654 0.1453239948430339 0.10518428539563289 0.22109886651810587 0.18556022674753078 0.29690996358221816 0.20270522395726726 0.20815754103011552 0.1960289843511483 0.11767018262824183 0.12600288854892625 0.11905637791372808 0.09223245239180423 0.03005800045965121 -0.004780154514436468 -0.0045120002501645926 -0.009257746710120113 0.0038771082274779937 0.004313870090473545 0.036548174577097935 -0.024829008489204465 -0.02563470155001341 -0.025425423714507872 0.04837330904668188 0.13822648565262746 0.14537801469998568 0.22963436435078716 0.25696504056178376 0.14055256767697394 0.1114404381786668 0.09331073180981066 0.25125348163504313 0.39587337976103376 0.38368818673434196 0.32040994029998987 0.414115266288915 0.3773965073373438 0.2689528901825035 0.215279908289443 0.178308330229433 0.11288041677094411 0.07944128865965902 0.014327460027041805 -0.008367520345698638 -0.0005377609422824309 -0.004041124967434903 0.0075900954387786955 0.045393956250208964 -0.004665906357454693 0.0059532239144705346 -0.005536878548079513 0.12925835839392363 0.1855960625463646 0.17584897203965308 0.22557730449384436 0.21749888641194354 0.09781214923776095 0.11656420756095474 0.18989461792491608 0.29646335887918673 0.395089485015715 0.35373764084823556 0.3670162465822034 0.4429246767300196 0.3815988731420813 0.2884356220748245 0.21154460455784602 0.140317849233063 0.11949771571600926 0.03735060014652801 -0.00394034081490499 0.006848916199128271 0.002366917386557709 0.0010236038445893092 0.0027105005002454326 0.04064421068830341 0.030352463299882157 0.008705525658525821 0.018849559212886644 0.1272796032953272 0.18913192235098136 0.22765969066821423 0.3368145368535 0.34654701440407015 0.3321290210992796 0.3169857743918547 0.20040855825770398 0.22920007395197567 0.24155492027625608 0.25608808618698237 0.3122146604362488 0.33735111280886837 0.2102735893991558 0.15288862856039132 0.12188823301829425 0.10986141870732449 0.04289003690787576 0.022238426883001133 0.003597260518954368 0.00927134174376684 -0.003086415734079491 0.001912501962698994 0.009308220854940165 0.028284726850220397 0.026871005918918972 0.030312220090883826 0.08951072839269954 0.1619908726906764 0.2501196253522028 0.36395790215268176 0.4519395743539697 0.553114043660691 0.5303288657438846 0.4151678205590718 0.2778329467076066 0.18014186677660932 0.20317836670614825 0.23146773258858924 0.2712550151081348 0.13630864431980894 0.026403991990836036 0.04502234893585657 0.0996211529618875 0.10088696023006444 0.020027506042838306 -0.0031143401493548056 0.010734003349534284 -0.009758064799692844 -0.003933086565828619 -0.009572480778238586 0.014067712547648081 0.013880030036781038 0.031023208115294177 0.04688026065871756 0.11845987296004527 0.20970260477653707 0.32843528330536625 0.4658818845160321 0.6716393223150473 0.7286552548259533 0.5774884213692324 0.35535644141124484 0.09374100938536283 0.03127338951498492 0.21331091507920905 0.33729188162967844 0.27793095237288556 0.07695315959979322 -0.06762217127118879 -0.008318696236235297 0.11138961156014754 0.07358504865423732 0.01657997444039251 0.005345484054316474 0.0075935540479891254 0.0039429705750551255 0.0023720148512307287 -0.006980385334407084 0.0064327953829823 0.008908421539362422 0.03883556893641061 0.06721180990855925 0.12952152165455774 0.26183180701983244 0.37579753397274346 0.4917955270851352 0.6404742461453157 0.6402781016859705 0.442488233674785 0.07519709285965857 -0.07802787132001338 -0.004537131572794905 0.2839672905769869 0.4653678553999629 0.28005132265714117 0.06576852552838523 -0.021050531910338885 0.012406370608003203 0.08237653265793364 0.038430686428355454 0.006282482702583365 -0.011915923341701985 0.005045832265231341 0.004498334944382383 -0.003392165072765945 0.0068698825212731105 -0.0014311504809785321 0.010657170587156583 0.02625065701352007 0.094673544061028 0.155512650091116 0.20982790702695306 0.2238500466496797 0.265573428117627 0.40067187394216003 0.36055388977857217 0.22248167816219497 -0.08400044015818307 -0.1980962482054253 -0.012905883919409555 0.43773334617112525 0.5115242571704668 0.4316997372592868 0.2344262723949891 0.102528047285073 0.1494316413840331 0.10175792746501608 0.061881384861454454 0.017336404874857977 -0.0038858871352313836 0.007835637577163554 0.0017984625415153957 -0.0060433443070416135 -0.0014133855476701537 -0.003265080025976654 0.01618106876894474 0.018007377927314903 0.08979160874054073 0.07005095139719518 -1.3060771035338122e-05 -0.02412615430097219 -0.010358466043546118 -0.02038727126530623 -0.0890208473590858 -0.1728166050758279 -0.3882639488306765 -0.40063705619501055 -0.15452028686747216 0.2868262210598092 0.4923606702094245 0.40963097784224206 0.27680178026969854 0.18253454912227027 0.1642643412780228 0.0452120268032269 0.019417263911063732 -0.002707653785639698 -0.03168483440314305 -0.026777981961888117 0.0037151379834509442 -0.002895812213207125 0.009484252557901826 -0.007297779964749193 -0.004125103710841495 0.020476195886604563 0.011917844229275568 -0.05113568281865552 -0.04845456985851558 -0.11483326763498924 -0.21806599144638852 -0.2110811341928337 -0.32253788444396947 -0.4415013895451985 -0.514464887135201 -0.5182531751086218 -0.18184576339670874 0.1908635218137058 0.4254592505129731 0.2666626355771786 0.14146929142461234 0.05761173256769315 -0.04819529228316959 -0.0837887087675876 -0.06248001879621218 -0.0548925782650126 -0.053930219361894176 -0.006666068493909424 -0.006182601136553851 -0.007636147413059231 0.006739955644270245 0.005408378781881875 -0.008851149202726914 -0.0072843914825008295 -0.03068748813010093 -0.14018593472520804 -0.16886505392625822 -0.25354483859369004 -0.2795493382158259 -0.38676648831422666 -0.41530910025498685 -0.5330087027063645 -0.6600350390415772 -0.5322410238495244 -0.18273636499254936 0.16354287159255 0.2878415396500924 0.18785283296501915 0.03404360721039303 -0.0978590994353762 -0.14922675020179127 -0.1851345189135814 -0.19972106413922439 -0.12766714361233322 -0.059361060794745735 -0.005381830990316416 -0.006502069820361556 -0.006300340688983403 0.006885200101501969 0.013113709607379452 0.009712272266085526 -0.025173753404739343 -0.08119018844259024 -0.20568695868302472 -0.21740664610769936 -0.28211049547962797 -0.37965111883606506 -0.4596883379069642 -0.5566399442895125 -0.6890707222357147 -0.6394964989339939 -0.506297185268182 -0.18778448094490785 0.0963059876818704 0.1798300487537569 0.1657459455755278 0.015408097037421103 -0.16091207709249591 -0.19487001715730956 -0.2295133141407114 -0.24974936599279257 -0.14097874419316694 -0.012824828186284894 -0.005640621398776642 0.008515496032728798 0.0037927879815911544 0.001976417812468439 0.010462064793862401 0.02440160220340253 -0.03478496910954531 -0.09191626820312289 -0.13534369461260295 -0.13524664727598404 -0.19581996389844528 -0.3264352656091066 -0.5342516914577257 -0.6662155329254005 -0.5777055202090543 -0.4882128111238761 -0.4271076300087738 -0.12653024134475377 0.03502043354676938 0.1198598128049679 0.1182894372310515 -0.03265621418749596 -0.12892817789409916 -0.15446408246332666 -0.16165590095236612 -0.11596510430214374 -0.02995036023906188 0.00446208962389225 0.0012298251759874854 -0.002838401719741284 0.002262246707340246 0.008714725332163996 0.008965470923064572 0.03925708594157904 -0.023227854455031133 -0.03822155074421611 -0.02621168954620925 -0.04902774562313762 -0.09070819516842199 -0.21273649552953536 -0.4099986047579875 -0.45462181579745686 -0.33520805242044577 -0.23487334754357006 -0.1426137547242071 0.02161508218312181 0.09353005269437234 0.16648412819896977 0.04675775989951099 -0.01579079226307925 -0.02362456209308393 -0.04960173061119331 -0.061626989501020836 -0.04822400128621948 -0.024205905822134777 0.010204827975379959 0.0132671339025758 -0.007207013326317931 -0.008589159105126016 -0.008530666912797533 0.005601946886921825 0.037364167867804166 0.003197322279381744 0.03556712033441 0.1039040639064376 0.05515157257524483 0.06708687337219993 0.0444898296129062 -0.003412321588034792 0.03928795061977119 0.11516656042809668 0.13287068650989595 0.19074026319059806 0.2442477531330119 0.21786239006013414 0.16224253960458723 0.03421990648060872 0.021186889893922155 -0.01555435602590935 -0.01427519602807839 -0.045056356781816305 -0.03949948243033172 -0.017498143916471125 0.002901549725324605 0.003939728980710185 0.0077599298785292915 0.0003606512318881736 -0.002545023958050288 0.010042161913886098 0.02118410681172457 0.038171662680358515 0.02696730631775779 0.11441420703658399 0.09273305691196934 0.11281698634351309 0.24083777058574296 0.3169676399656015 0.46278029741781435 0.5322693515829247 0.5086019115875886 0.4102326269202845 0.30546407968779327 0.1379823971322905 0.07709289946837199 0.02507359253483802 -0.0228963235187472 -0.022967731394479128 -0.020023967239109347 -0.04189776720745466 -0.024154681104360125 -0.003175136367441468 0.010492963099814116 0.0027899543805043866 -0.004435231151573393 6.010390101909499e-05 0.002867158492982712 -0.007284397840822503 0.024983501819856292 0.0640550176959827 0.09329560607276666 0.16846162013691465 0.2585961889397694 0.3704213658297703 0.43775593768069393 0.5053824701749786 0.5989924583200563 0.5790974745146772 0.4654744274677431 0.4183239654284314 0.2457791893470095 0.08566886585789245 0.05545277593171862 0.006305016518610589 -0.03542541119291859 -0.04302030350071458 -0.050805012483663176 -0.035720539710096054 -0.057633190077329075 -0.003520898609752056 -0.006056073070666614 0.0038205468311340845 0.001476057383307059 0.007466462680734644 -0.005107318685615838 0.002592159134378262 0.012080336567916317 0.07014374234655352 0.11513198182647798 0.16222392164691898 0.223249064930129 0.23474922309456536 0.22635264604407082 0.28848379515195477 0.3748825169087057 0.34826437560677453 0.2723335850178768 0.27177056547736667 0.12568045550998472 0.06618223913218305 0.02233926509282669 0.028597520254886172 -0.008303358808326862 0.008033893602683514 -0.005704497635090865 0.011548436317517567 -0.006024781745416606 -0.0004759687144971026 -0.007335857724977961 0.008741607695979285 0.006096716920315893 0.00876057086312705 -0.006292389507043954 0.00866311525646451 0.009913779448782613 0.017936379393859843 0.059889683456614044 0.11506414441525618 0.14795907750027526 0.1763694832438003 0.20020863982677478 0.25520781990422386 0.21965278634706037 0.19702676768649427 0.17669801154974912 0.13323345484316723 0.09195847971727318 0.07183680747062805 0.05014157128444546 0.01150079991447611 -0.01520377275557088 -0.015264642321380065 0.0010941723592137037 0.005328271433129681 0.014027374764626935 -0.0031382709319162042 -0.0021713927403146285 -0.005196555855572456 0.003728868303447281 0.00979766906674231 -0.006451409262634762 0.006428934804525945 -0.004467440558410911 0.0015277633491763156 0.013188003708448148 0.0482219241504687 0.05251838230132316 0.047069668285898904 0.06592412694160203 0.07027264662004915 0.048562725888274795 0.044636616940799095 0.05221330734281283 0.02771201121381392 0.023958448692032803 0.027774041027309477 0.012337087136372719 0.014540425096326318 0.0072918125593682765 -0.002879254438149025 0.005784528714327306 -0.007084291375704459 -0.0051023872247623284 -0.004153724759214326 -0.006081361070020157 -0.008241226324587934 0.007399523605432149 -0.0082362270885698 0.003674206716432758 -0.0075919824628455325 -0.009786019937116516 0.001145364601498276 0.009759766836423446 0.010974477332627249 0.0014488748485507917 -0.005360976580568281 0.008240860575301635 0.007721846627917486 0.0094937933210884 0.008762007100995145 0.013896035197065197 0.013644464416880395 0.004584641689323096 0.0082790852603705 0.004591534678405555 0.006901848920368112 0.0046469602998157385 0.00040627271726632885 0.006569362961709428 0.00011558773579732964 0.006497171247704639 -0.0043630982371351415 -0.006430103340450235 0.009397411406894282 0.004838790509121536
-0.004804166133911709 0.001624706845823434 0.009105245070763738 -0.008384921843758424 -0.008329315858765179 0.0023826966283981444 -0.0055101304232808455 0.0053036791346701626 0.0013630508589821018 0.0033237618044699054 -0.007843721984108152 -0.008314338971268865 0.002502421366109793 -0.0018053747773195909 -0.008254949522560364 -0.0025787210996762178 0.0034428881931369733 -0.0062082519961682864 0.007914582170574084 0.008996927777601747 0.009231450848690677 0.004601651154805203 -0.001874231446233698 0.004874983927024392 -0.004240262414504969 -0.0037116555521850758 0.002117927224357158 0.001896942668158352 0.007573219526316221 -0.004907984886788461 0.005323767304056435 0.008820265336378025 -0.009979341346845307 -0.0004782176399579022 0.003140806580494586 0.0068664642783904505 -0.006325211762479965 0.007123184759747438 -0.0021671687025998972 0.011227713127132666 -0.0094457651975527 -0.00734788442227133 0.013910190657928912 0.008822385360409005 0.004010709706316121 0.0011945181329292118 0.006935296908371759 -0.009260498632812844 -0.0037677217307859065 -0.003530416060218493 0.0021488378702910708 0.0030166251335139414 0.006921091984729387 0.00855161885195087 0.0032091545522219926 0.001563478368170763 -0.0020256891274198323 0.00933224985284284 -0.006918416563352852 0.007901736172972967 -0.0037797386423031702 0.0009697817933220793 0.003641325168656298 -0.005270606973476893 -0.006645266298994567 0.00016964026859231894 0.011872677286035775 0.020816216226002555 0.017400355806869435 0.034890679902663896 0.040295919958505455 0.034215910085036716 0.02399591748247922 0.03696960565905955 0.029962272259401925 0.028861774418855773 0.016451799577606972 0.018991111604682004 0.001425135331588675 0.0006788196286943389 0.003007962649682396 0.0018858170717332891 -0.005370741289315044 -0.0014635730110352883 -0.005037770718796504 0.006912299244622907 0.009733548899361654 -0.008668583937352415 0.004278560645339227 -0.0033976889560185146 0.003973722567150728 0.0024419415615919058 0.03336568803686871 0.04350357187020325 0.06337364379749402 0.10071972648211945 0.1078535979882132 0.12597187538198446 0.1326366194215578 0.12532581126313735 0.10538623653187926 0.13003072871819651 0.11569909901732608 0.11468366710180676 0.07739676394410755 0.04345126464989045 0.01039547486814876 0.004943218436530019 -0.002194705908008381 0.0051965079343219475 0.0080587180424342 0.0017484003847515386 -0.008191805686104028 -0.007420480317154478 -0.007894749466744263 -0.0065454507335424 -0.007666248503627564 0.015573295096936479 0.01520512305235078 0.028728548862913362 0.05574567150446443 0.055925520072650614 0.09450488857115293 0.14874533530227518 0.14405495296046583 0.21059537654190957 0.235090599792637 0.28972486683516185 0.30932824457476754 0.2670187260048213 0.22482150110163246 0.17199051864709963 0.09846958380039077 0.03544923671631938 -0.0398962795719563 -0.008971900811672508 -0.004328654708688768 0.004503333176654167 0.0013110847076076224 -0.00015151905203360932 -0.0048156374869852605 -0.003463386302672498 -0.005010755865972245 -0.0063113041919026745 0.012031551851320136 0.04129707141747307 0.07134046320255444 0.10976741776667606 0.10857933327791257 0.12439981587793035 0.20789880765732524 0.2612294814274403 0.24725116810584105 0.2993688074273571 0.42013736733236595 0.4880581220485448 0.5615551014484224 0.4399985307301049 0.39486944782650807 0.22612579097235094 0.2148046893224468 0.08129940009824276 -0.05256716218963165 -0.07496279177194302 -0.020202434642044704 -0.026042141185724347 0.008630437481747166 -0.0029493486238987643 0.009957685564498048 -0.0013262052119004594 -0.004103759764030093 -0.01662246943214127 0.013977687706265654 0.05924024935020483 0.1632246361382589 0.1971515980128492 0.21478549324955248 0.20324022254715526 0.25507864484475984 0.33182715016988196 0.362259620888273 0.37149422643999125 0.36944149085038586 0.3917673935625996 0.28132123403447984 0.16841694757479356 0.16038162776004286 0.15086416218107926 0.2703318528424855 0.15157689213271108 6.0833788767564405e-05 -0.06370021494066345 0.011079955830146489 0.01872505813498174 0.0028403403143427673 0.012971754746978016 0.0005524301691269846 -0.0029351518803388196 -0.0037920899758809674 0.011163450868722525 0.023119073447072314 0.0900396057384363 0.23135978432437332 0.24000943558304436 0.2522814718462546 0.31462536835320454 0.42519317171966714 0.42210949296568834 0.4037902035677047 0.30025642750485176 0.2077960864023272 0.1583709312426338 0.035036588987015664 -0.06335047891571197 -0.012986429230217995 0.04217172001577673 0.21161360011406669 0.24522831985170754 0.11161907830979996 0.021674139071742492 0.01121430254434423 0.04875467235800074 0.035498776628051995 0.008167358917314354 0.0073525441923034725 0.006997437628806646 0.008039047234339456 0.022478600536402014 0.06665549161330495 0.15748322452059668 0.20212088883980603 0.2604803373016916 0.2820706366504063 0.31434380872597656 0.30237405535687567 0.30130257689346185 0.2858255809126354 0.17195951431821838 0.16332231271611716 0.24722673319195562 0.10236013161398119 0.03065860865467398 0.03619525158753981 0.07012438292742489 0.20605553427441842 0.26811073569930866 0.1678970309302881 0.05357269152231241 0.04775114670691291 0.04357530103548741 0.012075692773866734 0.005434369648309168 -0.004975936333012267 0.007233332934095924 0.015119685903112818 0.024248055147012053 0.0896665270551892 0.1594029137046217 0.16441062405388907 0.17992878958936337 0.18796357352512635 0.15411147284114607 0.10064877575187062 0.037203719395091484 -0.07215417410026159 -0.08364372658510652 0.07259987685772512 0.23143289793442326 0.2574671156738774 0.268462998941508 0.1027452404164179 0.17281888309746246 0.22796367545268728 0.2223856688676385 0.13527014416341623 0.05632528857111152 0.030964532946752867 0.01260963435258391 0.0012024104794373075 0.007494952398087269 0.004058634642287427 -0.005826132139913274 0.02415358341302199 0.07378773617879236 0.07730356520085978 0.09040636154416508 0.04123529228734488 -0.031709959957611424 -0.0921836183044684 -0.21882273855103493 -0.27077979198801844 -0.3607785453435112 -0.32417161404477823 -0.11888818557227296 -0.027744506924402567 0.22616036939739764 0.2991428881520315 0.2488697998559023 0.12627867158886233 0.08542923253267792 0.1303365707031509 0.09157970168579774 -0.02016964845867124 -0.018692934983750062 -0.015912021022189467 0.006933278792873724 0.00041135684041685523 0.0005142318268281931 0.003171360831167239 -0.006376092360922767 0.02395472619632969 0.048839203380184264 0.06095568933617148 -0.06617965471023443 -0.1688507673896574 -0.2877719646830667 -0.37629051264731495 -0.4928465390506686 -0.46313900282191334 -0.44760555131523627 -0.16530513603212854 -0.03239209363922903 0.016668417312525496 0.12104704641049162 0.14235594711976038 0.11831041028354723 0.09706518441299036 0.021665658261823467 0.0017638216154573201 -0.095519572419825 -0.1506003108644649 -0.08304978555862359 -0.03195139494836628 -0.0033881849400694973 0.00041421159066576955 0.0019053956134651249 -0.0007568380661728581 0.0002529949351423519 0.007025282124776662 0.018859933556428867 -0.018346221196684363 -0.1361072724296135 -0.32478268551625195 -0.5110686018168233 -0.549613984844235 -0.5276575875944042 -0.5034718412879668 -0.36104073788058627 -0.016811234721753523 0.09144591116723323 0.09140816645786203 0.08625340713527374 0.03710258587076291 0.06362780686923108 0.09026521127064513 -0.0029896687531942258 0.023576525434286955 -0.13103729453514887 -0.15225979559621458 -0.09368876383237887 -0.007196050765534637 0.00635079663978946 0.0008350965053605645 -0.004621278844298702 -0.005616923884854839 -0.001423986141718226 0.006191561063421648 -0.0030848476769449536 -0.06433333504598848 -0.21440053680021942 -0.40303758140616874 -0.5447252555739979 -0.5827928803381435 -0.6290424675853518 -0.5629879914200954 -0.26210253850308474 0.07768364159683261 0.04753431935182395 0.008040289812762962 -0.02003427973864185 0.01480856102634812 0.05052775141221265 0.06765721162270474 0.0889707571777656 0.04099353174781745 -0.15233118550991886 -0.15611711673111847 -0.08087770061464665 -0.017482058878582597 0.008563054667920915 -0.0010486625277370684 -0.0006508021590926113 0.006796814203953347 0.007402047306151354 0.0063350792875353345 0.008506430466047196 -0.09284722929150845 -0.3137602049249146 -0.4650703350482892 -0.5413891140903998 -0.5162647723472521 -0.46962678437994176 -0.4547507570765027 -0.23300862821879223 -0.008538126239923567 -0.13882932568103745 -0.10976925172460697 -0.027883159480086166 0.01209603691952678 -0.0006522687161549585 0.21757084131818072 0.17171438503622916 0.031424791554473634 -0.11662260093513063 -0.12702713398842233 -0.07841880487684083 -0.011802401215048209 0.007368739103556946 0.0059758667023287245 -0.005190313503938245 -0.0049153529068529525 -0.008318272916401411 0.007282881895280537 -0.006070683771106057 -0.08211169370663486 -0.2669827375276944 -0.3968692311238914 -0.4038045549115272 -0.4427644147535377 -0.3177682860978183 -0.20822715201259723 0.03478558445075859 -0.0162784763980981 -0.17654420284687947 -0.15705566602704152 -0.05576925884306712 -0.029952896239086063 0.05280990428654309 0.2761135433898465 0.21725252793151673 0.08592483189760858 -0.018575742444479997 -0.04309690883400564 -0.02345453936388203 0.009802355251254835 0.027899654917478284 0.0007869679611623802 -0.00602703471158877 -0.004551982997412356 0.001975778358184209 0.008419403793672496 -0.004028620956743607 -0.03307604296921585 -0.12270454714310663 -0.21942087200428292 -0.2964648529424893 -0.2547228248783976 -0.13727621703049872 0.02872571682063569 0.07247863159506787 -0.026540929474779953 -0.20731497963268297 -0.1954520497705478 -0.1160078226182528 0.0032871996653647496 0.18427242477322034 0.28523364003505547 0.28445721320891676 0.15743780723897607 0.10442754750218958 0.010680040227674919 0.0025058285461811956 0.03260623230165734 0.02581475469377756 0.011154335382068083 0.008969168086115873 -0.008549689439090733 -0.0065459782373545015 -0.006385634044998619 0.002318880527211984 0.04872062880454983 0.0571846148535475 -0.023356237078827873 -0.10864676774919117 -0.06481951060953303 -0.008705479124082085 0.02865729195905182 -0.021703162481094298 -0.1867459990568411 -0.3075369338161675 -0.26895592960998566 -0.13144875684023624 0.018663012067757973 0.1945945630669793 0.2818281300418076 0.25106102434241323 0.21896184186014675 0.21167874406556186 0.1678450662784594 0.0901237279880778 0.06909196126442087 0.03795353883617316 -0.0024556542477698695 -0.001511250675207694 -0.0005407009627997391 -0.0015431637392277382 -0.008046809879780197 0.018124591397273945 0.11620549533031486 0.24312647292676529 0.2011873976374484 0.1710030914291112 0.11894831543631995 0.1460750232903326 0.09549714914737663 0.07926423685907065 -0.002931763117308262 -0.12005075822969055 -0.09652471701213586 0.06136319903717017 0.15303166998137083 0.2565742739714289 0.29824116598815675 0.20898660121240595 0.2310702923692669 0.25655767693462644 0.21538888799755404 0.12488008564462579 0.08697418722940427 0.021567259857768896 -0.0044248318261312595 -0.003707047864497763 -0.001601034911961419 0.0020557352448459226 0.018478491138447198 0.04376020625862151 0.20807319160215432 0.34597929590845244 0.44213759020679044 0.41047083168186194 0.39195900551594953 0.3795607125110362 0.2704706058290678 0.2537288324847534 0.21705685356948853 0.13376304691951463 0.1336415693920951 0.2058540860169546 0.2728232874368781 0.3226331029119801 0.32527891812803555 0.2738737748713086 0.219885501602041 0.21909373751814495 0.17293462938925036 0.08504575613093412 0.03345114300441598 0.005927787345160911 0.008008978247721307 0.007439712623818368 0.004143752195683645 0.0018180119898081343 0.01720891445032294 0.07242838286345646 0.21888100003353717 0.40901058196105133 0.5008336806286832 0.5369907439888881 0.472660500400678 0.3855063381230911 0.3733363964974139 0.3077044471304958 0.3383565917919961 0.3446371091619111 0.24629564844567514 0.2914014648898172 0.3353977754178972 0.28311156727500064 0.31160073332059535 0.2741028572947351 0.18792600509558596 0.08324713439870138 0.08986571494035331 0.08546895622390574 0.0547471962292249 0.010464547791226792 -0.0012362747644970565 -0.006194330346419126 -0.009882380371107436 0.004698840373679229 0.01147453158678041 0.08009450310552671 0.21332095520416458 0.38781692786728017 0.4715084675137101 0.5464602494590424 0.5026723086597744 0.4179849710316715 0.3620305737917192 0.3735966991601384 0.41331105123341716 0.3253759844292374 0.2147630729638749 0.17546430435239896 0.1667244417789114 0.1434316575766526 0.12340234449077528 0.10642938316587283 0.039910956803727304 -0.011570396696516938 0.05865380547616726 0.07746690318424547 0.039359361844278934 0.00975153114117012 -0.015193773735266616 0.00978904261672506 0.0003042939232414735 -0.0004235319762905653 0.00835151307297748 0.04757545740569535 0.1343880249064401 0.2583443782028345 0.3295431617205592 0.3947833951048059 0.3650211161815222 0.38330586602910716 0.40755936323394953 0.3383101218106894 0.30287410489088035 0.12242387795362862 0.043579343222230914 -0.0002842160202079371 -0.05413042635513848 -0.1087453980604314 -0.05614708053258522 -0.09773627585483051 -0.0808531250860518 -0.06583213193653913 0.02635076040754927 0.0024172809370777175 0.0039225561663466775 0.004571532215152345 9.00672948666758e-05 0.00411160824241338 -0.0011911888004856406 0.005083500509103188 0.008845935026309364 0.026351884354081607 0.1020655800470903 0.14547496508502525 0.17274911384952665 0.18581430201417062 0.2569158824756231 0.2261609502249392 0.2624679480928361 0.20905449412573457 0.20182268799586117 0.046131490231946945 0.0025905384240829015 -0.08514631903045974 -0.12414037349170252 -0.20329956717158645 -0.20626589282904947 -0.17273763206285553 -0.12342840113745883 -0.04519722776767251 -0.019672717231921103 -0.00534566575403691 -0.007840932493507952 0.00618433167434689 -0.005968067311836578 -0.0034495188830342173 0.00485842500779394 -0.0031815950173531586 -0.009047781425868899 0.021807978672721065 0.08059743319836825 0.11621973097030103 0.06920323024998659 0.13006473435473723 0.29437299452583565 0.25791156709083873 0.1505088181523149 0.09256055713985999 0.10284680303391701 0.11808765531534594 0.12365080354974611 0.08683124914026281 -0.053072143409838075 -0.14236713272638635 -0.13827256192872314 -0.09078545072929799 -0.038809493958221294 -0.011109003921215842 -0.026839964569766298 -0.01363696302560735 -0.007775891508774549 -0.003924831316962627 0.000433186268265438 0.004246243912948583 -0.0038937293710338654 -0.009749543262270535 -0.004634743417281273 0.00809902739814434 0.029502414576380125 0.009889603701128057 0.01679438007731244 0.0743848444428277 0.13514530658867907 0.11240126465885161 0.057195987944547715 0.03637842019742249 0.03825522779944683 0.045601037087271354 0.04410960372056412 -0.022206231762579243 -0.006218931309105768 -0.019551251688811593 -0.005997453865217974 -0.01984096500179756 -0.04591864453573802 -0.003515060536865576 -0.017546877957490357 -0.020722247987812026 0.0017808625312560385 -0.009360316312484523 0.007559208374503136 -0.009307319973245593 0.0038638911675677613 0.0017496895870081838 0.0028349836166719333 -0.005467026364057215 -0.02666936826925997 -0.011460247904068518 0.0239972966941252 0.03492694732597752 0.022682675735266705 0.0472416288322302 0.08879141445368469 0.06822971627861225 0.07695344315730637 0.09231560853196333 0.05324926121766114 0.04277328162464756 0.002608959898465341 -0.0001363291583639495 -0.01825104254260516 -0.01761388721234197 0.000433010597895181 -0.006327660986609836 0.0025271760641736724 0.0024710360209111663 -0.001839057293041426 -0.008993297406810966 0.004896677460649854 -0.004085489311522377 -0.0020308360690191977 -0.0024552086493898105 0.0032720526334218715 -0.00827333426369672 0.0009977984094396222 -0.005030767693371217 0.01940117346042122 0.012526524187188517 0.006489382529237003 -0.0022371282503901623 0.007593572411642956 0.01573067972481608 0.010909076509802822 0.02278636857562605 0.00807152771682546 0.023664485104666167 0.023617835343562422 0.013676322119353622 0.0005431497410237524 -0.009929671273627073 0.008472314926815215 0.0035616586824796497 0.005427250144029238 0.001432706728699027 0.006678093549984667 0.0039656359858372525 -0.007067825964461821 0.0022492225725614986
-0.004413593287673363 0.008317574461346003 -0.006035354195796925 -0.004285670092573943 -0.009046905900606422 -0.0010484171189872379 0.0011517563034222356 0.0014712216515419055 0.00810754759919346 -0.0030517213439878992 -0.0010494324081748944 0.007024753250029948 0.0015365860646404973 0.0030798586975546733 -0.004432813392113679 -0.0002505739674830195 0.0024190477516094436 -0.0073321193970952 -0.009341825668149312 -0.007731779977383477 -0.0004507784732069378 -0.00951946530738383 0.0025241785827444345 -0.00804834764047831 -0.004980769245675086 -0.0014701410828756312 -0.007683465065875019 -0.004588960124050672 -0.009578406543289775 0.009700911072209389 0.0022314721624282115 -0.002432923223295018 -0.009469432977791016 -0.0022032250325003154 -0.0009488274722713134 0.008620063875290055 -0.004429916563238867 0.0022956378216659815 0.002998113237110146 -0.00817335450218229 0.00011526697972863605 0.003929014085611639 -0.01413964260646761 -0.0060957293332577645 -0.01779382477323213 -0.016177966741031766 -0.011619107101221353 -0.00037199081701927254 0.008514082173804617 -0.0018888523172195162 -0.008499347213269184 0.007227049489660577 0.00038595170940880497 -0.0036212826216515184 0.009260646775693512 0.008765235370047567 -0.004799620560866154 -0.005972162925725595 0.0017781740661215444 0.006850364196831179 -0.003265578205098902 0.001728588429285232 -0.006755100010423844 -0.0061081252952371635 0.005226704319841912 -0.006998030772959001 -0.008514317464367507 -0.006381453822829512 -0.014537238651938764 -0.015622981227910542 -0.025453613949976413 -0.03192455073726463 -0.045714023575165484 -0.046455347522548554 -0.0580150005857673 -0.03833646371512506 -0.0164712987354139 -0.022427837271145844 -0.001033964929283132 0.002461157297440729 -0.007694131490399459 -0.005838051800021056 0.004909966614963292 -0.0019318674333165427 -0.0003105987810298645 0.007749101561454549 -0.007251129007515383 0.00928745594772235 -0.009147406364068402 -0.008011194854902304 -0.005156643370221141 0.005346629902238459 -0.005764924131567217 -0.00955694158167649 -0.02951234275044119 -0.04183372061575344 -0.03591153680752806 -0.030520552906298175 -0.03241451190404489 -0.03540536450862787 -0.05455135000835186 -0.06772236320281505 -0.05753097934758649 -0.05529440691548631 -0.03473731270735142 -0.01029641485806133 0.00456531953778501 -0.005129845931494476 -0.0017544214404286041 0.002230881989006431 0.0009366891163161677 -0.0022145010918206863 -0.007971584462374465 0.004244896087945111 -0.008237296721491323 0.007321548587474391 0.00882026056090027 0.009166798475081192 2.2738218213451664e-05 -0.015347659765966342 -0.018339484566510793 0.03037513225495804 0.02534385002277634 -0.013560711210951374 -0.02359309512121693 -0.052495536887161194 -0.10691295776363294 -0.13157525661604413 -0.16022431816252689 -0.1190130877100522 -0.04315042147292383 0.0478164976141353 0.1554539355341565 0.13857806360625588 0.10577512561517857 0.031403386180760516 -0.008613823240213706 0.0010251329787170308 0.0019173389123330227 -0.007090004215565824 -0.0053811658335575175 -0.004272457369252351 0.006615027338088516 -0.006787217286320669 0.006962378887124634 0.013063070751014743 -0.01928617243070911 -0.04908922306368084 -0.0019188511803297603 0.011110099434863427 -0.00023480162618441655 -0.03248684128892784 -0.049680381718431775 -0.057620247512000435 -0.06239079573945707 -0.0037213216036071904 -0.014952252580686219 0.02871979653450047 0.11807647276547166 0.18360983640634101 0.29243906715934753 0.32152117659849055 0.2689265210536158 0.17947766889036906 0.1017619167818921 0.011055792391832239 -0.01285960581086736 0.003886138778474572 0.005045132096081864 0.002355085592201359 0.007583971210731911 -0.0058189175288582955 0.00028583640992332047 -0.011388499059461767 -0.0664830909605663 -0.060672621822737305 0.0017726110234567041 0.04781962611468738 -0.03172667725197364 -0.08263617932442942 -0.04556596885263154 -0.06887636733300498 -0.1390623155051507 -0.23646172198501414 -0.2734323788101378 -0.25756571851414983 -0.0653909645464712 0.10154587790683392 0.1728073078306162 0.3008056346463416 0.27115762360980483 0.23295369983553185 0.11705016640638492 0.02117247884688899 -0.022812856369099133 -0.017673900710743585 -0.001570179791438038 0.00110208860016877 0.011416813958074522 -0.04124945595439615 -0.02986149793114637 -0.02245910065888738 -0.03685176165644919 0.03714791587966734 0.09164355646753988 0.11405412573429632 0.05336578476529329 0.0682507338824989 0.0885218492300013 -0.057488961084038476 -0.26406769655094525 -0.33653010613510664 -0.21918107613120744 -0.12443646754683553 -0.018506613949702242 0.0761248514285234 0.1472851210266832 0.2317145995704756 0.2393347459195633 0.19367073988889488 0.14298705147160187 0.051459762022605535 -0.015536589393793073 0.002064392635301182 -0.004836226719850321 -0.009255194887784304 -0.008007893269494634 -0.02945160102212633 0.0018643983023334657 0.03772191409780237 0.05446757125012667 0.1341120949779196 0.23096417576333447 0.2124528585931063 0.1561746326866066 0.1477892152635514 0.12247382512729908 -0.007871630838630453 -0.021919183210569296 0.005082079838258599 0.05972033248672469 0.1963591672857237 0.21625839843432498 0.21241057487672133 0.21166479246865255 0.2830601750760034 0.2812763635191963 0.17885120992104625 0.12488342092426592 0.10913599755385094 0.0011675414349618652 -0.008280955448451643 0.0004356241846811687 0.008976808337526437 0.012972309315273956 0.01280958790894094 0.03555701733243105 0.048951419663155415 0.06406726526795818 0.17033955379916801 0.2658818159519711 0.2033146446096754 0.1757856117708047 0.22529543373251187 0.17072517555237118 0.20209608948923663 0.25157059266526927 0.20330256645335287 0.28842831764039695 0.3238459679241492 0.3275674582607701 0.22376781643162147 0.33408060294209235 0.26319618176436305 0.1765178841040226 0.08143259725578367 0.09676951160224058 0.05092706314805212 0.007959653695214636 -0.002973633592836149 -0.0035526664973116098 0.002574165675318501 0.004530973891334126 0.022653651782071793 0.03927012817349155 0.0539307915967307 0.06781510350593489 0.17114096641780066 0.3028402157008452 0.25784578446291945 0.257927993014381 0.2616920446785349 0.30866723303985744 0.43076248041335335 0.27313103250967957 0.04278101152295329 0.0025891802255825283 0.041063605847384776 0.143624155260365 0.17388669585031977 0.25096620167746264 0.17018922468922193 0.11646328505093873 0.02544059758524436 0.05420968593553785 0.018427809302266264 0.002576831371943821 -0.007620692067559911 -0.0038392602589093737 0.0017392441445935828 0.007571688652290796 0.033734836481710245 0.0596637960074277 0.02417851832026202 0.030368937723970375 0.17383710908717445 0.23813500144865807 0.21711424741172117 0.27711593005587587 0.26744173717251046 0.2614666178610241 0.15950115522905553 -0.12913924856393608 -0.3153666699150484 -0.23887370449359638 -0.23539229870440587 -0.15811669757840838 0.013982331269645145 0.07968953238710445 0.10100007440072488 0.11007979812220776 0.07054295621084153 0.04874682346673981 -0.0011127195157205028 -0.0010706750723736265 0.009210089455101994 0.0036444128094790113 -0.003786746078722882 0.00365423806011529 0.0261887456386593 0.04772110697711065 0.07649291396519503 0.07264568966640844 0.16213753809775147 0.13804894720299943 0.2645957949833188 0.3535004749159733 0.2626771319372548 0.08538181195355657 -0.14967726044805882 -0.4143962255054336 -0.5476517309832908 -0.47651962504861195 -0.3674756532931578 -0.2195321472541562 -0.002690126874815351 0.1320878630939689 0.11838957439759462 0.14000328592555694 0.08144772520459576 0.016031945141859065 0.00861563633210682 0.0018189396460073076 -0.0032102521140641516 -0.00010706303786182057 -0.0036994582206286483 0.0023088356425274323 0.011671495167277135 0.01995118242987848 0.08039536354232182 0.11484358504137732 0.15094676931029274 0.11405219412307122 0.24042369602715924 0.21746412445368588 0.12285326694141473 -0.08499099197054849 -0.30879471653512813 -0.49077406354037373 -0.6869124373501315 -0.55218539246471 -0.3147697167735133 -0.1169100996614271 0.03883876678271391 0.22431934489811944 0.19881543716101127 0.12552749427851884 0.03379347744934025 -0.004517420191426512 -0.018638232928272765 0.004899910520769245 0.009582549819164341 0.005703305259046136 0.00529452393690835 0.0035089503135603967 0.013922840274361891 0.013366808234347041 0.07197322952388761 0.17667566708780738 0.21443198237715577 0.18853310720963576 0.11290579562797308 0.028230830405660618 -0.08678293740885169 -0.2858123302159913 -0.47773342922114764 -0.6080580294279554 -0.5656888489727587 -0.3539907791836737 -0.0724274802786477 -0.013686935264243395 0.22516297287304773 0.2941629729637457 0.21649680016878045 0.1329453792932427 0.021272609909960816 0.017313273656270018 -0.010461360393736687 -0.0035640341766126115 -0.007587344092852071 0.0056467612672452 0.0008976741335238909 -0.005454452371696823 0.007282754980155953 0.021516712317761803 0.11861746582778494 0.2507902445598162 0.3777243636955686 0.3543555720011774 0.14409191561558218 -0.04497414505110409 -0.2539974319412924 -0.3402698479355612 -0.4298724006154071 -0.45319189949227734 -0.2887979598006643 -0.18011854253888193 0.09502973348563407 0.2806662599981303 0.39606977284639244 0.3401912390340194 0.2375596313177419 0.14076132986848516 0.0964949119449226 0.025004773182782332 0.0026032421756384157 0.009300696816121912 -0.006741020028356311 -0.008266550546941798 0.0018920777622325174 0.009035403999748268 0.0013285688220703853 0.060273421644769676 0.21293228372782205 0.2735077641340201 0.4658692884272038 0.47947940167057973 0.21412656346412182 -0.08302087053626814 -0.21610689314935425 -0.30603926817419946 -0.27883807811788214 -0.182564416686015 0.004142167309977057 0.019962782187499126 0.1691976578929932 0.3998004881175981 0.4006986228657714 0.21579051747957986 0.1759045054912272 0.12800025071314267 0.07406652003808635 0.016270066787294004 0.009596608523746027 0.008275724718474887 0.0019093233793908565 -0.007812646889862926 -0.0065291470631499695 -0.0021494931141912586 -0.012125240978907142 0.03413792021722032 0.17444683909494008 0.36830180474045215 0.47092907674864926 0.3712672542508057 0.0701060757989286 -0.1862054573732973 -0.2723880962137693 -0.2339594013641901 -0.1601440249492778 -0.0009230212112446137 0.20708781380487654 0.22000682225593518 0.17422378214920015 0.21290073378510277 0.22516108400969242 0.09054695872421985 0.09787698410593149 0.0842383199071828 0.0850079156584861 0.03017515834523279 -0.0019036615049494634 0.0016337453873784963 -0.009503082792725374 -0.002764084781856773 0.009706336041706459 0.0027446007322803716 -0.03479453936716189 -0.0033859169989101457 0.17733776413207414 0.4435232042201236 0.4639781402616783 0.319099617625627 0.003235223246127367 -0.24335418697934286 -0.23447001189881791 -0.17259547031717576 0.013192346032482963 0.13488488538174767 0.24332033981397908 0.13811117710290663 0.10633880176185814 0.1368966992694699 0.10715749934179618 0.026205400639825824 0.060159806779783685 0.04069595438670379 0.04851517947143411 0.028128452119683924 0.004203780387789389 -0.002821777164222863 0.002379402174802845 3.586236126339008e-05 -0.0009524750444429679 0.009721370953740536 -0.025296788197649942 -0.07302603166143527 0.050595221785265106 0.32719710547293085 0.46589267740762835 0.295610038827092 0.11383017767942545 0.010705760991814924 0.062081888486612447 0.12367506696838676 0.22208452592154734 0.14730410219090476 0.0924110864850477 0.05466570975157972 0.07862834310008164 0.08211562494441667 -0.02926173844651247 -0.034823300726266534 0.02251025587776497 0.025822780591859454 0.030802850664503303 -0.01118308647194456 -0.0006462552141425069 -0.005479116582494117 -0.009977703394951867 0.003714331444514732 0.009041250781090663 -0.004749235248510799 -0.03531417300506425 -0.06183433369537179 -0.023725243529289675 0.1603911038767464 0.23449393535245233 0.276334396861661 0.27507375170968706 0.2622511401155433 0.32671044046120323 0.3283875541161904 0.279273347598648 0.013063724836941728 -0.016057653658913543 0.02520148288593998 0.057620355188098105 -0.010747042157474502 -0.07211090736675801 -0.0017613255725162143 -0.007495731333170917 0.014410496550596409 0.016093088348001952 -0.006144575958953952 0.0024794061379060793 0.014907575680620965 0.005181080244326706 -0.0034891940480202104 -0.00828301397759413 -0.005917166289027371 -0.03612438886742938 -0.08253650248531344 -0.029309360125115477 -0.02613072312399804 0.05918063470116619 0.12769861309374114 0.2631272766186619 0.2717647958914075 0.33761726232136097 0.19088866988980055 0.09725199484022595 0.06643824181927435 0.0629968148514996 0.11726236497608969 -0.018451251294931748 0.02091362224567369 -0.006192201975307025 0.023807683119627002 0.027960438359026018 -0.001646407842423878 0.0025396872378741987 0.019576739354164305 -0.0004239282073701334 0.012889475230921257 0.006837960156534756 0.0027789564073686327 0.0013126293795346772 -0.007106611717707021 -0.03613710151321568 -0.05341700939375763 -0.03544057761713004 -0.034421462331016776 -0.11053212270005135 -0.07353475750733734 0.0992494955768036 0.19707904552237235 0.18892395867340125 0.16168669550197892 0.15980866275151037 0.12907499406148906 0.12986947669435764 0.10375921193518564 0.015185880540028876 0.05749237810326797 0.06279683156166806 0.029204364115934994 -0.004309599894010383 0.009475747031302184 -0.007391754987432332 0.007628902188591079 0.0014982212317942714 0.014916550882843636 0.0067235244627071675 -0.005717061504385175 -0.0012092179568921769 -0.007094139957121158 -0.019987281295431945 -0.06232610927928502 -0.08041764881033737 -0.06976816780610277 -0.06798623186686524 -0.10481815401257775 -0.04419295873342302 -0.009104869914864006 0.0328896107341738 0.0764480353540318 0.09080922655637419 0.17596286110412615 0.13818862798803075 0.0643012473813498 0.08469607930854431 0.05149021289879951 -0.020147306911421105 -0.026845325740273814 -0.041047461656912865 -0.022165720920377645 -0.012955857570503382 -0.020826140135148902 0.005524115749207619 -0.00016885630436921234 -0.005912262674042703 0.0045849322889079044 -0.0036869173643367835 0.007676351799950238 -0.021288572158653773 -0.04459145725501265 -0.049816781867208886 -0.08663190255240585 -0.0359635179338918 -0.022861898387149367 -0.02312635664280866 -0.11363632651354048 -0.07680557877899306 -0.03397618613544867 0.022807280858415484 0.0619379897722553 -0.05810167813580802 -0.03294235082276252 0.018488089341280278 -0.055089608410931336 -0.10305619413463715 -0.07538890784253524 -0.04027136490559946 -0.03608083239929439 -0.027095586562155466 -0.004856464910866337 -0.008743520395654611 -0.007891605071213656 0.0040357469302383184 0.0002831653551237535 -3.666350010975497e-05 -0.0025278056214718793 0.0015550064641092736 -0.0029005047921459677 -0.011334101348012762 0.0015219230291426522 0.02296105266101141 0.0560754010676278 0.04511358855401265 -0.11765129931728956 -0.12351174504682993 -0.05896649638269837 0.008945976545306518 -0.012405377322004212 -0.0637804626054509 -0.027803925340288804 0.017933932178365135 -0.08108830791526345 -0.08147902714058439 -0.05865296331519608 -0.008901173456060547 -0.020498849805260004 -0.016717586320574924 0.0042012411208482755 -0.0007144586491151343 0.005359739589656116 -0.00010455732332945514 0.0033019755667164138 -0.005502500400652686 -0.007809165655674631 0.00945289717436159 0.001984353513720194 -0.003875772429993061 0.01904499055150991 0.030346068729433198 0.040592076763968726 0.04814941611507108 0.041114943173840124 0.029381289350263715 0.058913039600041954 0.08522978025024305 0.028014046304943557 0.0376054330768152 0.017729131047543506 -0.00898217383174065 -0.012811717067116446 -0.018841351202284622 -0.015085799795936742 -0.007486972574363776 0.009191924050618383 -0.00522371733407216 -0.007865718232889243 -0.006320761204946616 0.005324496138358382 0.004175285118625227 -0.0012411615044575237 0.005876090142328502 0.0003502538428523886 -0.0017280367774178615 -0.007651161275448209 0.011419433701889114 0.003605776222695232 0.011633037058771766 0.017869924800066325 -0.0015703692934408927 0.012642292896594057 0.007394833826125358 0.003040412026885128 0.01961299313976205 0.020596592513476838 0.014257754971171169 0.019208987079072804 -0.002630850607313262 -0.007942781450939736 -0.013091778736677339 -0.009521924412675613 0.00617128300948777 0.009465051035341362 0.004751770198333623 -0.009945283879091993 -0.008732789772519295 0.001685388104551615 -0.003285697844887938
0.007636669615035932 0.007473387387138769 0.009750378174088832 0.004316639381451874 0.007537673996173033 -0.003606997762758948 -0.00777646096160388 0.007307282115647596 -0.0039305480407695 -0.0016133540366622748 0.002920605141431453 0.002101982683110253 -0.0015815383097024013 -0.002276989762588129 -0.0075463791628198745 0.000677237686068333 -0.005342918055120081 0.0050961570220092265 0.0034974116832900016 -0.00856146070381571 0.009785293694716006 0.005609138711486826 -0.0054434822621880485 -0.00938514363300606 -0.0004325633785660296 -0.0029451512499785197 0.0009302299872845591 0.0031932791084984206 0.005944396147174765 -0.009729113063217448 0.004285910277577569 -0.004093720677962016 0.00972805151274834 0.006924834611755635 0.0012080236216956367 0.0019553137075367863 -0.006158486539908854 -0.00547496822825869 -0.0074083108722028295 -0.0054728905722746446 -0.007760891113168378 -0.0030379350745128224 -0.007447166711630973 -0.01949873764032299 -0.015376810926180873 -0.017216267074424644 -0.003250761697856998 0.0030057953840601087 0.002309442827502055 0.006277391256189703 -0.005288675269951593 0.002363636836808911 -0.003943429615347187 -0.008224645878417154 -0.003894770568683736 -0.008572870501107676 0.009171484220393414 0.004543308698538586 -0.00797078284351992 0.005725386446971873 -0.002956892798069364 0.008228702806475847 -9.005130505773153e-05 0.007453854459697441 -0.005589404105125526 -0.002656153481934689 -0.008438794723468491 -0.02237394200643178 0.008487368107800935 0.015981716341812925 -0.008329677648905234 -0.02982021509142897 -0.07554308976787058 -0.08010265896739774 -0.07906701886495908 -0.05575403617187364 -0.03227601332546093 -0.02411546759145136 -0.0004368591773046881 -0.0031606043709335482 0.0017419626976609964 -0.008896958299623524 -0.0071828400620126635 -0.008072828962775135 0.006242311359162924 -0.007937064348330716 0.0003263209135909821 -0.006888442040158518 -0.004423664891423029 0.0076520400500614035 0.004012298908574485 0.01341049061432631 0.040287328330021924 0.04424725553253063 0.042529021477645104 0.03786991936591408 0.0434550418373487 0.04608479667356231 0.034796619202275544 -0.022018169734378337 -0.06393757023781958 -0.07178358087814524 -0.057919699845636996 -0.0611638541471745 -0.033061110273630366 -0.024277263378509863 -0.01341816578651513 0.0023260514617029116 0.0013091119318108385 0.007990618317721422 0.007613672358140299 -0.0011377719934643309 -0.00590529827015486 0.0026438475058365163 0.0027367195069310027 0.0038483500675720542 0.009482575267979769 0.019983923904260036 0.02298176275437601 0.024053205997215527 0.06843834993327419 0.09449704441706139 0.07153322994404814 0.12626799139259692 0.19280184137848003 0.2511332436033125 0.24809552946732732 0.13985543045477905 0.06946610284223564 0.043895485473975995 0.06837728874287323 0.09564134398160468 0.0993465203810461 0.030177329965558747 -0.006794199868243914 -0.004733079303388024 0.00280805240188053 0.0012297296306535872 -0.009514371493506429 0.006363494906623307 -0.007292912182758535 -0.009387226038182605 -0.0007532919172976854 0.009343569039560802 0.004912603931795856 0.04128687882313349 0.06604984637139301 0.06827535732737317 0.09886031781594636 0.12472382256414226 0.1870087326331653 0.25715154669711576 0.27134953909038384 0.2934013072337195 0.2888480038629281 0.2506034884685327 0.19887357030511174 0.12903922723912206 0.09925254482487979 0.07422775076003466 0.10116240259399358 0.09989920697526568 0.005954089719918555 -0.01762974293178626 -0.033508965861454694 -0.007644253385305463 0.00025013999814426155 0.009573876379500907 -0.00968180076814875 -0.005022037160348405 0.005846257435414956 0.0064383339264359836 0.011451663541608988 0.05329333663015846 0.04972042546694211 0.07252732022222091 0.0939572978713829 0.1303415273937274 0.1456346489032905 0.1564206295169046 0.21971810314082718 0.19147226468777728 0.0990343228858436 0.12675139480298903 0.17139786778170685 0.11773460343618153 0.13510391346420686 0.08186763410593521 0.04232053107057565 0.06976130178652556 0.01403807741709027 -0.025192234347895106 -0.06415330511785512 -0.022248118309160302 -0.009031163845861265 -0.00564355962273653 -0.007763515204967843 0.0006209470917444421 0.006298919468806678 -0.003157196000154496 0.015024592438523292 0.05414632528924766 0.048339932674809065 0.05207378667042117 0.057309434747423185 0.07621757635561716 0.052816009076079154 0.11096674650199324 0.1326940557844649 0.1086605201560031 0.0706198195179074 0.16914936446945084 0.2932414494237114 0.3432708937766602 0.32651714669935206 0.2641101275773355 0.15283592469850102 0.09012366378516454 0.003518053515860162 -0.09724610446028173 -0.09161902529331525 -0.07812139188928882 -0.03971023674611297 -0.01099350486891898 -0.00473505882199621 -0.009984269169407272 -0.0052461357192613986 0.0033648441093580457 0.05170288553938961 0.06118665552289237 0.03646333745642018 0.021546217439803284 0.07626854164795523 0.03457916266366434 0.03367531912033065 0.05983365430002438 0.0659603811812074 -0.029615250988629573 0.07087802902418541 0.19131089188850073 0.35627797036870834 0.47977111161421676 0.4665580595540986 0.38401531947851153 0.27437875859769256 0.21793601666682233 0.02325652486396545 -0.13039266426196436 -0.16411001826632612 -0.09855257465941865 -0.020373503798010482 -0.004639848362853591 0.004125264891026324 0.0050959536105308284 -0.008026248573353777 -0.0010080360306084215 0.038779192186151064 0.02390170710810777 0.06923683501509202 0.04902566146388388 0.02727505371529011 -0.05085171991961795 -0.04752207215044185 0.01051188476765814 0.022959015030168967 0.007112936093435588 0.09685934550523484 0.17840888357797585 0.26827535915271317 0.3657882050349438 0.42372786716003635 0.4282555640929046 0.45730152588471196 0.32008572237765937 0.08325769979188558 -0.1120873702040884 -0.11916668864860133 -0.047374691573463974 0.00048105001719394826 0.008574938614555121 -0.006567786115061516 -0.003887642487401819 -0.004153524780543876 -0.00043096638818276254 0.009456755313740855 0.021959828322804218 0.07856649070675475 0.0974426534091011 0.014475302473444097 -0.0710555216997221 -0.10410655798944456 -0.1113664120904734 -0.11703605022985948 -0.0960682822522841 -0.05243845887861149 -0.07367249050014835 0.033985338832933594 0.18864099761598824 0.33780930911102625 0.4888001073128411 0.5739566425862475 0.40269776863131457 0.2210314070683262 0.029700299425116147 -0.0103668907516856 -0.01498049300960974 -0.007434023662214341 0.003672153656089942 -0.005719804545846794 0.002091432066127474 -0.002530051681615145 0.010305813681950136 -0.0052154768936303695 0.01636501536768555 0.05257829916399185 0.08408335631275708 -0.035348634192298535 -0.08761052051716993 -0.14562808645234582 -0.20447702447707186 -0.2877101248078026 -0.3075526183621105 -0.29896120824963357 -0.27148861665775037 -0.1399238496036083 -0.06570181742507672 0.11809457711852471 0.44866871284214666 0.5602819823907897 0.45767792333636964 0.2711845874178297 0.1280260648943228 0.05173375150581145 -0.0036920194079445344 0.01888598557544128 0.009683196917975692 -0.0046545477296022235 0.007801146075481826 -0.0026977459546387384 0.010427623008669212 -0.007655178869252097 0.047581732153915604 0.07742160530238805 0.048917771796078646 0.0036249694581775233 -0.012195705539683507 -0.15003487498583687 -0.3020524790502347 -0.4538244850680591 -0.517016919412439 -0.4995751789311953 -0.5021737691647576 -0.43086312988495307 -0.3348797624045933 -0.026680840073615927 0.36582442962177947 0.5185892096674469 0.3922915088143014 0.24009442790064803 0.13975773990316778 0.03669108356713415 0.009423609529594814 0.0019782210109364944 -0.0006757204837383683 0.008690710103580699 0.0012701833495034152 0.0031870463702384083 -0.006732959690680084 0.00917139374351833 0.059558327556237835 0.1111505489144376 0.1310050661867573 0.12442648417986672 0.09761850484559369 -0.1241017983797864 -0.36339127595449583 -0.5784443176399259 -0.660367350080969 -0.6062259173394636 -0.6229569168437884 -0.6179202655620895 -0.3693165044657004 0.09065441506476546 0.32550441997718854 0.40757385256798906 0.3126580363465126 0.20079019752099994 0.1068040089781593 0.0193820692402042 -0.006107300554280985 0.010130756697982886 0.00511266561158304 -0.007662165458032151 -0.009590375025631962 -0.0033022234042730638 0.012274394685677743 0.009415090603809361 0.09022785565673651 0.19601724616738053 0.2767942637077391 0.3551682036514551 0.21253226792651797 -0.04364974539003825 -0.25004780979751373 -0.4696792570039809 -0.5016127573161089 -0.5359398078407467 -0.6126323650118284 -0.5220287983182277 -0.1582090823615448 0.13350057120404432 0.24294822112217948 0.28180975121821067 0.18939094464873493 0.1430141213716755 0.08128060553426007 0.044914438815810136 -0.011872064328589234 -0.002508623971873787 -0.00823903164381296 0.0036727492956210046 -0.0020397656956740538 -0.00042091816452118243 -0.009441660952859546 0.01518691619414351 0.15078649447535308 0.34514992833712405 0.5321718081727916 0.6282067731062599 0.40273204796553025 0.1903067489662962 -0.0672511464326678 -0.16589154062017364 -0.23760785813835233 -0.33509638344768183 -0.33925317803404736 -0.20520535250165484 0.09316452364951702 0.24609938529954006 0.2542381586863319 0.23531375286527403 0.13550302409460907 0.10552634357238845 0.131287578501841 0.05717844320822265 0.01819209722981481 0.009340440153626643 0.006153689849032926 -0.00019460088820587133 0.007476670117732483 -0.007250483236055682 -0.006417917587681419 0.012053527372099056 0.23939732140704695 0.4813592369382242 0.6744380281103157 0.7285227148979659 0.5161631527733436 0.23765425306945212 0.10452414268459743 0.013842965879988511 -0.08172744406292337 -0.19382419923223837 -0.11390622389980865 0.0865043711740198 0.2557141352477598 0.33662601523881674 0.2693340513665512 0.1642094323523234 0.15987999771973796 0.1362975874688017 0.160883144430323 0.11257527667038025 0.030282157296325312 0.013781946097107898 0.002247178849202303 -0.0018278300764575026 -0.006461915552791451 -0.0024941694007717765 0.002658683252524186 0.03977344836818515 0.30733667633728534 0.5648744988467426 0.6809784563019387 0.6155646680189572 0.34929590650135317 0.10571851302725206 0.026795934669410677 0.058532141751701024 0.07536072464958916 0.0038236115942444004 0.13224311126781355 0.18725727106056292 0.16490840751116248 0.16970523055472111 0.18356791827926003 0.14993481334533143 0.1773319290476399 0.20332086526401436 0.24005221507637958 0.15532833396023257 0.06314745363148941 0.006346767309590081 -0.009157436787437873 -0.002534442442703435 0.006243739514979694 0.0008780934043135357 0.003866223414487531 0.10684676816656702 0.3620241494926137 0.5628449943253195 0.5808491148860793 0.4664998279734571 0.16803902951001576 -0.01876470497247176 0.05558175276792104 0.20663766195246552 0.18045296790024737 0.11497926920646243 0.1514102558024586 0.0952708335751922 0.09390683331876688 0.045071719411677647 0.09212396126882857 0.17338545106174874 0.18789140514789354 0.1991363163638006 0.19718699876932244 0.13383815716894057 0.03701242756106025 -0.004789729614851515 -0.007833912945738396 -0.00888114069448435 -0.002966588882598864 -0.005322889858379484 0.02411806926645636 0.17134276941561535 0.3985858288983133 0.5166380080145139 0.4407925009733325 0.22829783046706248 0.08424466938582348 0.09009728123384307 0.21876889566248242 0.2822860532211366 0.2507650509413367 0.18102787436348194 0.04723751347972053 0.07611458963757216 0.09255612493967343 0.05329643229295415 0.13557508171110846 0.1431423943296689 0.14449909762110333 0.14562822265021397 0.1309987273663119 0.06671627660843397 0.018663881004469876 -0.00845871537005147 0.006818163162504701 -0.008649718991732606 -0.001273759028015022 0.014081696371183611 0.013453402113782027 0.16328013840621822 0.32881079411460273 0.46475853082227886 0.2606640122350152 0.09374402669288678 0.11209501903216125 0.19401541235104366 0.36113458139842053 0.36592619498607615 0.29112465805053517 0.07573278883420173 0.04321634000376568 0.11512794720282092 0.09074470906109189 0.06514440567703825 0.1539621052423184 0.16486762088023796 0.1020006927327611 0.12796362238114195 0.0951440361972412 0.051997942941296144 0.03648155121293839 0.008018893373146735 -0.008345834039362213 0.00866960916668585 0.0061665393370951265 -0.0019855817718086315 0.0015764558391266168 0.12131027696191314 0.28012690821299036 0.2753586257262138 0.22280730251322647 0.06686860707617143 0.16124101863838486 0.2092879788283554 0.3308881103119039 0.2252438218554516 0.10421003579165816 0.014509479153485392 -0.017537384103192267 0.02377332568087629 0.026847585192298812 0.08508881051813179 0.09774425683831552 0.12907214263013198 0.12483469941767181 0.10085935852302942 0.07845895520140672 0.07646779268715499 0.022233912877571677 0.014763452402914531 -0.00887301216531051 -0.002736748100937403 0.009354548182161219 0.0017548062784480865 -0.015501306669861976 0.05167011777640888 0.18193132325989111 0.13933259494141131 0.06748513961783248 0.04469170949231453 0.06334900798874883 0.12633621267040987 0.1214460742226983 0.0714255043770614 -0.01931549340083895 -0.0581488125557057 0.006269469787430363 0.013070988444445424 -0.042230980467970046 -0.023185240042972673 0.07807165944896635 0.08799858202618724 0.07393149741866498 0.04051183802338231 0.025573841893782832 0.015391321275867608 0.009211051804790342 0.00567355421277199 0.007048065753151084 0.003946930791779784 0.00426519795153473 0.006154376931976212 -0.005093774710989189 -0.016659829359792943 0.014946991738845502 0.017166764275218942 -0.06833044718140871 -0.1770842407501261 -0.2059376008374458 -0.13505791263408715 -0.08553121471434255 -0.04287166809454237 -0.03875608927128757 0.004992152161958552 -0.004267463748395638 -0.07374955995953175 -0.03950795838712872 0.012369871328957912 0.032229586939171294 0.030542016819842605 0.028155206006402568 0.015724011415912925 0.01643168739143069 0.0059684950604206605 0.005662629445256731 -0.0015050098163382347 -0.0035148955174582235 -0.002122437244596988 -0.008771756918836714 -0.002731382139476062 -0.012669017923897817 -0.02680619604644133 -0.04671232199006062 -0.052034339938719386 -0.06667656371707467 -0.1095839592207693 -0.167459739099735 -0.18551569402432705 -0.11073541950326604 -0.10253992162358275 -0.07924039373817816 -0.03921575149749438 -0.07862214724179542 -0.061501494996877334 -0.028578548039779095 -0.027424239911162808 -0.00810747220350377 -0.010900359681332938 0.002658931525486107 0.003766113748029216 0.00623469405503742 -0.008287747048613932 -0.0016998592723040992 0.004500197686347103 0.00789731868025909 0.00422622220209329 0.005162645655581007 0.007668073039355435 -0.0034514435007303055 -0.007634157994435776 -0.005665997625966629 5.185365372299595e-05 0.021478624855450826 0.026181179047496353 0.03776462604386827 0.013424727315667824 2.4263677372321335e-05 0.002572458152229524 0.011783092045012293 -0.017770595566988585 -0.031893373198305805 -0.03196949803103815 -0.04136587301185624 -0.0451343050714677 -0.012452031927937169 -0.011417530625601656 0.004501331577804402 -0.0016952626224347716 -0.009990551356626045 -0.008326969147144028 0.0075159867977209905 0.0027812781207605473 0.009932056399630929 -0.007978042208045096 -0.005103032817354751 -0.008326901316738765 0.005140191034619034 -0.003541453761588784 0.017966922183452742 0.01647047972703719 0.01579687535348418 0.00637987833860811 0.017387499154362714 0.01592414577595867 0.02095543985134649 0.030032971418183802 0.022023606212740198 -0.004952136927600054 0.0073722163467220625 0.0015018197540268975 -0.01419053947982729 -0.004347916347193514 -0.0009680265242719796 0.0014239205890700765 -0.0014172497597798024 0.001469044639654164 0.0014811886346087783 0.006842610400485094 -0.005191165847617123 0.005144529325314078 0.006246742194366677 0.005940647222899496 0.006154156379839687 0.006585600447731087 -0.0016496849739552118 0.0023577347120108533 0.0060482632093141996 0.007473193181021853 0.011300963463763063 0.010922489499643966 0.002008028643901098 -0.0001590504408074632 0.0075984621852351894 -0.0028790413620972156 0.00946253846537574 -0.00306725950865855 0.0043174726967400035 0.004131676846010149 -0.0009530428475406534 0.004228570639265596 -0.0005753243159852964 -0.00014540578150847028 -0.0016374872865988557 -0.008755496332272957 -0.0027570108014621144 -0.008143692836117222 0.001312769993521097 0.0028100326311518136 0.0053556452523631955
0.0026507051268828546 -0.006258784896490748 0.005004879015582327 0.0009771880086157283 -0.007956592813312202 -0.00950345941624184 -0.004025076152333105 0.003800300585298502 0.008655767008882714 0.00932994401360439 0.005290961786692933 -0.00413501628586211 0.002441382505459338 -0.005378077449263488 0.005013807433033434 -0.006682659410409441 0.005129407710482052 0.007371779978609631 0.0003901270717291405 -0.008687303234829915 -0.0010221595850840853 0.006756572227596349 -0.0064049469313989206 -0.009228818774744102 0.004653871489583648 0.001260814471467902 -0.009158787471015346 0.00969770528116603 0.0013866477496745425 0.001703133459253079 0.0057981328373288826 0.008052693413726176 -0.00878498527340612 -0.0030297358122236906 -0.005998162738632147 -0.0006969693669008278 -0.008170641160687702 -0.008638284515205527 -0.003300201501668237 0.012315366136938783 0.009510839557749924 0.007579947177430237 -0.0017723130182404905 0.01619327620765551 0.0016736100213971148 0.003632081224317702 -0.005007708507381419 -0.007017460024654759 0.003750110503220461 0.004040337506827132 -0.0025784518675628634 0.004623816484007292 0.00694608410849277 -0.007392849711168999 -0.00825185367676512 -0.0025615708697219455 -0.0019223272489765214 -0.0044719156027925935 0.005083363718888937 -0.0035642759889521567 0.006002886238349993 0.008226167085472922 0.00026298015082431604 -0.0014115594063869568 -0.008168103956569094 -0.004526453923900671 0.01540125580843029 0.015402877871244077 0.004905742249999131 0.0033354792109553024 0.01852476614219743 0.044522824443421614 0.05150922581417794 0.0803383563765183 0.08135076660584746 0.05636508471366052 0.020724481708514 0.012842602332222178 0.012527644060052627 0.0054124247740983756 -0.0028230793269291834 0.0030750294502060616 0.0013318281639691718 -0.009317871652033403 0.008413889060975331 -0.002399883930950415 -0.0024119611200622984 0.006927117515953421 -0.00031444196006371987 -0.0009786241147339367 0.002315679437724072 -0.0054849169889379665 -0.008112956785818408 -0.005906434533884468 0.010558511477100813 0.01766178588676811 0.021385100652467428 0.030776651770108687 0.04676338579048862 0.07260868763539613 0.10456362489628963 0.12382844668622363 0.11641046663591688 0.12275678747869874 0.0648637312621395 0.030201977671452565 0.01781601199172013 -0.0005166024713628892 -0.004197585246153574 0.0028796939254593194 0.00773876809096753 -0.009247891192484554 0.0038618868900275934 0.003371014480457811 0.007360241971951611 -0.006072559199529981 0.002575695857542281 -0.013462346637837724 -0.01112447759682902 0.011633624542712025 -0.024115820254265813 -0.03709409810368084 0.008139634377908187 0.028997333203581235 0.04007306620627445 0.05213673920497017 0.0970820456507976 0.18718017553066033 0.23848572870582838 0.2691029151672635 0.22272419014524547 0.1434408777407595 0.0509430196000145 -0.01696074996199822 -0.039975648742812585 -0.02673653127702518 -0.01063521250795257 -0.0036795307339083207 -0.004570824293342372 -0.0004855274537926106 0.008472237294043969 -0.0016663102787867617 -0.004242322582411766 0.006654231343582827 -0.015829115146089222 -0.014623357278923116 0.007067937721523286 0.029264880950938935 0.016310695363031057 0.007053424291175888 0.02453940434992518 -0.00265093118019218 0.03949001769339052 0.09589950649217205 0.14880674393797308 0.19728521865782228 0.21771144956730304 0.1872878926910543 0.17678710379314416 0.12793343392001527 0.029218759966909407 -0.08959662542164132 -0.13659473906129876 -0.08296325045974869 -0.045135653099945404 -0.01726056513316466 0.006233256146673776 -0.004677976622996749 -0.00255025186126111 0.0011683584224706015 -0.0023790220628717076 -0.003800032147648063 -0.00731378959567551 -0.009394168029401668 0.0720943153480391 0.0689358034501031 0.0640414617001607 0.04784376265631583 0.04574466717352033 0.08948783419944827 0.1325754063730306 0.16480650323949475 0.2377371459209181 0.25222356561490733 0.1903224867531005 0.09177446891915887 0.06610500160060373 0.029831820515026183 0.04591943141602455 -0.07037721666429528 -0.13380749642612916 -0.0970257877969829 -0.05198891542309928 -0.01460661909588848 0.0026753308353703125 0.007783580465317041 -0.007376996256238875 -0.007126280540023566 -0.0022784544474455134 0.021668594499835794 0.015960103486726742 0.013652233351829461 0.06091290592138088 0.05278689570028103 0.055239177982065284 0.07964369423467593 0.138769942291344 0.15113927582088416 0.18661260349068995 0.20824613403323805 0.29514736694334864 0.27012897375170886 0.13137898218410493 0.013766845304509846 -0.006880154990032863 0.011108630289902097 0.04901482636145673 -0.021462439636659097 -0.08231582728438298 -0.08465991124650431 -0.06969085821196326 -0.01820711799929505 -0.004990105850355446 0.009705256337945865 0.004436452628068547 0.0019061420905467866 0.005073654383126781 0.041466122544059146 0.021552316756662714 0.028439105821760093 0.017082212477405902 0.01652669162763827 0.0429854319308403 0.063419349661711 0.10363766757964492 0.06888449799137888 0.13061468247030888 0.19040986548835442 0.2372115485691433 0.3054221331363736 0.20642249110017433 0.03519971813755667 0.01626347894244373 0.014768706255209029 0.015554807098997422 -0.019998701609645786 -0.03594694377562031 -0.043143817099722995 -0.031977009676615466 -0.028593020066617757 0.0029310077043064025 -0.00904766433178722 0.009922426971170106 -0.005598484423953983 0.00031129972370499325 0.01955829158390377 0.023754807627113128 0.03539398354810624 0.01371446952876387 0.0368673566864079 0.02534650744474708 0.005698018439834185 -0.016581034272783075 -0.042539716782649506 0.013404859171005633 0.05395914501374075 0.21672140929703937 0.3388835560911744 0.23374626503138082 0.05508163662221385 -0.005740828867410456 0.027325902271629572 0.014637397389016742 -0.01014689529983221 -0.019584170341082507 -0.015167078020350274 -0.02246762105133515 -0.022386360193049654 -0.0033922268231044144 0.003543336358649814 0.0010152912104574533 -0.00896296897279271 0.0166490195331481 0.03445746564563222 0.030756381969519863 -0.0021212848621728277 -0.01435958507743734 -0.0461920247337666 -0.09525820214317646 -0.15677112423030573 -0.16383590694478525 -0.1622985529012789 -0.07745322221858274 0.061891678757749244 0.265452021271124 0.38173376752441757 0.2246811104394729 0.04710271884600047 0.023830335426154616 -0.032454302964513355 -0.03982342491010369 -0.041992678325308515 -0.05426557797412469 0.0028499854398907703 -0.005837562617783985 -0.00442948319990192 -0.009979814860730867 0.002845056082328788 0.006953289628751682 0.009922523821980679 0.006002341293175323 0.01221078906604532 0.010782783800342796 -0.033329266086116305 -0.062053960425244366 -0.14058083740659258 -0.1793379729982769 -0.1862734798350253 -0.17759169152666618 -0.1308810758937525 0.050641288628887705 0.2238001827917849 0.4183674166971202 0.3639975087884668 0.12362275218013667 0.02807938816248495 0.07407852798327201 -0.04026457680124017 -0.0583460243285457 -0.04137545197533253 -0.022996158370029926 0.006570856235065397 0.014028594093138554 0.006703336520329305 0.008385437708885652 0.005469065662809098 -0.0059388024388024735 0.006797746813302646 -0.004908451971189803 0.012145462587156935 -0.004344444700988009 -0.04937454527433325 -0.10969084606797713 -0.19591093391066441 -0.17417837561848623 -0.15759484993153436 -0.135577556118241 -0.033940026311406954 0.15831044564754368 0.33858461539442175 0.4016104254508757 0.28814131391773895 0.0766108824261851 0.06897974478297157 0.1104887422151337 -0.0013668872405397203 0.025563937899624252 0.03315147519377166 0.05484042939627774 0.002385322599208462 0.013659772156069321 0.0018443868514232808 0.003437380462674615 0.009567465783712823 0.00465755693353858 -0.00042014134343637023 0.008487118634677288 -0.005201844775866645 -0.008958277429821226 -0.07308054555873628 -0.14718444865554348 -0.19354213341537024 -0.16563961705348212 -0.1272766906481537 -0.07322207125734023 0.03566935568558636 0.21221309234982422 0.2997361447182453 0.2824827063120613 0.18916893280115332 0.1165271918877015 0.10899176658765018 0.10757054727870947 0.0630537038551266 0.06618046758557926 0.03541842817996791 0.0505421102278017 0.03138802896233525 0.015421756753313752 0.011590730372408282 0.0028938801299433735 -0.0075623594564784916 -0.0006555374713779309 0.004704114868650643 0.009210360807450623 -0.010775737950309748 -0.012220729349794748 -0.07778608243297896 -0.15972467254194925 -0.17529021976248021 -0.163775188482628 -0.05620636411531027 -0.04473688622567975 -0.0032119658267160604 0.0377776942952176 0.07582161705688903 0.11859587054814628 0.16857150437931392 0.10724867120631021 0.041261954132028135 0.15107570906933224 0.11848171645446673 0.08330180400471199 0.09011032151090542 0.04901515999410761 0.046974364996177166 0.012551586696937607 0.006566498562422628 -0.002229435057090363 -0.0039052872742369347 -0.007445239060411772 0.00787118748143697 0.003627896957526992 -0.011504014448945133 -0.03474037817333008 -0.10012707414365693 -0.14623469293909383 -0.1950763806066006 -0.23063263014614954 -0.10382230547301668 -0.12347506316125303 -0.15800348178352316 -0.1196068137327125 -0.0810731050430407 0.03928419634147403 0.04511934416127567 0.003812467667836746 0.010690305822341553 0.1399328914751829 0.1551643684685745 0.12786206557571902 0.12293626547918036 0.07154671344490517 0.02222924687272177 0.011137056119269927 -0.008574366393857563 -0.00026922604262913613 -0.00852097832081238 0.005729188713403813 -0.0094409630192041 -0.0044744488631023845 -0.007554159627256171 -0.04944524410657802 -0.08543498562380082 -0.10859100840639098 -0.1745634585845439 -0.1844602906643218 -0.16265240606219614 -0.14749007083226137 -0.1821506788361893 -0.1556806962883513 -0.07743771810608133 -0.014236313038350958 -0.09763436770041017 -0.11401030795998005 0.02529630103616129 0.10117870893294946 0.16908660678015963 0.1597312941949113 0.12239794470502202 0.019564350360652127 -0.02093346890357227 -0.005240984305838457 -0.011798916817529684 0.006012080624090979 -0.009390274476288069 0.004915990444703335 0.005940132221266084 -0.006466906880109592 -0.00973413186992483 -0.014783471182962152 -0.052045851069380845 -0.1490309260603546 -0.1475426620084637 -0.07954174184915284 -0.045237785968538224 -0.06376815609504437 -0.08404781658675772 -0.12216668480642016 -0.11639065721741594 -0.12070857376343187 -0.1696970894937176 -0.10882969173945148 0.1000052702612281 0.21632166969194386 0.2225208757891849 0.14187698619885222 0.06765659588041767 -0.00565478631896523 -0.0735567588582842 -0.04462162412203556 -0.017929604125134432 -0.007871658136969478 0.004462416292017579 -0.00403211942798342 -0.0001927668260096379 -0.004269484137495657 0.010907727222714545 0.029590132607024366 -0.027471227658759523 -0.18111437537607905 -0.12869486166532978 -0.04188761574154726 -0.0007540330515613796 0.07125779295044798 0.06940469379929749 -0.047987232285000375 -0.07331998861150005 -0.10877764185963215 -0.09677962200386579 0.04173908234698978 0.17934707171064418 0.24577166386537125 0.16163303245214178 0.05528724312106258 -0.02653014153667277 -0.030153029467381097 -0.057986895190983885 -0.041316609334119736 -0.017313188744209337 -0.009055093826282756 0.0060990486941332415 -0.0015444038814676417 -0.007834795368094255 -0.001465119510533314 0.012757988091274862 0.06228025844906779 0.018466183624850998 -0.10393920949933352 -0.13218185783565542 -0.03471841665564604 0.05122013298696838 0.09665693246294571 0.11229060995831727 0.051632594949005794 0.04477413973486329 0.012693813209031946 0.05472896495543088 0.15509896942477489 0.18502344626143466 0.1709446173483377 0.09280011158583133 0.04202423676669887 -0.02287492131495042 -0.049333938540831526 -0.04605573630899651 -0.014560378860227508 -0.005740761715535898 0.003116110829042857 -0.006285638020498148 -0.002809310093603845 -0.000392404065957877 0.005230139828385877 0.012009561321703175 0.07785642635980104 0.0844677341172607 0.010486642209412927 -0.029526333503630334 -0.006233773211295644 0.021652392282116153 0.11008803947443897 0.08806320764064873 0.17134468693023786 0.17709905621946098 0.1663038828429434 0.22220451163568133 0.22347957946138658 0.16938566996284693 0.1006047747632488 0.011583870233308568 0.01357923621016971 -0.0033605309878471977 -0.04550705523776555 -0.034315968856192126 -0.011309402884313082 -0.005600401275430507 -0.010566733899737056 -0.00432055029102806 0.009087896636971368 0.007663093108040529 0.006075386410585128 0.038783549336066224 0.09934491503440207 0.13059108847838977 0.14164897424364134 0.116206224302379 0.12240816425313332 0.17076580267559993 0.21332482991991472 0.20761587688079597 0.2690373695747312 0.229473090738673 0.17418644966950422 0.20110079928040794 0.19589687537046693 0.11646269341750563 -0.003579602067976483 -0.03301759779754884 -0.03053274441778269 -0.0466331778118007 -0.04086049763689485 -0.030748814656528508 -0.03100039633588368 -0.010873784030319487 0.00025718508434088096 -0.009334064607270758 0.007879553300327061 0.0028882159479530906 -0.003354937817058273 0.039754807734122065 0.0827627715254258 0.12300258204236332 0.18320325267002868 0.21242562909551937 0.24848335407506283 0.27956040688001366 0.2578324809447972 0.21444201971509652 0.21030584515902098 0.12316559465899046 0.14140781171605332 0.16494986536147307 0.06826850742023416 -0.017733893787029786 -0.08303568364755352 -0.08598560079166083 -0.05818210177006042 -0.028925276945102045 -0.030231972319191072 -0.02158486116755692 -0.0047775453085895075 -0.005229130410491356 0.0006773608879061687 -0.005357551454938873 -0.005618958955568918 0.00037012163199655335 0.007247026262688249 0.02988528597985626 0.0846077801926376 0.13292424710028347 0.17312163961666266 0.19812533153154427 0.30837422579226403 0.33889510282808294 0.27448938783129334 0.1621421614483108 0.10107432946123875 0.024495455082766102 -0.0003134039397030144 -0.04087651295231128 -0.04454119959056244 -0.08861796219097447 -0.09830686930739506 -0.047051248997184394 -0.03055623813482838 -0.00424946437594292 -0.013497488115989 -0.005369296645430748 -0.0039180755798500395 0.005331888089281136 0.00843235607666064 0.0062154336583601835 0.00628674983844287 0.00896596477563586 -0.004186341945859513 0.0290516157116713 0.08207836625581916 0.13966639507235057 0.12762068593429776 0.16229034316621685 0.19534435679590825 0.1670336490211752 0.14310807679424375 0.10358236314500305 0.08534231366115799 0.00524281440350604 -0.017176293836464157 0.013067067202933685 -0.06256042115917891 -0.09023708549444777 -0.04733519569899338 -0.023628447429457074 -0.00689559279299761 -0.003703568777375751 -0.0010929438650829823 -0.0014041650197253066 -0.0015936982901617743 0.007672748358407753 0.004547040900685686 -0.0072807727334037245 -0.005297273095328636 0.00010611711029363813 -0.0027496289135237675 0.008526792706638626 0.02518577021491982 0.04272512072898341 0.04591077135880368 0.07304762261604475 0.09203217159205143 0.045605294123313794 0.06938725817666157 0.05942474281707373 0.06362692789171477 0.01193487477742399 0.011073717940190237 0.004689730195561239 -0.014278467257724447 -0.02090330443414266 0.011038797154666243 0.011126111135393468 0.004237289844857117 -0.004400310914992167 0.004897607595391966 0.006967879257291944 -0.004420232253933072 -0.006021451292446058 0.0029322735832000187 0.0012827866608047748 -0.0069084888330027214 0.004843450625109562 -0.002798146239394397 0.0014182829098343622 -0.014751665308306 -0.0006304078279704252 0.009865340272587201 0.007936218870222276 0.0033160647006037314 0.013353102659896617 0.026369116673984103 0.00980294632197326 0.023996828991994432 0.026297909279339934 0.013914071846560457 0.014793588490533674 0.0032181908819885 0.0004393040886949382 -0.004076846892205594 -0.004135526409319554 -0.0026552423208440557 -0.0002784826843637009 0.004030674846702019 0.006819966695141745 -0.008818519565081305 -0.0009385597598567177 -0.0014488822014139466 -0.001519351709988787 0.0012735417718568315 0.008796036203389737 -0.0033935716780898444 0.008979362842867428 -0.005082314841806947 0.0021617837078948686 0.006841167443473741 0.010307279534781943 0.007381119916050486 0.009942952658255014 0.001582579513635107 0.0105256911301991 0.007234605157023273 -0.0021221496125019626 -0.006574624013398006 0.00853507066653645 0.008048857731627333 -0.00151470065593454 -0.008060376544516972 0.003377241116778087 0.004989050307937731 0.0011656401959102142 0.0033047472678843556 -0.0019187803608286449 0.007321750391739641 0.0006480256350257195 0.007896784033600222 0.004794191101265747
