40
"(<bound method NeuralNetwork.activate_relu of <__main__.NeuralNetwork object at 0x00000187FF73EC50>>, None)"
-0.016595599059485197 0.04406489868843161 -0.09997712503653103 -0.03953348547363205 -0.07064882183657739 -0.08153228104624044 -0.06274795772446581 -0.030887854591390457 -0.020646505153866013 0.007763346800671395 -0.016161097119341036 0.037043900079351905 -0.059109550053696516 0.0756234872781891 -0.09452248136041477 0.034093502035680456 -0.01653903952657461 0.011737965689150337 -0.07192261228095326 -0.06037970218302424 0.060148913735107334 0.0936523151438795 -0.03731516436815144 0.03846452313386281 0.07527783045920766 0.07892133270076948 -0.08299115772604443 -0.09218904335342354 -0.06603391608708623 0.07562850068588264 -0.08033063323338999 -0.015778474998989572 0.09157790603010038 0.006626802435019874 0.03814858785987049 -0.04839150587027658 -0.03884562506717573 0.04814189258072345 -0.09642593559241124 0.07353984275898492 0.14282700103307583 0.06727164196285082 -0.04518609140868237 0.0571340507459147 -0.07957522416506581 -0.01052797763590238 0.0816682282226875 -0.04132926998259064 -0.042583482636645735 -0.07410445385026321 -0.09617343928846409 0.03576710658797819 -0.05767437679998819 -0.04689066812555476 -0.0016853681439323448 -0.08932749097658393 0.014823521098402612 -0.07065428501883797 0.017861107380656854 0.039941159302764324 -0.07953673930389066 -0.017211475214576662 0.011656518574016202 -0.0834128780998474 -0.18243226076677266 -0.036451250213971643 0.03207749323827304 0.014880519791571312 0.11133917770913547 -0.009760057592968876 0.05344374964523509 -0.08161446401024872 -0.08377719476376821 0.05789354156352195 -0.02204448794740039 -0.06758697004095525 0.08502692369123942 -0.03040125815015025 0.050391765160650956 0.04507666474285483 0.07657709009662102 0.02473444141112177 0.05018848680546745 -0.030220331604431494 -0.04601442164699479 0.07917724363921338 -0.014381762025741013 0.09293755884624814 0.03252512981031976 0.024097326654986366 -0.08465396555719656 0.008996968226059558 -0.16137696654452816 -0.03183878413564525 -0.020850526973929584 -0.07025169222097909 0.02375069314818991 -0.0699641943882028 -0.15034271780443065 -0.05019822040557824 -0.07227814200041019 -0.007718640657330744 0.06008541839347708 -0.04682881894455779 0.0795147496603554 0.02507253115845409 -0.10006361641051616 0.08508565919914787 0.037974355426874294 0.0994645700902961 -0.06553189833093429 -0.07257285007422445 0.08651909260743271 0.03936363229798004 -0.0867999654555875 0.07439295890542329 0.09411107850266175 0.11103043127522942 0.018013126890540625 -0.13794176929987162 -0.19153851487162665 -0.12247774661740488 -0.13068857255637845 -0.30945167580380323 -0.14454181633255508 -0.15557166237275727 -0.22164974639368915 -0.16702180560253774 -0.1610468633783051 -0.11094638861250872 -0.044086475725014625 0.018383535367848595 -0.04584823914470239 -0.12861315589209266 0.013385596988764062 -0.0815023008145464 0.05737217459516805 -0.022082811526007492 0.07270837091188573 0.04942432854743692 0.011248046798083777 -0.072708954867863 -0.08801646209755767 -0.07999479093184783 -0.11889655318313014 -0.1533131873706265 -0.15114669294296176 0.0948870473312892 0.1485789610405187 0.038511231948799095 -0.24155818991122674 -0.0853032876391917 -0.18671940470039486 -0.2417514090792787 -0.16379210048424375 -0.05067974136682975 -0.3080387615106953 -0.24648311323202612 -0.2440801652777375 -0.2877912520005151 -0.2580021657846158 -0.16988028667873015 -0.14098562289497177 -0.0877646139318967 -0.12876141221378826 -0.09797409062696925 -0.0863679738267566 -0.002726356750246468 0.021265892330666072 0.013770287417296273 0.010798854583536454 0.18605096381503894 0.21632090768350118 0.10620636195630245 -0.009145620400799295 -0.21718839034066983 0.0796440173490937 0.014204713143199769 -0.2741908692752379 0.02486114257911633 -0.046665481237981456 0.050929856655384326 0.2721831400341243 -0.23412848080512857 -0.1287761716354556 0.060328102698193956 0.05319123519610224 0.03755170188323349 -0.11880880320736918 0.2925420024188017 -0.20977539477176638 -0.12565942459824053 -0.16702772424327775 -0.007963801274468784 -0.006364598062194726 0.0721941075048336 -0.09417424790385477 -0.025272991504420174 0.02004321111784161 0.06415309982195537 0.17600541780978107 -0.059944230607818366 0.16575842567201304 -0.10981533967944224 0.07750872411109357 0.06271714164547319 -0.04735662439527804 -0.02210954802517751 -0.0026472358128980886 -0.014007422247042631 0.010243681838202002 -0.0810542129770499 0.03986251915616935 -0.060428038951675894 -0.02198770506397276 0.0015955013163906902 -0.08626482177151397 -0.12129190671373712 0.014508844142632371 0.0024005977207778384 -0.07719351304430132 -0.10914459297662275 -0.09729387147428852 0.061661761323687204 -0.018500324408298106 0.0680948412545277 0.07189545179585213 -0.029574825378341295 0.02741085516752202 -0.09962317130879658 -0.10651480310420752 0.06889267910939846 0.029922654561172417 0.0026528154842304463 0.03860252446901912 -0.13146927214736046 0.0429675149133181 -0.012806263776540568 -0.010937418577737513 0.022878793815546593 -0.04847282831821888 -0.09439198949644328 -0.009524023256972948 -0.0680594923938066 -0.0502035534755513 -0.05406870707936883 0.026288465407002446 -0.007651620066470084 -0.14042902209797797 -0.0033269566786791865 -0.151566950787798 0.0915922777898853 0.03221532329366404 0.13515553313344403 -0.011561505369101032 0.30024403295696767 -0.08762861375108143 -0.05934434411019008 0.035968068411447986 -0.08251014343177258 0.11747019666200414 -0.07801211504757521 -0.10564634595404154 0.13338470838872338 0.0073775692603106615 -0.1128962311174061 0.1449922023851369 0.08758919805884005 0.001172308693482122 -0.02644040985166429 0.13780538102748488 -0.10024442884777358 0.07047599491004214 -0.03489193240942435 -0.030516862927994878 -0.09934644373006768 0.0392541635753382 0.001544924199942367 -0.07714192670521054 0.05787446060990525 0.13717146855231852 -0.042158663846940725 0.06938463735612731 0.11425728391843512 -0.13885167883492722 -0.06542401050484455 0.05758612523135435 0.03993555372577176 -0.07042796068753199 0.08507074091783441 0.02420963451965289 0.011200278424386909 0.004780750947814074 0.0030717394153297727 0.06400911956850229 -0.1396884607006863 0.0052530343510315035 0.059152743780867975 0.033429177389842635 0.010622272023961411 0.05731825044072526 0.07749107358511596 0.026168031975670154 0.13191729834135565 -0.10437087283528475 -0.00443088592216321 -0.1299566842687381 -0.054757107137984345 0.027563720985333922 0.041886351580592535 0.03322744477565527 -0.019899489777927618 0.1360691017897234 0.09307498038297456 0.02009540440689966 0.008976362238063442 -0.031209140929483792 0.04245831543908526 0.1337828152346984 0.09969094364571811 0.14053459196095366 0.06520888124637483 -0.12871312857805148 -0.040179411411836174 0.029083503518132353 -0.04214191661999537 0.13188297694180656 0.2509904755249389 0.12796960174716027 -0.04788036737664894 0.14028774486907816 0.0415076705168194 -0.09323330810237651 0.024142586176421562 0.031661066166721076 -0.09525966757056548 -0.048159349268828894 0.10460080899594419 -0.10187343610861319 0.12226085117989319 0.011367022847462735 -0.1693131711200995 -0.07307433787008934 0.03273649843470682 0.13251737369625685 0.22422702690863433 0.06520102289891438 0.009132271484635324 0.010908194620227473 -0.3449140399716298 -0.07673766551061664 0.01794225547526786 0.12051664938236864 0.20445189873022318 0.0337636922821229 0.08026325687574025 0.13366421945554818 0.046754752590515446 0.13808228537510323 0.1570470242816317 -0.22506497517598797 0.0003182173295375836 0.06896523832773123 0.00831187577747465 0.09494807417101644 0.054757567288793586 0.0472138718043212 -0.015761420920778244 0.10216370122919413 0.126674978543803 0.07548063062491982 0.05772310595188933 0.023152420751121623 0.061567771740300266 0.07902155759683024 0.014488836890659313 0.06755260471305999 -0.9020976125996267 0.18213364517162448 0.030298655091814876 0.029404346387794662 0.010307150456475326 -0.06629447776488843 -0.09482477760081555 0.0725039369074782 0.10529502929654237 0.10651623947099864 -0.2946792643336969 -0.30372528481773087 0.05972869930716952 -0.06261181176998366 0.05972084895204205 -0.040533723698545555 -0.06866334398778247 0.0034216938271241157 -0.07074502134566982 -0.028602913469626904 0.1501694413035832 0.03096893996087348 -0.14363022178008308 0.1503279843546033 0.07651976801636053 0.10002363361480056 0.16899307986814532 -0.518320800506875 -0.8514297720752166 0.15040953889793096 0.04560250868105234 -0.0533565204007158 0.044667453847025335 0.0001691270063910552 -0.010501149704738501 -0.07343940676601439 -0.14069622734529844 -0.09679989261932048 0.15155164934650708 -0.05361187287713867 0.05600274996829877 0.06472591440511613 0.02529923172485876 -0.0708014742724438 -0.08432145775413241 0.004206083250277512 0.16570959559015683 -0.013614646309914597 -0.0748684263487784 0.05991105876047938 0.06427912542499857 0.009895524530126806 0.04614447895811117 0.03573940438820085 0.11511362337801785 -1.3838131734127475 0.003389716041026863 -0.06490150433452252 -0.03148979153466275 -0.003762579569833809 0.05944056990548107 0.060532005674458184 0.062257306127169856 0.06376698425774424 -0.11110416684953592 -0.0025425576883351788 -0.19162622951366587 -0.019698364693506783 0.13984692608961743 0.05794181849421902 0.08305870293308368 -0.06795169094827967 -0.06845398602589334 -0.05557028577714262 0.11385852875424149 0.03986038235833191 -0.05298255234216799 0.06945113781518836 0.06384908538497226 0.12111061824277546 -0.0037196230687514776 0.21094138682774818 -0.9620305224877802 -0.28509942727895415 0.19830884010585195 -0.019687663267663066 -0.03276839704681233 -0.0732043982768518 0.01260533321793482 -0.08147429155890022 0.030503755306143618 -0.10605134207511344 0.16356687813975213 0.002690475248898732 -0.16898777974990106 -0.06466434330235599 -0.06962379897394337 0.08698319144391478 -0.09380316067053854 0.04337573272633782 0.058571746169817175 -0.09849598815334588 0.09990080623593252 -0.011028829520516727 -0.033734683146720706 -0.08314857533120687 -0.0883673344605756 0.04163405534382979 -0.15893894197331973 -0.38821720417792044 -0.27779670881242624 -0.04697299503274074 -0.17311738374862262 0.036254029512948205 0.058061415454480014 -0.0274802286205901 -0.006989788046512493 0.012896101090296264 -0.12556198738749808 0.061231987278092335 0.0023142249178648663 0.1413872390329003 -0.22075416011502702 -0.04949930693832888 -0.05834858975570958 -0.03714972522238283 -0.06503978665350636 0.04819786747799073 -0.03016624632669466 0.10674944402217634 -0.08533691916103346 -0.12560281044363997 -0.04995587057184002 0.1600574963598569 0.03701736087110389 0.045860767805901335 -0.27035771639488443 -0.45408833857885283 0.012134676905790922 -0.03495080900205116 -0.015648879090491216 0.07838161352637125 -0.04319088187126799 0.03283496457070477 -0.004652394090269315 0.0951000814632899 0.05989109553026706 -0.028039233110918604 0.03278697761965755 0.07409784288719788 -0.19152018538812116 -0.0409883484040445 -0.018845473702685075 0.09509477127951999 -0.06640078205999292 0.09455751838653104 0.07646109188294797 0.16068122860910744 -0.0033442474488506436 0.026443449686955774 -0.028336969239792942 -0.23611601440699673 -0.5176717308801049 -0.27574178998674387 -0.4139182285423046 -0.06832362376184584 -0.07677729381345715 -0.016441873073131958 0.01752774262093962 0.06686173778697628 -0.08971180396427718 0.007334646425341161 0.043941715839662186 0.04535488571819152 0.13225344567479774 0.2071337096657998 -0.08758794850978639 -0.0933497046700709 -0.1665207920546334 -0.02096160287205782 0.06052615673638619 0.05402999126241845 -0.07393284380912915 -0.09541697373552366 0.0005658270088637846 0.06174044012225726 -0.2262556118461693 -0.14313516602535448 -0.15914201560518146 -0.23709307712800706 -0.2836142773799528 -0.017111587928440378 -0.11360153181325681 0.048222336807124656 0.06303914672719743 0.05242672687666985 -0.07965752406346571 0.008374448399826989 -0.08649872704280681 -0.11308597590046174 -0.08327089248112654 -0.09542744055394703 -0.22425443639513698 -0.1841633508273321 -0.2741681044921761 0.12392204833933977 -0.23723870334244523 0.0781532817148665 0.04660257529228782 0.061546749253607744 -0.02927224090414946 -0.057261352474083774 0.053456901684353325 -0.038792974922700625 -0.1216777436151716 -0.17053850664783515 -0.16745152829359508 -0.2528154515804637 -0.4300770473119889 0.1414128010746312 0.04437095976754592 0.14370765070857697 -0.06373567667343734 -0.06316953018009255 -0.044728876798666814 -0.07626952081585499 -0.01678092100581951 0.015519049545907397 0.023443665289741872 0.14657070686987123 0.03999053874562481 -0.17740191881996742 -0.0247061304789663 0.003694523406001811 -0.0022535238236973663 0.03850119088515597 0.06197012135171 -0.07475797925012827 0.09520871009354953 -0.06803326993118133 -0.05947957495606748 -0.014128263721854295 -0.17472530360627878 -0.2362508466820381 0.1121159487755348 0.038753365721470846 -0.016738226805134128 0.04768244174552917 0.09954786196925089 -0.07266178679228265 0.027822581563025157 0.06439470765732835 -0.030270256129072946 0.10674881771864862 0.015671507523870146 -0.024246350406784415 -0.09092235035498497 0.18829202889201446 0.033936748402804556 0.3067350260642139 -0.044665422975283336 -0.14973259056448732 -0.17131477401403017 -0.1478833873268314 0.04880538574785315 -0.025936579934829763 0.006139487695227902 -0.0011767468207349863 -0.07356777161141237 -0.0646574264447485 -0.09977493461114374 0.18565308082439252 0.1766010999126986 0.039107767960643434 -0.026223629139333928 0.05320971456984402 -0.13233385266712638 -0.007689780992908204 -0.0849019251192023 0.03350156281450991 0.03775408418329512 0.04803538619668824 0.06279880482596474 -0.002746675899366621 0.0017860483185228545 -0.05085786152420525 0.06584552591335356 -0.09757238581847551 0.06005182377583096 0.008064097020725119 -0.16764368316621475 0.02193396164079397 -0.16668692490457185 0.07207206747925494 0.011780762232187672 -0.019355905578830157 0.05174938620446731 0.03238930056932733 0.0676775963939978 0.1038179358504523 0.0823400833513433 0.051516551135949995 -0.0039773208583372835 0.14495229916014946 -0.06751740963811396 0.06318886468552219 0.09477099170257641 -0.011595873857233915 -0.12144316744658828 -0.05293030356851053 -0.03136480961780309 -0.006884717304810727 0.056198041488982844 -0.16508233095156588 -0.15669344946929828 -0.02761007915148562 0.15694780790904636 -0.07627129381168547 -0.14726844784965426 -0.026303952486565942 0.0629740354271929 0.008633286047618899 -0.042657670078713884 -0.07232906204141071 -0.04197110737909167 0.02073518264487291 -0.07037369278088676 -0.07971263808845876 -0.1412158941549653 0.06977503364691977 -0.08548009630184125 0.07179248605562578 0.06548787672331845 0.029614726787853745 0.0016431518171393894 0.1276881592094045 0.11486279898394074 0.0006551914721666582 -0.023922031739665676 0.07979482640586805 -0.0008928244061287918 0.07762239043609703 0.09947046452149343 0.0469933912632711 0.33212897376544953 0.083463372760198 -0.05823530345877148 0.02995324869076249 -0.0003888750343985087 0.06857996803857 -0.08643861313180926 0.01465445430993692 0.08855251508658987 0.003572009634464385 -0.061106838094423105 0.030960742231161395 -0.21201017868313682 0.11531734572187052 -0.014179862922664582 0.16718358558129806 0.06902094092211238 0.00223764734407334 0.01920394046958102 0.016832204409336134 0.08216667426185989 -0.008873037421658103 0.04416759848092505 -0.00820106945842877 0.0762145051160106 0.12477027632323599 0.14227542091735346 -0.21729381823082905 0.040990385497882253 0.21363963760905635 -0.09606883211702884 0.08528073990324732 0.06786235497615163 -0.0016909699966129316 0.07134049930355843 -0.016284394847180278 0.036692980033260214 -0.020401872118415515 0.0011484034901620699 -0.03287432352172819 0.13283172940693058 -0.08334811025782873 0.03977126489710367 0.020003455652324812 -0.070666463372398 0.05924363350743626 -0.1020508713418656 0.03674544045094443 0.07905736479102249 0.02659105418721682 -0.04577987583650516 -0.07402431567658435 0.07337006857370197 -0.01700899287719374 -0.057542872434221896 0.1657683482730416 0.06474453429782868 0.23280367466640933 -0.0006642651703505473 -0.018615601174128416 0.09504446848746242 -0.035936134835593755 0.09649818899497906
0.027261225171196724 -0.024981796321217803 0.07149689981671933 0.02391734787371476 -0.04959338397383213 0.05857113559537752 -0.013412298253167393 -0.028497766533911714 -0.03394461269498382 0.0394737751226279 -0.04626997521875469 0.06165560274107604 -0.04094224112003045 0.00882427671707145 -0.0024157016389595165 0.07107128251907396 0.07767728687907718 -0.06312311152644665 0.017069691787650207 0.07964100920342743 -0.010776556193114059 0.08437366109676309 -0.044201821908605825 0.02176623483875914 0.036490741953363076 -0.05435885332990318 -0.09724649748845665 -0.016655207525860777 0.0876963783713468 -0.03139437803391869 0.055948859096520004 -0.06505273743451852 -0.031609432739509516 -0.07108045583238065 0.043354162829275206 0.03979834130506045 0.037699463589783766 -0.049362022547458306 0.03836559726498872 -0.05477418460781138 -0.015202959618417854 -0.025678766622141573 -0.02668701795750413 -0.08584293666326241 0.019415464452463685 0.038002205105357824 0.021323747747686753 0.02734698349258337 -0.06648249334872947 -0.07012941358367736 0.0028234467274241932 0.07506654527090781 -0.0632093116905556 -0.007432176258348022 -0.014213533194019412 -0.0005421628160967307 -0.06769784590279762 -0.031511871773037894 -0.04762391917929596 0.0689053886458958 0.06006644915528034 -0.014672168346371278 0.021405300636808112 -0.06517942386545383 0.00460917353010323 -0.04113029699454468 0.07033327843617382 0.029742035880667733 0.02355676054423934 -0.10371164604456373 -0.0447519944535947 0.09376663573213431 0.07315099328578928 0.011353662074043244 -0.08149051352334986 0.023552325257928965 0.010444409816502562 -0.007159341996175517 -0.014581391891081673 0.019811837522780155 0.07002425871679786 0.05026478774920821 0.01587210805944661 0.08494083630720561 -0.08705200331169023 0.09826930174636181 -0.08942053458964269 -0.06010552008734501 -0.015449467671087819 -0.07855344146739747 0.024571633225091965 -0.08742763838810706 -0.04690315738510616 -0.10136270087628059 0.031166872535099234 0.015427344391650695 -0.03190591435115186 -0.07353664570705894 0.13637129035396742 -0.08701687685277407 -0.0005903662936534023 0.004902649634136883 0.021341840314509447 -0.035645188941630476 0.004076950128681349 -0.0872706724632385 -0.12853176907883795 -0.04807674508655947 -0.009973518094699173 0.01107893520590344 0.11419268914299974 -0.02712438592635391 0.0548820266672079 0.010553519309978499 0.07775955568467166 -0.029025632372786103 -0.05078037711767429 0.08133728843563764 -0.08484459580055702 0.14486587840451817 0.05645998734436322 -0.007533497764894798 0.022535610518362174 -0.17220556562021486 -0.003935093048408932 0.003562238399585099 0.04722927019567085 -0.1742243714856358 -0.0287208481148753 -0.05521646104868715 -0.008923447756625416 -0.013805740101122316 -0.05602563763552181 0.025870442057101265 0.013382827411690416 0.029925882728225613 -0.06438830394252598 0.05266806844097364 -0.08015985976874114 0.032303295559046916 -0.004597401119547359 -0.010224232658646887 0.06930975854981898 -0.011490921582688513 -0.022218882361200662 -0.06819144660798913 -0.11429758952871216 0.11581029455072636 -0.04782570441355209 0.10455351097947951 -0.06389407332658587 0.03252318983506389 -0.004826950571483756 -0.002826094815337982 -0.043308488820669296 -0.03252896701253957 -0.06834353235419596 -0.053135333599164176 -0.07375204699079992 0.041625712337353855 -0.01085475005877018 -0.08423127741200463 0.015915764042837476 -0.037225875914185066 0.01249369707759948 -0.008226812141777368 -0.10209976201096285 0.025760599611259958 -0.08581631990592256 -0.06963971786661487 -0.09917023340427639 -0.10700461490845928 0.0031186927234899196 -0.052578725173020015 -0.06706795515421192 0.029685112540847672 -0.0967418227909345 0.03425161990836505 -0.10987017708021772 0.0675405981549157 0.02761052064648058 -0.062418997998048655 0.0401602277166066 -0.06696450008342407 0.0629741435829369 -0.05446651367207072 0.03949410920014624 -0.06177327457516707 0.01568065217383188 0.050610197982728596 0.03067336290413915 0.03854918983601791 -0.04472066216578485 -0.07311657871755833 0.0013777892263585215 0.04707231238241406 -0.0714542878730312 -0.08075397048864713 0.07679832821995229 -0.06819008016618287 -0.11817473017690398 -0.0763573111640061 -0.026253697998268537 -0.04277690237519745 0.024113029684919213 0.019429717152213394 0.058390846511434315 -0.006242830618274835 0.028992386591253128 -0.06283196515899679 0.054334661760377705 -0.021199838410887108 -0.016216892436377223 0.011673452818127674 -0.1034876350693299 0.019130210537997183 0.0039762056008814375 -0.05357546758312551 -0.0034389577294041828 0.010944946412373896 0.10298965500935586 0.053845870249652185 -0.05328528316427823 -0.0404141117606629 -0.09263007107617077 0.0310624269244789 0.033706534586547744 -0.07510179295205807 -0.0047496753081916875 0.009483799230268463 -0.05778844555533283 0.15145902729857466 0.060527844893116745 0.03968544689799614 0.07791497845792254 -0.02038798813238058 -0.03838631101622525 -0.004589654708812345 -0.06325149278596129 0.06345387502915092 -0.08298723860999964 -0.014492751437715001 0.006993201340545515 -0.03659344691462719 -0.0038787940295384477 -0.027344486260297632 0.030823016438822758 0.03807064738062448 -0.02823046137498546 -0.0782278617394675 -0.016418825217443984 -0.13788734683006587 0.007505697801995662 -0.06409513038970881 0.04289029873818681 0.01220857857348909 -0.04023838653685801 0.029473136054094656 0.004044553245072532 0.03876512878140183 0.031272829179551424 0.03804611239961615 -0.03972179084123062 0.1028667059809471 -0.011179889899280232 0.005112874169604539 0.031324803589678624 -0.156364109104885 0.03975427653169391 -0.05388836577099154 -0.034633962395469224 0.005287168310457918 0.020435919046403118 0.0763892636214152 0.07546127974341178 0.029689118541714465 0.019413419092406077 -0.12586576499487234 -0.0416751494812234 0.053992527496220015 0.038662532349594735 -0.013377970118180857 -0.07680589863871007 -0.08427834673196292 0.08883319489244249 0.022807043906320545 -0.13042194553103037 0.02112626743897627 0.0382670840601847 0.05476976165201274 0.031757387658823875 -0.028052540268287192 0.09275154142230779 -0.00890157887968522 0.07781816305707935 0.024574102022132043 -0.07289830606265134 -0.023938658745389977 0.041068083501588325 0.04158727132165549 0.016096090696425248 0.032690489471634714 0.10162438763156534 0.13746444874648 -0.011301185747764692 0.005097787255250453 -0.013336072040672978 0.012929570790218557 -0.029306157119916493 0.014695000702921379 0.036309470610386585 -0.009512780543447587 -0.10663573416659101 -0.005290385607925751 0.032631140915240775 0.09734791260944242 0.07235323290741905 0.09106283089432703 0.10603889604105401 0.08003594137065775 0.07925158278539042 0.03043105173886332 0.0627780097001384 0.10278388397546014 0.03383285375481411 -0.038312924646449684 -0.08391096555746932 0.033759335526469626 -0.08052618886785837 0.1297340818556982 -0.06166096394099537 -0.028609571633462134 0.04389344526227963 -0.15614012798001167 -0.015201654156602106 -0.12485537460409533 -0.03933086565828619 -0.09594252027875667 0.1221821993213398 -0.05556960183744588 -0.2027169663104079 -0.1607466319601554 0.021045576193025994 0.09739691624125307 0.002998737916542277 0.08096564913375139 0.08819976754100897 0.021027997263768663 0.12041499282534689 0.0932608228717548 0.0977638855968126 0.03539976054784882 0.1332538466359873 0.04244112186138671 0.02975868167111481 -0.0021676349733756157 0.018487320510553396 0.06927423993461515 0.018516974146692254 0.1159937951724639 0.18284903665221153 0.12201537663470963 -0.05520328844078121 0.027764280319493143 0.02292871666967494 -0.06982731264491382 0.03070711882534781 -0.01647001469414872 -0.08342312459303192 -0.28178373231379505 0.07206204215347878 0.06921281976999064 -0.07534107256899272 0.05878534384188505 -0.006143259532295067 0.15343860309490975 0.05841906271221165 0.03899634893332039 0.1045412080621494 0.08077881148100895 0.13328946811087303 0.07806973449845139 -0.04034699109931889 -0.012364154349217492 0.06127068230045318 0.0030746640731736377 0.028580553843392694 0.07683449051684957 -0.04988396690418214 -0.17023970415734935 0.023160341053587812 0.029227242089232143 -0.033921650727659444 0.0687338544383102 -0.018860375501833986 0.0255944649650213 -0.03812912981894002 -0.16491527690142443 -0.19551883252733115 -0.1349724776517129 -0.03017643694581593 0.04091506290961652 0.024693831994248752 0.08117606517529793 0.04961689874167573 0.0239145451366768 0.052012196469575014 -0.004736411931736109 0.22759331145727593 0.007244674309576197 0.06070037464606905 -0.07112218460259079 -0.11515376214430875 -0.07436734543924456 0.022686554072887978 0.08031142086230066 -0.13063742936674744 -0.03541900864439399 0.055899330708515764 0.016822883964842748 -0.06043344307041614 -0.01413175397833602 -0.038678069089078344 0.0979400460711761 -0.010753588529056715 -0.028697845588152936 -0.061202447371608626 -0.12481842309723355 -0.24401382958123505 0.0010921163663787355 -0.014706089664237414 0.18614954104851344 0.003805928597679506 -0.0784144600649099 0.08892825725890556 0.035117997592939085 0.2516858564480963 -0.0213688931393732 -0.12307599768735579 -0.019665455128612137 -0.1741685341773922 -0.020194775884210495 -0.12744163342028605 0.1177309119580257 -0.26049996364199035 -0.04522760720686075 -0.07907544012562147 0.038059250835014186 -0.02895812213207126 0.09314564169709276 -0.08126461580846997 -0.09965712173768586 0.11615535214354318 -0.06517056925084232 -0.06234964461858996 -0.0628246022941431 -0.05901981908297764 -0.040189569739624266 -0.018836581746168205 0.08908798877845409 0.060150972614014975 -0.09541041655656456 0.15240982544556153 0.189912167114447 0.01518952328035946 -0.08747056423774409 -0.08221330734232751 -0.03893093968744691 -0.07475145421006582 0.07463782718899536 -0.1409659679471087 0.1778994931714875 -0.09664666566168531 -0.17658523269594653 -0.07320429805955748 -0.060161892947438865 -0.07636147413059231 0.06587120488994705 0.03381262228738827 0.02228686409180699 0.024988675252412086 -0.009324446369603473 -0.058345286716113755 -0.126749008685351 -0.11285306979914198 0.047361763467082124 -0.16549087399032159 -0.003880966343641171 0.05179762986392143 0.05076334623904521 -0.027850575428150885 -0.043557138339602154 -0.013897169487948589 -0.06724207851307239 -0.06430479357432607 0.021249107730054808 -0.018870246157584 -0.06793986937708035 -0.10725783045316649 0.009372093769159468 -0.05730110760758439 -0.11357941344005332 -0.09685334253932953 -0.06336302685498282 -0.07113456356900064 0.06873791544631636 0.04746103019522218 0.08537838316061287 0.019375338139560515 0.1362126125622151 -0.11776323578706395 0.023988923141105067 -0.05600640505914277 -0.03978602403316575 -0.05740950284291871 -0.09143123594637004 0.08011918333716975 -0.08415410607510723 0.07289579625274004 -0.09149407637810981 -0.08810771647011732 -0.04321703911030089 0.02933877749078407 -0.08155107898728431 -0.10730031576169508 -0.04905422613940357 -0.1193855677877792 -0.07343422528685792 -0.1280068340057866 -0.06521259442203772 -0.0507392224263141 0.08618238663364201 0.03792594353236058 0.004403854676709349 0.0035407521098622776 0.016506827980459986 -0.0516994522761258 -0.021063196359535998 -0.12997427258355004 0.03445587113489705 -0.06078307872164903 -0.11514382999557683 -0.08217010791458881 -0.12456657837734028 -0.3109210157083621 -0.13002637550711763 -0.13512892532387624 -0.1196635379093095 -0.12888405582988954 -0.2033963777092327 -0.3220041407219998 -0.24111108327983172 -0.27778222641407513 -0.06669225076793746 -0.09774630622407193 -0.13963584477700614 -0.11120827911663224 -0.004563947452743244 -0.015858203107682652 -0.028285525372825783 0.022622467073402458 0.08710946519881718 0.00956300308999077 0.050637523043178846 -0.09484657840902833 -0.0910989892977253 -0.18779801876624178 -0.018931816068519264 -0.08774086627138722 -0.14757366830613958 -0.09480498259316335 -0.05503451098748817 -0.05075514030942637 -0.06305681799282169 -0.062294113679642674 -0.1111691644102255 -0.19716749034171324 -0.1932597227250411 -0.18148335933805493 -0.1709340408107007 -0.09914646859935863 -0.04087622465886575 0.03757545342044354 -0.07199321958877311 -0.044750645247818466 0.032611008815705875 0.08221234961359025 -0.07417399078617824 -0.08581332518824734 -0.08529661715422103 -0.09486270374701745 0.06643681730486171 -0.12317068892347868 0.0418718007018503 -0.04715361333652152 -0.09308821157555766 0.0631093691533116 0.09006219286248332 -0.00824741867455307 0.02795781174505239 -0.0660318201479421 -0.08351930830719823 -0.06685413895796194 -0.12966837840844853 -0.022878037451374456 0.058439536824615224 0.07662227569776124 0.0534859010607149 -0.1029769724680401 -0.09154541327864642 -0.12260371541625331 0.03240538198518285 0.04312401383683709 -0.04388851108800788 0.09031016606001034 0.07759929878529293 0.0036823323736754053 -0.025425995689705803 0.02849538539588978 -0.04898295471694332 -0.04822992114049775 0.011993819039277183 0.08652296941490034 0.046140130810617026 -0.026798409937857526 -0.01640576661965297 0.041226874213435655 -0.05334072245200797 0.04044862027154152 -0.02658309346216967 -0.019748656749246037 -0.005509947854981662 -0.017636459739968354 0.005458894482368392 -0.09121369024937069 -0.02384550063887 -0.020984427373387925 -0.010969647139322792 -0.11338133124377658 -0.045508913319476034 -0.032722601983348476 0.05847404117801175 -0.004009873499235843 -0.04435231151573393 0.0006010390101909568 0.028671584929827104 -0.09530630425489683 0.014819060757773556 -0.0718185957836945 -0.06558069607654102 0.009966541436657627 -0.03363261668924861 -0.04556307026216224 -0.04752230628764405 0.03499457511386219 0.0018355497960340663 -0.037348455689164416 0.02883948879381143 -0.06612611170538223 -0.02920156855372576 0.0030728704336048037 0.01569703509513474 0.06319424429398664 0.10829871456387102 -0.0458083230006077 0.006789615809425762 0.02119991271534274 -0.025989841554427025 -0.023302634329349734 -0.04445501121166568 0.039668777797515264 0.014760573833070584 0.07466462680734642 -0.05107318685615839 0.024915452278770487 -0.07746634438774196 0.07534373060979588 0.013427214275559906 0.017835062807825108 0.007264503825030548 -0.05581003493250388 -0.0281682333477331 -0.024249044468494914 0.021596186668519965 -0.10379279733349937 -0.03649082712632692 -0.021914620674212133 -0.090326137641657 0.10017822804842501 -0.11259480891695976 -0.04911925956736457 0.039489270423346164 -0.007665279445221601 0.11841564122092403 -0.0009703492075101237 -0.04612443959652669 -0.024985404361934957 -0.06295657650212762 0.08763495037439284 0.06096716920315892 0.08760570863127048 -0.06292389507043955 0.08663115256464513 0.1010704513667538 0.0347059047642413 0.043439303073393276 -0.10729478788879711 -0.051673593736482185 -0.05708854684919894 -0.12655070232310667 0.0200827560804525 -0.0030710123572748865 -0.14561120938300826 -0.10152678445544422 -0.07994009175869382 -0.10401319128136 -0.2302498760391554 -0.00011176029679201279 -0.053750498929041754 -0.22618820262321362 -0.09385829487747585 -0.09279557410761492 -0.04201219307331843 0.07284117337401873 -0.04711335546757273 -0.014703076037380832 -0.05196555855572456 0.0372886830344728 0.0979766906674231 -0.06451409262634762 0.06428934804525946 -0.048870288506522 -0.012057594294671731 -0.04318170073205882 -0.051823049001761295 -0.11154015405710353 -0.1378491202574735 -0.11638531275355372 -0.10713068848309615 -0.10060501289132077 -0.1285390542164065 -0.12552802411408742 -0.07663720680799953 -0.06292006390488437 -0.06740557078410896 -0.17179300298710698 -0.08455821547777637 0.007366799990622734 -0.16762154390153985 -0.09408834077595463 -0.140678041091686 -0.056482592951164014 -0.04153724759214326 -0.060813610700201574 -0.08241226324587934 0.07399523605432151 -0.08236227088569799 0.03674206716432757 -0.07591982462845533 -0.09786019937116518 -0.0011116545917513865 0.04984418150130479 0.030897009924891066 -0.062134739524383115 -0.12156768399685626 -0.025030406821903974 -0.029477660485009636 0.04318394570114784 0.0023905532486552306 -0.05706472691882424 0.018559326048284388 0.003308528160716598 -0.01194676531584758 -0.017637753362044425 0.05386922402659795 0.026953053689585813 -0.012735104846363341 0.051548705529887856 -0.007723651375038145 0.06497171247704639 -0.043630982371351414 -0.06430103340450236 0.09397411406894282 0.04838790509121535
-0.048041661339117095 0.016247068458234343 0.09105245070763737 -0.08384921843758425 -0.0832931585876518 0.02382696628398144 -0.05510130423280846 0.05303679134670164 0.013630508589821025 0.03323761804469905 -0.07843721984108153 -0.08314338971268864 0.02502403446070055 -0.018057618501779008 -0.08255336595418676 -0.025787372277119806 0.034428881931369726 -0.06208251996168286 0.07914582170574083 0.08996927777601746 0.09231450848690678 0.04601651154805203 -0.018742314462336984 0.04874983927024393 -0.042402624145049694 -0.037116555521850766 0.021179272243571592 0.018969426681583523 0.07573219526316222 -0.049079848867884614 0.05323767304056434 0.08820265336378028 -0.09979341346845308 -0.004782176399579036 0.03140806580494587 0.06865711085153943 -0.06361867166656626 0.07069901535959398 -0.03724517172965418 0.03983903058566007 -0.11634299863874614 -0.09028486112850025 0.07534832284442293 -0.00225111440751271 -0.03387352798562702 -0.0715667465144072 0.029365940477101213 -0.09257436204789546 -0.03769237213927813 -0.03556627383608688 0.021390392989298408 0.03016625133513942 0.06921091984729386 0.08551618851950868 0.03209154552221993 0.015634783681707634 -0.020256891274198316 0.09332249852842842 -0.06918416563352853 0.07820211201503989 -0.0377973864230317 0.009697817933220804 0.03618771697055454 -0.05366961473461318 -0.06834334393213366 -0.034040339302276984 -0.0572819401384702 -0.09005132633296752 -0.13251348291815376 0.014949917703165706 -0.08980307834157643 -0.05376175281342047 -0.06599898143557882 -0.15855273901268535 -0.20034558152567772 -0.06002470968032867 -0.07346085726842805 0.0445144371094127 -0.03188170734934655 0.008092447253029643 0.030171477595800748 0.018858170717332895 -0.053707412893150445 -0.01463573011035288 -0.05037770718796504 0.06912299244622908 0.09733548899361652 -0.09348440255427028 0.027466305467196236 -0.04032512890576588 0.0039008192123826104 -0.04440819273341899 0.0507554330605931 0.01971207366223013 0.0867596112015792 0.08857183225260229 0.07197907703652347 -0.05779181907554608 0.16172977311856063 0.1002475189304428 -0.042324052036919066 0.08634932072630173 0.07887246699512802 0.012805261060099217 0.17846361305010996 -0.09826349588230067 -0.1351835158443514 -0.05266116950234414 -0.037662304159511245 0.057688083229150124 0.08174868767559476 0.01748400384751539 -0.08191805686104028 -0.07420480317154479 -0.07808122120980895 -0.06681219935189964 -0.09780162385411395 0.044600050491104604 -0.06262478773009891 -0.027138718292053245 0.030068426890326818 0.06320707765716342 -0.01227958711904666 0.04753681232660108 -0.015254796221520312 0.04832285488074573 0.05848048966855571 -0.07391716238345959 0.17582649006714351 -0.03781654638394323 0.019389552984195303 -0.03491797488271063 0.12369419740791673 0.09421789808493626 -0.02967351246759588 -0.12610924330539663 -0.15848723390370761 0.04853968142979111 0.013443796353605621 -0.0015151905203360794 -0.04815637486985261 -0.034633863026724984 -0.049818800840511226 -0.06582880252950332 0.021916456476166128 -0.0706166829489444 -0.04834290979215083 -0.015197982477462726 0.023066770062106362 0.010755649687503843 0.00982097531199962 -0.0241317652891037 0.08574234769688434 -0.09326620536699703 0.019796785034044667 0.025272028879447243 0.010981038947743606 -0.04531361048394563 0.06480512364141189 -0.04185782571547068 0.027123475689284113 -0.06439012274958844 0.04497246097829257 -0.0427492211100787 0.04105260068894811 -0.009708450282977617 0.06268238017256099 -0.029010477209534202 0.09957685564498048 -0.012415038521066285 -0.03094309501355432 -0.07522532016962881 -0.023618165214983087 -0.08455920031087946 -0.10885115583493445 -0.07330182207089056 0.10553050773081797 -0.03650874058672214 0.07663017968477359 0.030445468199781694 -0.12159818394147492 0.08912430055533985 -0.05435870813680188 -0.01993907031081937 0.01778631047848935 0.03487265646178508 -0.06076956609788441 0.10548901856299392 -0.011868636010668494 0.11474573773007929 -0.08783697448173002 -0.17678871511220134 0.060765151370268715 -0.022804675649430353 -0.08737736392219707 0.02430509369747475 0.005524301691269856 0.0037785527027210646 -0.058992984936739705 -0.07035639020919626 -0.17189722808835903 0.007092111583510895 0.14980163767612253 -0.1592861261572575 -0.07139323438400466 -0.016781938160817324 -0.09202700368365727 -0.08800490784773445 0.13551007599084575 -0.24063271724902768 0.15509003702312668 0.08154671339830756 -0.037411483799495 0.03434820822503334 -0.03827233376203337 0.03424151961714994 -0.021985848282644774 0.04574770361067303 -0.007268102128712455 -0.03392607211325625 -0.15966197738154628 -0.00574270826186833 0.04441825654238767 0.0033136429890425344 0.07352544192303476 0.07157112902039296 0.05061143161415861 -0.03711140563870284 0.08199425804157656 0.11965715886025907 0.01685810759998217 -0.01167868175844659 0.1744570463715008 0.029073989343221977 -0.029629386093958203 -0.039494449133250696 -0.04248925957447072 0.018694682670237318 -0.09901078048542923 -0.038195884456834216 0.036192563586225864 0.09810547820664024 0.02706500054418781 -0.07633052053962683 0.05360688095702956 -0.06708807073383712 0.03781099683863747 -0.07688418241383876 -0.2723508641510351 -0.0861895118922869 -0.03197318634598787 0.05507836026445441 -0.04975936333012268 0.02986403017379877 0.1108427164251882 -0.05415819644803691 0.08972587671028062 -0.19320033431710415 -0.08929075407102362 -0.05844765945805786 -0.07860550986921241 -0.16421232589793816 -0.04872161858887928 -0.11041930973061476 -0.06793127202011441 -0.03528906779439773 -0.0044115055595685135 0.02914528483375522 0.056107016138043767 -0.07591551351854718 0.03998385297640646 0.03324404471703831 -0.11702939260386933 0.09745253675033906 0.11963582857048204 -0.32922462996486185 -0.283644079127105 -0.12736736662837617 -0.06773896072881086 0.07507193991631149 0.04058634642287426 -0.06520984182991722 0.022294288049615137 0.09156566422467999 -0.1958476129321124 -0.07506423159989227 0.06105395532326934 0.07908183587923065 -0.15811348448571078 0.037967410164272776 0.017643046886487875 -0.015879506898337156 -0.0024699291901341953 0.07402419632279113 -0.01330822032400583 0.0886803067324095 0.1111623801187339 0.13163455259011372 -0.011746906484764046 0.06486179698898749 0.030780493283586667 0.0695105058480703 -0.11882231847514636 -0.26357728405827546 -0.11308143138191169 0.0006322115930022898 -0.030437281874742202 0.005316331002955233 0.03171360831167239 -0.06714625852898162 0.047068043434947915 -0.008837791856857322 -0.0031768060301634905 -0.1482547140055467 -0.18206659117518792 -0.02257404205372876 0.09790362448896718 -0.04731732670829701 0.11550239446094102 -0.181455706473555 -0.049001313927211694 0.0028827580272258162 0.09459044485945152 0.16908043523096244 -0.015848143299196395 0.11829055758162889 0.10408889824015555 0.06948173450291865 -0.19027395450025628 -0.10638645242507441 -0.48698995434663567 -0.07606694134086771 -0.1011691460631629 -0.018632999241084542 0.06126402313433125 0.018971708645270542 -0.007568380661728574 -0.0010481353867989923 0.008370407057116856 0.0030755214850802155 -0.11736802112715 -0.20605827609404392 -0.22992495707969407 -0.1729972621275473 0.007898943923069598 -0.042936755819739304 -0.031138109465782344 -0.03283349306134929 0.0722568006743389 0.14061373730329138 0.09969604527491548 -0.024528311985975135 0.10588437763831147 0.04456586892418733 -0.046763336902047405 -0.13993698148347194 -0.18279840392007662 -0.2415796958705644 -0.10589603901927444 -0.21490966769645542 0.01899838815272107 0.06131688489302545 0.05863160878194985 -0.04698768359805893 -0.05616923884854839 -0.01455980587784246 0.058272349548490136 0.036497350043911615 0.013144287897433075 -0.06260892530862286 0.039303222055330655 -0.05335738113428155 -0.011442452315798924 0.01765797495108594 0.004833999992403961 -0.12036450365480109 -0.165605283469602 -0.07002729299684113 0.15063648494171747 0.06800419860988682 0.0016501198571659895 -0.09328089950025034 -0.08403994164748549 -0.04255042996075493 0.23116234447033132 0.007658114615453131 0.0007399358283627534 -0.09307937131559547 -0.08396583237177951 0.007325823760340033 -0.007895824578390642 -0.011143490002753302 0.06796814203953347 0.07651468474624716 0.048077647335053326 0.012479475508269404 -0.04545697584456428 0.10703007936151761 0.05580753443552205 0.016930364472763516 -0.13274117245470343 0.026071220801138727 0.01462237510973235 0.08130132685748219 -0.057680115602326124 -0.18791654466840635 -0.02062547377021525 -0.0331519640776438 -0.1848723724375229 0.014499696115739015 -0.007779268399541726 0.1021848214171343 -0.057206278519100616 0.12882650158502726 0.21245483037552587 0.016671342591962082 -0.09155437928204667 -0.059534509271169045 0.045355150392253886 -0.05221318180641593 -0.049153529068529524 -0.08318193003956656 0.03888622542091498 -0.15381643770979694 0.08013730199524083 0.12728720916002723 0.13334843149217707 0.033587079398155265 -0.10036917336490815 -0.2379004261615606 -0.12748856016782087 -0.08752841478053523 -0.11075038982217632 -0.25154187078174334 -0.3118770322324793 -0.099501278333872 -0.17862394294449338 -0.07042507518270115 0.041671622482973014 0.044708553721523665 0.17195817087384632 0.05315598674873412 0.019465370998552247 0.060982650873184795 -0.0883402796687503 -0.09452601109402223 -0.09048028053028771 -0.0607092814706572 -0.045519829974123564 0.0040608358520258835 0.07834746426212093 -0.08599384965283369 -0.02015183755144407 0.04905089460180566 -0.13620044309702314 0.04813671898140495 0.0632323646199976 0.05362370105696073 -0.18771855736462464 -0.16857666523648024 -0.2356921722867591 -0.15614792958028512 -0.3680657427831488 0.021635556353389273 0.11496082512973209 0.02128879019572435 -0.012825631911021573 0.054327489857307475 0.0053543498815123896 0.035800930889792824 -0.12398968945107089 0.026131326016100114 -0.04104566539867946 -0.06591206096272202 0.038835107533663746 0.08652243637569731 -0.08549689439090734 -0.06585276220544467 -0.046715327288299004 -0.06819898644983566 0.11674715805402348 0.006347037738626029 -0.015108798465226317 0.05684737237333655 -0.041320451553949096 0.013021877538835288 0.008669853288036778 0.04581740904351933 0.10556691096910825 0.0463876656912858 -0.03708480836645345 -0.18801923022389325 -0.01405615950347593 0.05302458629713932 0.07627808644874555 -0.05357511364676865 -0.03463479639092379 -0.15645289288521189 0.14063187750901673 0.11724562578940703 0.01733249304422734 -0.1663328035154956 -0.033821522657245744 -0.034793801756969236 -0.005262246613036106 -0.016418888806912574 -0.18367592181891976 0.10901535909765586 -0.0985288316370114 0.0427970719516099 -0.05665019042045383 0.011046699596718397 -0.06462735588171656 -0.029511612277680958 0.1368770323833334 0.12500162672381485 -0.10270854013909297 0.15077115472323568 -0.00797268492258211 0.017370927083660916 -0.1408936258829435 -0.06596729483381673 -0.12241245063697898 0.05059972716563213 -0.11308612358171491 0.05561817513075358 -0.030196867723907186 -0.025614095496285263 -0.04367374251449212 -0.08178929939506896 -0.06294184330390327 -0.03707047864497763 -0.016010349119614187 0.012052840632110413 -0.09243327397985272 0.10679166718988203 0.10765269424099205 -0.06697438794081231 0.022895788902230735 -0.06159186887889971 0.030676949592081053 -0.03251779434646098 -0.1026877177996977 -0.10701681377117662 0.09994345736396515 -0.11066288217915382 0.16764019196577087 0.16281296825692787 0.032515262772806426 0.05647614733091104 -0.034727301060064844 0.1018357074019341 -0.11147885696810146 -0.007749441127654904 -0.13803570130914347 -0.04549030470770662 -0.05145514954394974 -0.04797777680098328 0.074776650157783 0.0743971262381837 0.04143752195683645 0.043027276436346115 -0.03132114829703805 0.0576248168223037 -0.12540894364795965 0.06612660531785625 0.06814199107163461 0.04024923185982792 -0.025694499436495467 -0.06065912048820962 0.044006047418991 -0.0034347225661421803 -0.01615918631987255 -0.11197592873858978 -0.0354344804444431 -0.1463468897788186 0.04923006945209921 -0.10730007373978395 -0.10247024887735505 -0.15886784726294306 0.020193759127188623 -0.024841555317258804 -0.01670927133908933 -0.08503380643173063 -0.0413389046519813 -0.06023305460111462 0.027773477662088788 -0.06194330346419126 -0.09882380371107435 0.0395848117858654 0.08455811181942084 -0.037652465863454304 -0.12952263061827465 0.002915567372401637 -0.14960391642006876 -0.06206955071148048 0.0844083693894841 -0.0990697905549537 0.09046331789942459 -0.05226018781394723 0.10757381942934248 -0.06105877452503933 -0.007723267435546676 -0.057549850146973947 0.0425379761088065 -0.019507098424002167 -0.01602530740009329 0.11072263089665771 -0.08883434826191516 -0.08914837256719106 -0.156020565573879 -0.0659476900292045 -0.06216665956733827 0.03301077363582962 -0.026377042443893068 0.0978904261672506 0.0030429392324147486 -0.005076928232989999 -0.0958292510683426 0.053303323765599146 -0.07698285287190351 0.040218423483125224 0.11442252992524746 0.0931130739167542 -0.0261636882287392 0.017162951767229224 0.06520202084531507 -0.03223121710184754 -0.06024665984870942 -0.009881300423813971 -0.03451148591565423 -0.026078481859365767 0.007596936473907325 0.10027326329570728 -0.05190767309891822 -0.09861032824847522 -0.06593723650209597 -0.2206451156814342 -0.0009410976004679914 -0.09341703032275472 -0.03575716954992076 0.04009560502858083 0.03807058135605533 0.04111608242413381 -0.011911888004856402 0.050835005091031865 -0.025771838297323643 -0.06371325295653885 -0.07482420139581034 -0.011952288506689222 -0.021033466546375792 -0.02936984846498113 -0.009946731145811759 0.09807051893702101 0.0020848037118285537 0.05060514139959347 -0.02837002465766778 -0.012927556574003761 -0.049289032643704954 0.07098911084481113 -0.0389758856126047 0.007364724984491404 0.016332604433888714 -0.017134119338914858 -0.03719719573946862 -0.05451544907295776 -0.027859335500747925 -0.029205740221169164 0.009965564469594334 0.061164412927852296 -0.05968067311836578 -0.03449518883034218 0.0485842500779394 -0.03181595017353159 -0.10843947096185932 -0.0484744837101329 -0.01381443337703782 0.09971664088664393 0.009462841288039318 0.12548681688982408 0.04279240627959119 -0.0350350155834177 -0.09496562715124708 0.04804046810957946 -0.0017015654843437688 0.014398357437851525 0.003385199619860213 0.028774309894929313 -0.020061122936468757 -0.12577074962310164 0.02110603780420228 -0.03495273839374985 0.00396176652448789 0.018074012444190077 -0.02273468700855156 0.04049601122139704 0.024072465608326897 -0.03918993950158616 0.004331862682654369 0.04246243912948583 -0.038937293710338654 -0.09749543262270535 -0.046791541433510275 0.05505889203180506 0.11065430425613514 0.10465759167194627 -0.011762658853205953 -0.013566881766034124 -0.06851716194959892 -0.088347323019237 -0.03219899455821226 0.017352290798969945 0.015955916008865118 0.024150956755263717 -0.10034893732652087 -0.09316068115391228 -0.0487220084930768 0.02137956582339542 0.07599836656133764 -0.051398240166598025 -0.12381897306077087 0.06074944891421439 0.010045663509365373 0.004393636667241808 0.06314235739942516 -0.09360316312484523 0.07559208374503135 -0.09307319973245594 0.03863891167567762 0.017496895870081824 0.028349836166719322 -0.025183962452348774 -0.04514381039639105 -0.03851190362589623 0.030813905645218718 -0.00867806978785227 0.00812694697794574 -0.06498563789402925 0.009230150025705002 0.008777467061639621 -0.04400098017993889 -0.07816817282239419 -0.12040991024376564 0.013157271788811627 -0.0891097674468149 -0.09458700879933293 -0.07128014496278869 -0.028570899027161735 0.06927090000703949 -0.04692201611075109 0.02418076176380233 0.02416272155665832 -0.018390572930414267 -0.08993297406810966 0.048966774606498537 -0.04085489311522377 -0.02030836069019197 -0.024552086493898104 0.03272052633421871 -0.08273334263696719 0.009977984094396236 -0.09691563553134884 0.09650592169254214 0.019440771081759928 -0.023331410950424073 -0.07478485974810774 0.01591688389554196 0.07433447057993309 -0.05117063987845689 0.019834721759259735 -0.06424250806669801 0.07317192370649903 0.03626864668305059 0.024523201497668422 0.08091569069090382 -0.04892816564015501 0.08420849182188657 0.035342767498569815 0.053998682114065714 0.014327067286990264 0.06678093549984665 0.039656359858372514 -0.07067825964461821 0.022492225725614975
-0.04413593287673363 0.08317574461346003 -0.06035354195796925 -0.042856700925739434 -0.09046905900606422 -0.010484171189872368 0.011517563034222356 0.014712216515419055 0.08107547599193463 -0.030517213439878996 -0.010494324081748954 0.0702475325002995 0.015411020517399595 0.030897471520655667 -0.0443281339211368 -0.0025057396748301847 0.024190477516094447 -0.073321193970952 -0.09341825668149312 -0.07731779977383478 -0.004507784732069392 -0.0951946530738383 0.025241785827444352 -0.08048347640478311 -0.04980769245675085 -0.014701410828756312 -0.0768346506587502 -0.04588960124050672 -0.09578406543289775 0.0970091107220939 0.02231472162428212 -0.02432923223295018 -0.09469432977791017 -0.022032250325003153 -0.009492998217320721 0.08616241525027846 -0.044193261563021065 0.02030066015869243 0.011085228051726556 -0.0679149641823092 0.0011976944426713304 0.05726820774862365 -0.08094117962478246 0.020620026346143863 -0.0952693180388793 -0.09874718782998623 -0.08862423419012745 -0.004801263911996637 0.08498397958160113 -0.01886635961722966 -0.08497871051853795 0.07229111927950164 0.0038595170940880497 -0.036212826216515184 0.09260646775693512 0.08765235370047567 -0.04799620560866154 -0.05972162925725595 0.017781740661215448 0.0685036419683118 -0.03263860338648085 0.017288961068585122 -0.06753853997559862 -0.06082341617184182 0.051170064040638785 -0.09527682127500357 -0.087662904045051 -0.020364758140760306 -0.1920096095211862 -0.14557717394756395 -0.11592788739178785 -0.1200939373079991 -0.09334285458085564 0.026016263402151314 -0.1349154155925239 -0.07244032382165785 -0.011705159182863571 -0.10265961936208479 0.0650992504629579 0.03268693101505705 -0.07565098183368339 -0.05838051800021056 0.04909966614963293 -0.019318674333165434 -0.003105987810298652 0.0774910156145455 -0.07251129007515383 0.09287455947722353 -0.0919103949821967 -0.10418210017101029 -0.0878704070585549 0.04697935931702623 -0.03554961764502444 -0.07467257822102402 -0.17797897963516054 -0.2703973511826475 -0.2468648233594117 -0.15096752777711506 -0.29401891926674617 -0.009164911755532891 -0.10400101797595854 -0.30744774480371134 -0.11602763158601496 -0.09771927177901911 -0.11728474887296615 -0.04330780177720171 -0.007869575895394177 -0.048287682247623843 -0.04185941993089672 -0.0009703444433241707 -0.019138828741161646 -0.022145010918206864 -0.07971584462374466 0.0424489608794511 -0.07787178805659381 0.07518803155707647 0.07706183530236146 0.0348876126581906 -0.056256678782924174 -0.12377566991539088 -0.19276906629056095 0.011156175625219967 0.024767777657566055 -0.006391586847592292 0.0013944176932405908 -0.054929361875896636 -0.047025886903117216 -0.02600718306193623 -0.03627325865239598 -0.013666680669796307 -0.07277723172901064 0.010205759813870835 0.09988020220789866 0.002408760849334828 -0.06504301584207899 -0.13292021530214357 0.01217885642299121 -0.03540760323015894 0.007782742745336257 -0.0782857526793258 -0.05381165833557518 -0.04272457369252352 0.07196772606966531 -0.07649666679364801 -0.05814844612343056 -0.12473749753122651 -0.07117931133275854 0.052855438585999656 0.010704127586976168 -0.027083196091866445 -0.07951538618966515 0.004507151785477894 -0.014957389454428533 -0.10077218154205139 0.03113229420310282 -0.02463163584450741 0.022210217572105784 -0.03753520371928972 -0.060092108715474796 -0.03537209846319455 -0.1224838117757348 -0.05934791191976771 -0.003602416000974424 -0.12258072008586897 0.03209195837932505 -0.018942402815882175 -0.05571171784575297 0.027742228440713442 0.05045132096081864 0.023550855922013586 0.06692873716258468 -0.10222411846406634 -0.12311834031228755 0.08241140146733239 -0.04836313501702085 0.030824156168064394 -0.1694931658686044 0.13288649039061176 -0.20026225080654192 -0.02521712304581614 -0.08932236511488816 0.0331662953139865 0.04171071139136148 -0.11096634210775211 -0.02417694401655604 0.05581841188933469 -0.06209239566597907 -0.040332331750729825 -0.024955168045785802 0.13725157149103778 -0.1433537082791794 -0.01447061575919945 -0.08311477237406048 0.003613079662412952 -0.13078044737228328 -0.09406371328955586 -0.01570179791438038 0.010988873279333611 0.05422890445846542 -0.13616644831962577 -0.13691732234431367 -0.1313569929702992 -0.08979171561609531 -0.07461181002834687 0.09653310386139519 -0.004264226680143879 -0.023077872236009257 -0.047118748002667986 0.07007466882139862 0.005574235788645199 -0.07762870162767598 -0.06787665319800026 0.01685550284475101 -0.09437509654960914 0.1145624139231354 0.07295127740265642 -0.04262328241443117 0.023389816313795102 -0.09980040595205622 0.028760867225444638 -0.026196512141856344 -0.058532798411693586 -0.13945554335731244 0.05100579263591552 -0.04836226719850321 -0.094595505156493 -0.119702956534671 -0.08061025373424484 0.03669678277967451 0.044825492954992954 0.06294121683233908 0.13382271094531167 -0.031047939141518727 0.03623859613048539 0.10618318934380523 0.018922876902843715 -0.1200095221285455 0.026006097755356186 0.11093597514681924 -0.08688502114868796 -0.024996639408083395 0.012399712793989104 -0.029963615624898434 0.033215435393565695 0.03771004868625373 -0.1301799166839466 0.19284740096200811 -0.117701487582631 -0.08495588823692873 -0.10653035758383544 -0.07366191295218667 -0.0413441552399621 0.004357263869040178 0.05347786025306874 0.04777040140747052 0.02444793849088105 0.02702880798150753 -0.005405922515823248 -0.07223638321438125 -0.019625547749880533 -0.003070613838629123 -0.0760418586427504 -0.027921246700611194 -0.045745978014718185 0.02491398566003858 -0.3246713446068957 0.03403410614284038 0.006670535556138639 0.13914975659355375 0.0855432623780046 0.055456219736155964 -0.06662411707793345 0.025661207315595323 0.038710517869181 -0.026362706972435656 0.07489654505900414 0.053805172414972055 -0.2224199581965448 -0.011530035674228136 -0.013894879297204404 -0.035524238466334464 0.0241268370898956 -0.10833769644219007 -0.10057524535124236 0.08280177232841696 -0.05203266371248859 0.1385750423786061 0.02627342066467741 0.050654304787403945 0.07522399960684699 0.13384067781083597 -0.08642443285985602 0.07430371148382083 -0.2402650651196946 -0.1262156703912889 0.06746119166399728 0.03786778197697699 -0.006203310435191413 -0.08233891546588731 0.12550999684316935 -0.0309652735543827 0.029254641689061514 -0.0372535318848036 0.0844037008298632 -0.06159172958141712 -0.09823437991184605 0.007268287424957827 -0.023666759467174177 -0.03850217044126816 0.008976266527171563 -0.08583434159432507 -0.02076407756486447 0.003877173067045503 0.03356166709465256 0.10945196599701137 -0.05257480870300607 0.05405384660328156 -0.025349107662513002 0.1602306549302243 0.037781518756990456 -0.052008334803537344 0.1342031860709254 -0.1154823375778913 -0.04246851515393571 -0.08173458838071883 -0.13541319232116786 0.07600257385157551 -0.021794536412584383 0.07376890095021914 -0.04572719382764776 -0.04311219306511551 0.06502187723738725 0.15449156792761817 -0.0973497212973847 0.031524766269064745 0.1012839589791142 0.036328304947569494 -0.052643333404784304 -0.06431443079734996 0.05410414638459868 0.04031140243211992 0.1822590686177218 0.04866198290573643 0.07465457356056268 -0.05422206740158374 0.0581637202355585 -0.04312704187385789 0.17695612977917477 0.16063574597321595 0.028854675313689345 -0.020782415897275353 -0.09672867285052723 0.11256117646404833 -0.019365878647872994 -0.07310173555519185 -0.07680201484382511 -0.14030085382372318 -0.023466481869050305 0.12591098116469712 0.016378118204091 0.21328300566482916 0.029853999987633023 0.0900857404471621 -0.05665216875963688 -0.0004297871206986339 -0.03780999777965824 -0.012845783147044865 0.04544710384992052 -0.013777681964646977 -0.11171242961069196 -0.1173833254590768 0.08158718427814866 0.1320222724174908 0.04071556133008699 -0.15465754844951263 -0.00289198173868408 -0.018892167165527725 0.05428963380018695 -0.04334040536142912 -0.00868167509425407 -0.044042628551275775 -0.13578432469680402 0.0007395101126405487 0.02390069999184266 0.017391220483202106 0.10707025984097127 -0.01633834344562462 0.13074133491362452 -0.07688633421471486 0.12047937036663732 0.09232902404936162 0.09248490675650842 0.05912886572648953 0.05368887869689674 0.02366879728690361 0.01623495718702576 -0.1338925777535144 0.023016871023104346 -0.023333195169388157 -0.0145402495678412 0.022910754312857773 -0.02250628909004125 -0.06342792437968849 0.1033067066009735 -0.05116222398639287 -0.04669822161326542 0.1342218092151109 -0.12846514822394178 0.06850352234322875 0.09735765531563517 0.11044306481187259 -0.06397406213147386 -0.10903448275764378 0.09805208955737515 -0.059425140328685365 -0.026160685501362763 0.017059295151747114 0.011103693042936414 -0.03418643586105233 -0.07766761186997662 0.05715385237185944 0.008976741335238916 -0.050531022651684084 -0.09703083571327034 0.028015695559601508 -0.20464412689223302 0.06384934636157943 -0.013725072425328574 -0.14959236993142797 0.08526379821203188 -0.07385814558423204 0.07336722480943261 0.04229566189342977 -0.097479039113997 0.19484264736605428 -0.055301644479573815 -0.06802546562855281 -0.05028357029050869 -0.026655677079206193 0.03336663919623483 0.03705468419282009 -0.13955858733229654 -0.0967550413045141 -0.15294432904924096 -0.17832908523506602 -0.10599709223856521 0.09671950144096925 -0.07360283458233166 -0.08266550546941798 0.018920777622325177 0.08990056538443851 -0.06498576285149536 0.07460312030465031 0.04366630748700276 0.014725011244010835 -0.15365993666835806 -0.05821299024238367 -0.22105121293771923 0.0954301343289651 0.13476530627773012 -0.07837710460287388 0.04381048160634463 -0.0729039830127306 0.024983525092828775 0.029824579835698473 0.0744776340653478 -0.06810677920772926 -0.1368985551825426 -0.06718016435280667 -0.04013883962478854 -0.19219835363355572 -0.04048025285906855 -0.059997546269119385 0.013907233368562656 0.04977460779369675 0.01552397601198825 -0.07812646889862927 -0.0652914706314997 0.01603338058969472 -0.03141306714889407 0.04805732987664742 0.030615796865817384 -0.22204161494046232 -0.22048061052455037 -0.00013491333235668692 0.00814140125624014 0.10203799872791804 -0.0072583664870467845 -0.03929076136195205 0.2495449349877967 -0.14608064482785738 -0.05114428347108236 -0.021202999585246945 -0.05167649166758718 0.008266509374154777 0.0587168895182629 0.057539589863756284 -0.012421380718432747 0.11449434232617306 -0.029967522037797286 0.013069046639527529 -0.2694296405833794 -0.014274068210697164 -0.09572668528512347 -0.024759888497574073 0.09723338465064196 0.079519866819003 -0.06506201779164934 0.09362812696652789 0.10956385574988077 -0.14126502034659535 -0.15334140743393515 0.08642653853807639 -0.02151082240922269 0.14432876789214838 -0.30909944873765055 0.14848536783715235 0.08355889138605788 -0.05289328357379345 -0.041768415423816395 -0.010856017260263308 -0.17993584537198562 -0.04040298109011055 0.10615312928283657 -0.03969643939399454 0.020750189649410482 0.11914769697008022 -0.05860334723065256 0.04148116918000267 -0.04251965073340381 -0.045090337149050204 0.02745133562885031 0.0005320917094638023 -0.004221680847344477 0.05753314815122566 0.08676464636648049 -0.08850898607531399 -0.11211911169584211 -0.14841814271560994 0.07007536423490315 -0.08081937981406706 0.10678842983006562 -0.1586896628749938 -0.023206041572093838 0.11750954126542101 0.18162664720112157 0.018126941393230754 -0.18487926494212306 0.02627176657940676 0.10090424929827498 0.03594492717641563 -0.029484405914068198 0.05995330769413572 -0.17963542914370972 0.08315925497410208 0.18170909637975427 -0.1791745937863427 -0.059957954982413776 -0.05593848622109441 -0.09665409452620635 0.03714331444514732 0.09928632236426757 -0.011154624187976496 -0.03823144826495312 -0.11425928847457811 -0.027002241476088873 -0.08048775174735727 0.06520566692250247 0.01142618088708937 -0.09881129989656505 -0.03982629034172898 -0.013517618642443606 0.12878230794710344 0.034900837337918336 -0.09683813347330925 0.0576288556058142 0.03211283767837725 -0.11557392755527374 0.031941985625385645 -0.008463610468049887 0.03466345946335305 -0.05337269670222139 -0.009649709461925358 0.1629735208660926 -0.24298448112662463 -0.0531510871816321 0.08308410540526251 0.05181080244326705 -0.03626269785421806 -0.07792322660940622 0.018170303375757726 -0.023643239537350404 -0.13483968642760555 0.002277834091387826 -0.027568817074292734 -0.059488305372438315 -0.13261975092257944 -0.007179016387299989 -0.03385543997685762 -0.10683731981915714 0.2109501136743664 -0.008003412526749527 0.049330569644535825 -0.06071703287194712 -0.08912693035313116 0.20490203821484787 0.004091471635415503 -0.10705606542637618 0.07366855961714544 0.0499719988430751 0.18882112557202732 0.005450504987769988 -0.057674517815249376 -0.06107479728580425 0.037165645288810154 0.06837960156534759 0.026461642867608364 0.012897381642916884 -0.03635324526139293 0.02771821008192591 0.07698076398696004 0.16145394522432643 0.059434720322794045 0.04293232155565221 -0.069732508022177 0.007167360362275946 -0.007592628290179906 -0.02401756162768817 -0.03643071645893379 0.059664642040907705 0.03359141090793497 -0.05703739051584615 0.021817108724997182 0.005286502142680786 0.025109181292270577 0.05383317221808284 0.0027164294204860646 0.07451774047515544 0.07444412582344016 -0.17714959371549635 -0.019225225400334688 -0.05651735207989788 0.09182061307949244 0.0672352446270717 -0.05717061504385175 -0.012092179568921765 -0.06832441935388833 -0.06239257981455223 0.012210436414252197 0.0010348861266874442 0.03440274503989666 0.00925641171689701 -0.07941179860105625 -0.014071337257758028 0.0036862967639853606 -0.019381446573153563 -0.10529546321947551 -0.013615828682895206 -0.07957086155111694 0.18219944371713365 0.1040082321986457 0.038670220266227115 0.033308947832889846 -0.004856102296621488 -0.0758477677723232 0.08779761361472273 -0.07210595586741589 0.19931037864018725 -0.11286393725950536 0.026355429051510094 -0.016478938855516944 -0.05912262674042704 0.04584932288907903 -0.036869173643367836 0.07687143246313519 -0.1107038762146816 -0.011730164789191224 -0.07213546281690067 0.02367566598461333 0.08130934084882449 -0.11749884857339321 0.016973880189312087 0.12196632391312685 -0.14121052017560382 0.06670483107223482 -0.027152118210812027 0.16800243192014047 -0.11107404432312161 0.08651720187600338 -0.1655297274733672 -0.018810924158711516 0.23698124026484133 -0.09928419204182029 -0.10856649045516183 -0.028188103852871217 0.012916855075359448 0.04191165498362591 -0.11047341694425752 -0.09897427693179957 0.04035746930238318 0.0028316535512375313 -0.00036663500109754277 -0.0255126234275562 0.01522527255604205 0.0703442895314492 -0.11876979630047318 -0.049449910632718606 -0.1430946598205845 -0.24036561474867774 -0.21645174874536297 -0.2827894262918847 -0.06552388296076767 -0.06297492798152522 -0.021604017560562655 -0.14793194796541234 0.12395893573421424 -0.04259516519397669 0.08107208224730326 -0.1773439471499756 -0.0933226336012926 -0.11910825358724686 -0.11354593109933102 -0.06860021864046444 0.06887024223544493 0.0872010283010533 -0.03320088919200581 0.03240679310398688 -0.0010455732332945444 0.03301975566716414 -0.05502500400652686 -0.07809165655674631 0.09542116290265915 0.05402196475234389 -0.05386977760473165 -0.009072198600290191 -0.017915201992457157 -0.07251966416979934 -0.09683753644160231 -0.12725176515884556 -0.18171004522255027 -0.12903890639598545 -0.2110082335858505 -0.31191053473273495 -0.22503153742213847 -0.18370987492185245 -0.15149025063535107 -0.052150588040949415 -0.10199966951898232 -0.10296612581474844 -0.0753266749709532 0.08320647248583751 -0.051675752540739195 -0.07866874630778364 -0.06330285005799659 0.05324496138358381 0.04175285118625227 -0.012411615044575247 0.05876090142328502 0.0035025384285238825 -0.0172803677741786 -0.07725499366508054 0.06309193884014656 -0.054366413987140524 0.023868274813661702 0.09714230910565252 -0.05881169643187611 0.03908565133659406 0.025448287339332708 -0.07599870439434465 0.03644209268038085 0.05143873715171387 -0.027074038882738682 0.01945705135959934 -0.10298911332615927 0.061429853824978474 -0.04730769242715177 -0.09545059298151291 0.06102873154560793 0.0865273734791336 0.04751827314251234 -0.09945283879091993 -0.08732789772519295 0.016853881045516148 -0.03285697844887939
0.07636669615035935 0.07473387387138769 0.09750378174088833 0.043166393814518755 0.0753767399617303 -0.03606997762758948 -0.0777646096160388 0.07307282115647595 -0.03930548040769499 -0.01613354036662276 0.029206051414314538 0.021019826831102525 -0.015815383097024016 -0.02276989762588129 -0.07546379162819875 0.006772376860683327 -0.05342918055120081 0.05096157022009226 0.034974116832900026 -0.08561460703815711 0.09785293694716007 0.056091387114868246 -0.054434822621880485 -0.0938514363300606 -0.004325633785660282 -0.0294515124997852 0.009302299872845587 0.0319327910849842 0.05944396147174766 -0.09729113063217448 0.042859102775775704 -0.040937206779620164 0.0972805151274834 0.06924834611755634 0.012080236216956378 0.019541401847339754 -0.06215597982978909 -0.055191709204978415 -0.06941251017959149 -0.02443729050711166 -0.07760145386607212 0.0022727247398407597 -0.006398857456756387 -0.10778746693074308 -0.04665104563034845 -0.08886024990620943 0.005143402244880066 0.030057953840601087 0.02307784904399833 0.06273922272732768 -0.05286675900911701 0.023636368368089106 -0.039434296153471875 -0.08224645878417154 -0.038947705686837364 -0.08572870501107677 0.09171484220393417 0.04543308698538587 -0.07970782843519919 0.057253864469718724 -0.029568927980693646 0.08228702806475849 -0.0009005130505773257 0.07425538017703118 -0.05684685388001709 -0.027398785299440977 -0.01050267937994256 -0.051685133052122544 -0.03553664517656689 0.003468458430493093 -0.12838483312008162 -0.11486354309923312 -0.15327095251650197 -0.0639885124713116 -0.041549177355327156 -0.012453337821966911 -0.09934922586206926 -0.1107023418110577 -0.07445470132560704 -0.12233760086563185 -0.005949651228404755 -0.08896958299623524 -0.07182840062012663 -0.08072828962775135 0.06242311359162925 -0.07937064348330716 0.03389555292320423 -0.06159100521413404 -0.04423664891423029 0.07648059387305071 0.025825949686397783 0.10195885117288242 0.020794478096732568 -0.10753589075542504 -0.010532642661581628 -0.055819839700581415 -0.09088620380451869 -0.2167021736311195 -0.10220693895160429 -0.058451762967376204 -0.22483834198018218 -0.09864220446938685 -0.0678097832822926 -0.07409104655461911 -0.18166398292860517 -0.025634489377540905 0.08877046733026281 -0.06352602228678725 -4.8352195180959164e-05 0.06233283053532502 0.04400820637065848 -0.011377719934643316 -0.0590529827015486 0.026438475058365163 0.13239237376860513 0.06401045383179918 0.09014682461046293 0.05487478348606093 0.0010577527624292893 0.007772572481127179 -0.08485586010993933 -0.03872880509484233 -0.10439902727421983 -0.29172272433097773 -0.11021610918566258 -0.027751569263163144 0.033207080562684024 -0.028751842187382158 0.03528160085031321 -0.03651221709647026 -0.018672114368126037 0.004726359291084621 -0.017196504095551568 -0.020905959102983075 -0.07107574675741728 0.013103580757925946 -0.20308776216720884 -0.1458035585088378 -0.14249748189094247 0.02079510601599679 -0.07292912182758536 -0.09387226038182606 0.007195603418511279 0.09245192266705378 -0.08347442290449829 -0.016414401637277573 0.018341098427457854 -0.0033999417270977397 -0.17071493408709465 -0.11622439856083595 -0.2143621377214532 -0.31348300293268117 -0.1265363630089819 0.017774070621583968 -0.032333125810510205 -0.04268741082863639 0.040476996055747096 0.06750201600471857 -0.041547215251364074 0.02712599939464142 -0.06188991324727372 0.026180942234413418 0.1257549357346545 0.017060827941003803 0.06011798175829749 -0.31353679996193295 -0.10384639345141455 0.03246662390934274 -0.0968180076814875 -0.050220371603484054 0.0584979974082961 0.07521063846669343 0.015335956387036607 -0.010937565311815004 -0.12052122079689237 -0.045358220765855016 -0.13854193330839445 -0.11838830752531744 -0.27135676310884993 -0.30684967540365327 -0.15453164158350785 -0.09182703533762453 -0.014712984750170077 -0.07342125422031325 -0.07959599466990774 -0.006784724226266226 -0.03308603974452291 -0.10988202336179687 -0.002659402040119043 -0.03852309343247054 -0.042531355561379214 0.10844264321115359 -0.11050098622084671 -0.21438332478797417 -0.05237475467840338 0.025040301185500526 -0.07763515204967844 0.006132117742818814 0.06847365513978078 -0.024993518942114556 0.007822406286004599 0.05430182430214938 -0.26768783104334587 -0.06662381444881262 -0.0375997322472616 -0.007223970176737229 -0.18669860172054048 -0.23841019397538535 -0.11302260901870634 0.07303297365905692 0.010617862782465229 0.01404213119390395 -0.05505833316232741 -0.042996681046858456 -0.034835916250858245 0.08390118916112617 0.006123710522180031 0.10062159731227835 0.013358497303299448 0.1408313296913018 -0.23793214637221166 -0.2971875378017838 -0.06158662588663166 -0.04181682002977936 -0.0473505882199621 -0.09987150259747447 -0.051538478752138496 0.034255183297338454 0.09191557380021251 0.07926787542000617 -0.23546746718860853 -0.1298854902540782 -0.024880003144047865 -0.05890140933754603 -0.1740363803301538 -0.36396289338533366 -0.46059944668852165 -0.16827620140766694 -0.0091737305485318 0.08873578297713786 0.029711323744052106 0.062396138020374116 -0.013296452270554029 -0.015696389518633357 0.022167370318059088 -0.039201635587060385 -0.13475590327998627 -0.08814134381926167 -0.2788200795142393 -0.11733129959835609 0.023271087151954147 -0.04662548820088393 0.04125264891026323 0.011298850352156492 -0.0914045348480802 -0.03195587277579549 0.08343871570679895 -0.06175344309575038 -0.015339117855925151 0.05240952606606939 0.040107754631455717 -0.11935014113158708 -0.1753136353083678 -0.36117169496624385 0.021864055281968588 -0.09500989712364975 0.01421437675661971 0.016606491020697663 0.059301461843899686 0.06938551560491549 -0.004252890872931857 -0.005674775348967133 -0.07547029083818466 -0.02281102633294339 0.11335279315449673 -0.06392276262275413 -0.07607504033752893 -0.1123496233973861 0.05274515888957861 0.08524226522376141 -0.06567786115061516 -0.0816792846342781 -0.08126930986174968 -0.03682137521187433 0.028257014824746848 0.09280043964162667 -0.029786931331336676 -0.06148066639015485 -0.18823473888630243 -0.17146124435206211 0.0632831242523798 -0.3043041101583792 0.015384061818302416 -0.24138842263746257 0.026193458695353486 -0.02635209029268552 0.03406684730171789 0.11615028356725983 -0.016488863134864473 -0.07858346550322699 -0.016899941441967797 0.06268326950384515 -0.11132976193441264 -0.04225968056180492 -0.23174479043770183 -0.13340664684316825 -0.0515088447592154 0.043587769462683015 -0.05719804545846794 0.02154763724438307 -0.059891206843113054 0.047330539105836116 0.12605573691590188 0.12266721435803916 -0.08958326488376595 -0.12209595221083717 -0.22856773828578703 -0.11037948180453498 -0.044868709923307 0.07597449566089401 -0.11549806687353609 0.030224995021327087 -0.04075520123529256 0.14178179238984648 0.12895009654052142 -0.010478673225812547 -0.0071080525295578794 0.10412687593779503 -0.010537107239869607 -0.053490528766985866 -0.21199005153065742 -0.102695199766334 -0.0256109032980382 -0.08588253294234663 0.0880914845320573 0.09843783682388507 -0.046545477296022236 0.07801146075481827 -0.04141413386100113 0.027587643960873556 0.07563853176050699 0.01579876636367673 -0.0801210205069108 -0.04931175553142505 -0.2847802965931261 0.011795328576737062 0.1662521730023029 -0.42953023415444835 0.039061821237705754 0.005293665772105343 -0.044328752219281585 0.20444696652867447 0.010600595748648457 0.00287818849304915 -0.022092614847519315 -0.0954525411003876 -0.14935127881417448 0.32071025383467094 0.06131308144298041 -0.0053599183561705635 0.04066022173810801 0.07378312740888139 -0.08289674117860477 -0.007953319404075329 0.08722371366447032 0.012701833495034148 0.008885510668453375 -0.08127131187393093 0.049921610661884844 0.015783256333974562 -0.11867916316451468 0.0919417000697379 -0.056663069684744063 -0.21718746784417187 -0.14815184625472272 -0.056825850608346544 -0.04860351802474747 0.05025012770779474 0.12041148149351416 -0.045661242814015075 0.006004156731424497 0.01751433194293614 -0.11214881418662492 -0.09632342123523945 -0.20474021181397334 0.12665810898358168 -0.06566937427173611 0.004007710981266496 -0.10359030489910642 0.008514525580482222 0.07068049256000238 0.05112665611583042 -0.07662165458032151 -0.09590375025631961 -0.030198136233014036 0.1506950841449664 0.04432127224974214 0.025842589826067693 -0.0032722928290795316 -0.07098721803898818 -0.08555022024746975 -0.21822516149215146 -0.04406634633796693 0.10434041078361686 -0.06423758646580648 -0.09325020514580656 0.43800820837329973 -0.027874855242888925 0.03689486056398566 -0.0052996098701355845 0.009520373185271514 -0.06333197276099081 -0.12849665575328825 0.31262425062743626 -0.046192599363640556 -0.023285314500451845 0.021397007222422555 -0.13008351345564953 -0.08325661992650953 -0.08239031643812961 0.036727492956210056 -0.020397656956740534 0.015188743000602698 0.029770928727976424 0.0646393436435467 -0.16995257565799518 -0.1459550098288444 0.05663361888782658 0.23905358650603428 -0.12474250456525565 -0.014100933211528891 -0.00607185343510207 0.01484511902136798 0.06290987469015946 -0.08321704072542993 0.05205458787079738 0.027666401504035282 0.013788575605768322 -0.3403395784796565 -0.332394807837182 -0.3876106833300561 0.13462971885044275 -0.1227903937503672 -0.038231859645606936 -0.16782190233624408 -0.10944443172104552 -0.07311628622579797 0.06147531538783767 -0.0019460088820587168 0.07372078502015543 -0.05365788501067414 -0.0008174934672884127 0.04523832067425732 0.0116822063116256 0.0577255220076755 -0.047046426974448614 -0.0005648233908987946 0.11812205921282155 -0.1089806037600399 0.01588744671796509 -0.04759218390909565 0.2586841455599284 -0.060884369651677976 0.08766134575322737 0.11390783302363305 -0.04670480222775537 -0.2673367527992996 0.035942321894674376 -0.053956812202318676 0.1241378168316935 -0.01424046825584584 0.09829104343922944 0.07269001303363075 0.019721719302716663 0.1150943652107306 0.022404309135037565 -0.018278300764575012 -0.08031271460000432 -0.0270465859916977 -0.008605053955054431 0.06670848335093264 -0.11077660159440685 -0.02271367395097269 -0.029364284908144304 -0.13641587480521225 -0.04834821329829611 -0.0080437118405795 0.04043481471796479 0.10172945348180537 0.03008840417952452 -0.05895906998528561 -0.0654093956341535 0.022650318621945924 -0.31470129228495897 -0.10474506277862763 0.09043332486209575 -0.023219772317844195 0.06730085867239387 0.051088182764546866 -0.04870161728529883 0.04226673721664459 0.2552855981979143 0.1447648973554363 -0.09107137265586346 -0.025663145278417874 0.05938662397474792 0.004943071012997649 -0.06413781878899937 -0.03249877515926785 -0.2677189617160124 -0.48970084325521585 0.012325259939655022 -0.029270041981900318 -0.01872861720971558 0.04834471961321856 0.028564420642373703 0.07067633381330402 0.0012722353535803924 -0.07422785482029592 -0.012965075048781695 -0.1303457500697487 -0.18772202949600922 0.037120939500065675 0.23080396212872337 -0.15023407162926716 -0.031645751841470976 -0.10141391598786585 -0.14366129553478835 0.01798754481446896 0.21787628527522898 0.04714687830498577 0.025701794529959545 -0.09040501120176145 -0.038377592097138584 -0.07052694931617942 0.02249698699546086 -0.04869283615584051 -0.2951008030436221 -0.031778735104634394 0.04036839350896192 0.002910795746985528 -0.014946949938007058 -0.018079059601601128 0.0920818171002532 -0.018442124039750374 0.006472959131879008 -0.07202574737709404 -0.1318592205536774 -0.057162368170850957 -0.22627873918876912 0.0816816530774925 -0.023426573004137495 -0.11166544108998533 -0.08254221396160588 -0.0604003502995321 0.011568890096212543 0.16826095428463908 0.19760848843473244 -0.001065057445014861 0.11606588459291677 -0.08649718991732608 -0.01273759028015023 0.08953131881616913 -0.07957351108075045 0.1002997207395367 -0.02222484167017365 -0.06637739985609604 0.025825406045494458 -0.0015941007613667387 -0.012655483137194492 -0.052141741378019184 0.03267689196443348 0.07755087891333913 -0.0781226796923615 -0.007460871101968077 -0.0891561093412773 0.18565021365984302 -0.1904355078655566 0.06586173564973823 -0.07077874363356321 -0.10868899795037776 -0.15256359319599494 0.034911910773824495 0.004265060349069605 0.1643912801239219 0.18332256408567005 0.070814150444482 -0.08596908891702948 0.09193961723561092 0.06330399511118642 -0.029798274811451378 -0.0419642800988107 0.05511252370469043 0.16877247552506763 -0.013204794348208367 0.015792306409847426 -0.008301508412060796 0.011799956427792316 0.012384887794441203 -0.0825022567407079 0.04219023513204221 0.014647740564888994 -0.019042274895565696 -0.06532391871771849 -0.14325185135059965 -0.10001665332461426 -0.018251953753744044 -0.19508819156856988 -0.13860086033154634 -0.11248494305900715 -0.037553388852809434 -0.005478601986567496 0.12819783515369582 0.029128214498538488 0.0449872893253374 -0.0887301216531051 -0.022287815614645188 0.09518408356184738 0.03622431142122118 -0.040954201563698195 -0.03315519355825363 0.12251124619002891 0.03543245859269472 0.050119459698966126 -0.03880154597819602 -0.019740359727098093 -0.006042724644880405 -0.013877138492435576 -0.03116191615320069 0.002058480437540567 0.08493863091902472 -0.03369280368656242 0.0910564174278762 -0.15602213942449825 -0.06494745677453054 -0.06791395462958226 -0.17440970653907276 -0.11436870284070093 -0.06446877245432124 0.03525117398108434 0.050811428856314386 0.0317823097010805 0.002635454787106482 0.07048065753151087 0.03946930791779785 0.0426519795153473 0.0643635382196782 -0.051238291465031796 -0.13972802303699 0.0002555202609383133 0.043426870472165965 -0.06246302071356509 0.002491040588422207 -0.031717538486059564 0.028926863897131415 0.012307878457892428 0.07866990965457059 -0.06233167836008483 -0.061345555334277005 0.0124357525703642 0.14385544917909635 0.019625466583052045 0.0806561584411887 -0.1137274429039719 -0.019685914101233788 0.07888143632932133 0.05430048625671095 0.02086591450059787 0.11019578776701974 0.10740170143368705 0.10459144086441881 -0.03514895517458223 -0.02122437244596989 -0.08771756918836714 -0.027313821394760615 -0.0718474189614553 -0.1151134668222037 -0.029029451881786718 0.009706713327159272 -0.03245027615352958 -0.02522384389533058 0.046834856451337434 -0.065241519516269 -0.04926846289040714 0.0037717236624506445 -0.0022245104172521754 0.11012233198241989 0.032362738980816354 0.020100617282254075 -0.047055205630467056 -0.0002719794622438083 0.013167136531928149 -0.04242975881352809 0.09449608524890532 0.11035820507366302 0.08086825384801796 -0.044764886391464656 -0.015989849932858118 0.04517656696177189 0.07897318680259088 0.04226222202093291 0.05162645655581008 0.07668073039355436 -0.026724141330880493 -0.2165247401921146 -0.19148132625925476 -0.1379028154914364 -0.22962170373566262 0.043735325620635444 -0.06255906184693288 -0.08814776549717433 -0.1906994928158145 0.03266414571420421 0.3267126254782265 -0.16972085442183313 -0.2921006867318781 -0.020600313243097294 -0.02524023141262711 -0.08257947859679085 -0.044783593529271144 -0.07025478724070894 0.06497975861004696 0.04163773655684877 -0.0059302980272409826 -0.06292729643793894 0.07515986797720992 0.02781278120760547 0.09932056399630929 -0.07978042208045096 -0.051030328173547516 -0.08326901316738765 0.04893024485198768 -0.06856349309227182 0.0722259806934835 -0.0341666280926971 -0.0497664013086188 -0.10030396912665811 0.008176681693862087 -0.07670883384118303 -0.09172010480678879 -0.06636203190163249 -0.15917827607302784 -0.19151358215277015 0.014991209522368041 0.06339152997861786 -0.0027155887407006273 -0.027595915048009543 0.02760713376392354 0.037059196589644794 -0.008287684937935306 0.01462223145846567 0.014762200900531125 0.06842610400485094 -0.051911658476171234 0.05144529325314079 0.06246742194366678 0.05940647222899495 0.06154156379839687 0.06585600447731088 -0.016496849739552122 0.023525412817033322 0.05091871497909777 0.053864367345784904 0.0917802647629446 0.09505128816458144 0.01293806666250953 -0.008397532972502437 0.06662306242871854 -0.04325420735802811 0.06359432560974522 -0.06163000831763655 0.01829975170166729 0.021366291325113432 -0.02638234215990318 0.024906542047955622 0.008196399848003463 -0.0014540578150847028 -0.016374872865988557 -0.08755496332272956 -0.027570108014621147 -0.08143692836117222 0.01312769993521097 0.028100326311518126 0.05355645252363195
0.026507051268828546 -0.06258784896490749 0.05004879015582328 0.009771880086157286 -0.07956592813312202 -0.0950345941624184 -0.04025076152333105 0.03800300585298502 0.08655767008882714 0.09329944013604391 0.052909617866929354 -0.0413501628586211 0.023971836432284014 -0.06332772873451654 0.04059112008845265 -0.06722438386417275 0.051294077104820535 0.0737177997860963 0.003901270717291405 -0.08687303234829916 -0.010221595850840856 0.0675657222759635 -0.06404946931398921 -0.09228818774744102 0.04653871489583647 0.012608144714679012 -0.09158787471015346 0.09697705281166033 0.013866477496745439 0.017031334592530784 0.057981328373288815 0.08052693413726175 -0.08784985273406119 -0.030351874854788845 -0.09057436095559929 -0.053421529561834186 -0.08240270417397016 -0.08766811718280355 -0.06107506679105549 0.0942563581683622 0.17470917074616718 0.056044936904295975 -0.13682080902051252 0.04393036681899995 -0.08763814970476853 -0.06263795913136008 -0.10406719815013471 -0.17252163497004594 -0.014465454568887105 0.03674937490003299 -0.03455957140785849 0.041347616658620925 0.06946084108492773 -0.07392849711168999 -0.0825185367676512 -0.02561570869721945 -0.019223272489765214 -0.044719156027925935 0.05083363718888936 -0.03564275988952158 0.060028862383499915 0.08206404769922847 -0.020817263834064462 -0.09032009286647692 -0.10646825699982679 -0.05225936389609004 -0.013228633731182712 -0.10072719420980766 0.016278597235314284 -0.0444462986062128 -0.14029203267827908 -0.019203101118428576 -0.34182736352176446 -0.061048907987315264 -0.10301627438346404 -0.15734553246093855 -0.07853327882215813 -0.08955573942919731 0.002070931833645328 0.017835264635333054 -0.05120003009246245 0.030926573009434237 0.013318281639691704 -0.09317871652033403 0.0841388906097533 -0.023998839309504152 -0.024119611200622976 0.06927117515953421 -0.003144419600637202 -0.010658508868170222 -0.05933923619673361 -0.186466052861945 -0.09306782000853155 -0.07606742286194225 -0.03211753744793092 0.045804571167414855 0.02102549392044051 -0.03319369844852848 -0.12831405721433004 -0.053766726599683 0.012764501801542615 -0.29676337735271846 -0.32384450358197464 -0.3376365900217407 -0.4121572805011364 -0.19235218773570553 -0.039886030910329086 -0.04533601311624804 -0.06175977498933458 0.03821134257947265 0.0773876809096753 -0.09247891192484554 0.03861886890027594 0.033710144804578096 0.07360420033846823 -0.06069881468150468 0.04441337000767512 -0.08486476878539469 -0.14307445880101657 0.08940722950172382 -0.14131563153575938 -0.015018559328698403 -0.0583753693463558 -0.04926884979517903 -0.17348958138580634 -0.3763555819113952 -0.23934438841877254 0.023865026359523568 -0.05328823112239242 -0.07403367437337342 -0.10877080719436664 -0.26577192924799004 -0.10403904752799811 -0.0908897031477538 -0.09729445802465236 -0.09321078856128549 -0.04554643062918047 -0.027536353645571315 -0.04358644790129546 -0.004855274537926113 0.08472237294043969 -0.016663102787867617 -0.050483458269855654 0.06726053708790741 -0.2010183681577654 -0.136353831866802 -0.07342968766046686 -0.21602825295240313 0.02723979523862101 -0.20008399148990452 -0.04692479418146816 0.2642347663318922 -0.2083127721420866 -0.3766892759639124 0.3966531340267133 -0.013833617834640289 0.13735058316568952 0.11413237094617046 -0.020712445339235597 -0.09344108836060065 0.02070985179421344 -0.12127213916114866 -0.1721385463096752 0.08992460125069796 -0.02015003949436379 -0.07031557344401862 0.0025245985500692764 -0.0467811798705231 -0.025502518612611103 0.011683584224706015 -0.024590807961714475 -0.049964522222239106 -0.11558554141466691 0.0999679946275301 0.13620952360504765 -0.06166632961916332 0.0788955427891347 -0.052748105042266874 0.05166575094834405 0.012833965553725232 -0.15746018983223747 -0.2967932114084636 -0.061574627368041465 0.06171445278568525 0.10439972662067097 0.04911828379534805 -0.14199954722110358 -0.2531862027472861 0.07522695389072623 -0.03370803127254483 0.07643128461375047 0.0845534820307666 0.1442363325100288 -0.24168928463608375 -0.019614829652942343 0.04469016205747946 -0.07380190268095911 -0.07134550590230822 -0.026534648046626873 0.004318145832047166 0.0035385704731098083 0.22075540889263287 0.08092773241736137 0.03189220666468809 -0.01732452337380444 -0.062002435533077285 -0.1286111436798079 -0.1047394503602652 -0.09859487135677027 0.0002906111248779889 -0.06403952242474485 0.018772347177694142 0.198899342064582 0.06805358372278356 -0.0437499055682447 -0.2576258977366277 0.19605564447654733 -0.297513661264785 0.08216001170435046 0.006915445040722598 -0.05076168483648239 -0.09881748945452686 -0.004169119667492736 0.07487524250408126 0.04461641028253527 -0.016318074230186656 0.043041275103656455 0.11880315685602708 -0.13514340566754024 -0.02414937531499607 0.022422027042819887 0.07392756429944783 -0.1004467572782723 0.15528704233684182 -0.03297090247393109 0.0291887262020606 -0.2231077392141805 -0.011010721135474705 -0.09203671617472402 0.32999009153801534 0.10441561799744806 -0.04950590009322999 -0.1800316684996098 0.07345709313420644 0.08432554405273436 -0.01327910716205807 -0.25706167185541606 0.11041759443622745 0.03939545110042253 0.16039732491591854 0.02783778319710493 -0.0969559786759273 0.09920320282498446 -0.08186373940968565 -0.038697784860865315 -0.1104473556664955 -0.04412472401309267 0.009076484281024675 0.22749125769292053 0.18890715188391502 -0.0033213005440421465 -0.17698322913252543 -0.06871013596883341 -0.06539181773333584 -0.21975229559570625 -0.042371045432978975 -0.08715734343234328 0.24298356496214257 -0.14654231933870285 0.09820151275571468 -0.15196684817790174 0.11418746135479123 -0.14694710617546589 -0.10913787019241991 0.025458594006152486 -0.021140753140591967 -0.0932679393310967 -0.2232349718823669 -0.00984609715172129 0.03407764654857141 0.010152912104574544 -0.09687278401036394 0.006055526400848247 -0.08074758889472824 0.005686525965656481 -0.18955563792182656 -0.035908116764730165 0.022978516921782464 0.12872581724680213 -0.1018005875891329 -0.008235929086820531 0.13249427676632577 -0.04504552433218289 -0.033137361360777426 0.0581759941014585 0.09160189877239226 -0.0909784329192057 -0.052191976024873375 0.037273572467226346 -0.17157978595420548 0.10358642076327344 -0.27459559551240065 0.46114366538326934 -0.026290413984243564 0.0055965619306846855 -0.057657067210130246 -0.16120308255808585 0.028183581768693473 0.06953442003880671 0.0682169429337346 -0.06861750834006476 0.04993316143757464 -0.084736311375812 -0.050005299647210934 0.14126312832624716 -0.11918602641409887 0.03128085889785309 0.22978380739176907 0.02971469723326819 0.0742140999232084 0.051528744557407816 -0.18760285727650605 -0.013409025848224954 0.030327101198343805 0.09926512658041346 -0.03757420498982996 -0.09414392294491958 -0.017171368203274702 -0.05759935871553367 -0.06890184012334886 0.010038442615797014 0.036617940400741227 -0.09476998848766365 0.1533500846563521 0.03826869621339708 0.05349685952824593 -0.059386368578289744 0.02962712164809828 -0.13908936488550905 0.03308906539122387 0.07391120702844982 0.12533657269934698 -0.12310328454159983 0.052419165343327155 0.016412925113069864 0.09291941143992336 0.14052422310852358 0.019000236120239572 0.15021682858647759 -0.20537971992655257 0.025342803338977274 0.04637362261814501 -0.007085196606404916 -0.059445569852202305 -0.12867998660073504 -0.0572288039568646 0.1088095199178851 -0.06836087123412979 0.026494583793705364 -0.1324684241881995 -0.11496696044090149 -0.07028209677356496 -0.10106884665504653 0.08980953264660618 0.046575569335385814 0.00510951233394811 0.04444164709483279 -0.13876410838085979 0.02037484606008389 -0.004554949508426336 0.13305729834797558 -0.007134286669016724 -0.002440618831489929 0.11129969173247611 0.042103722967558495 0.18196555574289675 0.13589361060931762 -0.049228030145337595 -0.23215093855334598 -0.0746984617556431 0.07124143711628347 0.1695495492537036 0.049643056553403335 0.012734674438932557 0.056309407537907086 0.11512082871274207 0.011115170118051106 0.0358897938644494 -0.10516066116930924 0.04046135189940409 -0.0837053860691702 -0.08163288163772621 -0.006555374713779316 0.06333919363052183 0.04530056956311653 0.05446666911413144 0.10806969898622643 0.22871861066942162 0.19233079711134576 0.1781076323423068 -0.010285171699445848 -0.1085537928027176 0.008850824766986188 0.04420454425374057 0.014399279071350683 4.2117720288378804e-05 -0.03239081263167023 -0.1354239887794513 -0.054089507868817804 -0.008041613173874465 0.026694013084449002 -0.025551266422397013 -0.0757735305607909 0.06002082303517643 -0.13857997511578843 -0.1414030201870438 0.06141031710235358 -0.08537015289777161 -0.15585307151451008 -0.03972057130602946 -0.07445200312615215 0.0787118748143697 0.05070369180363867 -0.039664347071409964 0.09056205486815394 -0.0778099619198641 -0.05502072485843135 0.03659358035025199 0.03556939548538785 0.15915261111094983 0.08575330168958585 -0.05289936901579977 0.1486236332665633 -0.13479965058300075 -0.07206453974995619 0.02410728228563495 0.2426238880088103 0.041500958016652406 -0.11222246185595579 0.15935583289298208 -0.20493133455370952 -0.08843664203065706 0.19167711746808289 0.1541613797186009 -0.19841710860460537 -0.19549579003742895 -0.04661646044551247 -0.10340494453121067 0.05729410129384153 -0.09440963019204102 0.007654319930759288 -0.219062573981141 -0.2769386065009757 0.19224145468164816 -0.07947408286694824 0.10765448122669326 0.05013908185784093 0.03941922161302909 0.03155747628194274 -0.19609872382656887 0.06580563464227232 0.09832287734176955 -0.10269477697259101 -0.024942568621389747 0.13291287384543557 0.005252175265813315 0.07611150289268913 0.03835716581604183 0.20905066824565577 0.23185025058087355 -0.2349235996797754 -0.03202104723671613 0.026680513602669913 -0.34696480210065134 -0.154600721500792 -0.09819149715934529 0.04915990444703336 0.05936083113811398 0.1405222276497548 -0.10774502151561757 0.16892052959780535 -0.17307017191498916 0.0872006616537158 -0.11297236589039167 0.2407424687033274 -0.12143048560058255 -0.02369187754758792 -0.0679824985992755 0.053935187949473835 -0.16066622830279767 0.018157401711303162 0.14353595160231133 0.014840046426301767 0.07753279896605544 0.062448470657376944 -0.055124193608480455 -0.1749797930080208 0.010635792611949147 0.059516779876534566 0.02965123501233925 -0.3443361358584555 -0.05338300407843755 -0.14341597410536205 0.007454975484148737 -0.07487012160953764 -0.001954240527767759 0.0075133148605058915 0.24241907626127424 0.12047140802525899 0.08789748045766296 -0.01383579830261181 -0.005007017248021424 -0.07414702456265027 0.04501952396288103 0.05757605933335036 -0.06427692766192629 0.03085706033517777 0.11651180147342255 0.0392352532181138 -0.08849113921412365 0.08074791866532204 -0.10339235624761536 0.010950571694730874 -0.07387038152623657 0.06238641910057317 -0.031230683742482668 0.19248279050299966 -0.07073964337549186 -0.1824089031848896 -0.3484131419499329 -0.11080741696994115 0.06099048694133241 -0.015444038814676417 -0.0841546191301955 -0.09653385181901696 0.17891554068934257 0.02548294101701137 0.034850289532709286 0.054664295522871754 0.08369445552771829 -0.08765840885800727 -0.23847533546998892 -0.1876614940810517 -0.13609453463278154 -0.08574883573759516 -0.05322285959566453 0.012073823335623622 0.18936257734456083 -0.10303838442802425 -0.033284771285728376 -0.021445365636523862 -0.2622553444469323 -0.05279220437561415 -0.1795703389613684 -0.3127577035303033 -0.1146358325380221 -0.2506294282526003 -0.11962098831701475 0.019624008929706786 -0.06285638020498148 -0.02809310093603845 -0.018653256340095837 0.03647865723663636 -0.007893698318332566 -0.032369952089584125 -0.13068782855579517 0.051023791986962684 -0.08873339366311953 -0.2807702356398963 -0.17198499404531029 -0.07527774095713617 -0.16483436224797351 -0.09804265133911873 -0.09286594381630899 -0.10545258340610039 -0.1260050617915165 -0.09682677445113416 0.044152853814420745 0.06984594068689574 -0.1095373915495117 -0.03565794942067142 -0.04057593834564903 -0.2199314337875813 -0.104719784078684 -0.009962732507597617 0.028959148378358272 -0.09535559538843225 -0.04320550291028061 0.09087896636971368 0.07663093108040528 -0.035057900218200974 0.05744045851952046 0.0034694129982068937 -0.04817181562370661 -0.21377152360094473 -0.3984100924518003 -0.03441794914173445 -0.015212887802326871 -0.0032181054711401566 0.07055576651537639 -0.048364703928118216 0.0962183752516758 0.032152153088051895 -0.03194211868166504 -0.08405939148888028 -0.016884131626026058 0.1435192107075593 -0.158563769643923 -0.1876934059964435 -0.07553150536784904 0.1093976327607606 0.02033153902213355 -0.0721837091347506 -0.05210538652033603 0.01705484916409314 -0.09334064607270759 0.07879553300327063 0.028882159479530906 -0.08110582021164374 -0.02260017336180377 -0.14024937578989863 -0.06388453723902557 -0.16400145587680484 -0.12393661832933126 0.04030396547092403 -0.0545419472344036 0.014414929607018605 -0.1804787550931759 -0.10388444545243766 -0.13434293865858818 -0.22438895014606258 -0.06167583895691749 0.1333394852596187 -0.12714899147619113 -0.10281740217102137 0.13099085490044793 -0.07030121968376774 0.08939661517766735 -0.03497415563204469 -0.3227792609734687 0.029796970046315287 -0.04219717107288968 0.017081102071803172 -0.05357551454938874 -0.05618958955568918 0.0037012163199655335 0.0670814879467701 0.02894856493420933 -0.1270594270655797 -0.1724660416088394 -0.09654844945341894 -0.08153515252631097 0.1533680564933211 0.0037657989546393085 -0.08001313533524729 -0.019317376451984006 -0.016632740135766797 -0.14796140287576826 0.05251781691319464 -0.19528179038680238 -0.2498175253551134 0.08441954328936262 0.0773247022331369 -0.09719734659464326 0.2576267465724029 0.030275754859001067 -0.2575946448778281 -0.0363620416671668 -0.010940828370253727 0.042161410833332316 0.08451062190204003 0.06215433658360184 0.0628674983844287 0.0896596477563586 -0.04186341945859513 -0.012061363306002725 -0.08320177609339428 0.17620683039250962 -0.08683003807223083 -0.020136997352135762 0.05355074619838602 0.10305593813400551 -0.17557760110538007 0.1718718259547904 -0.0040327549855628 -0.09525166893203095 0.02703268177876777 -0.04765306678794242 0.028034913599336707 -0.1229558804396583 -0.06413003824859388 -0.13527159445789388 -0.14848782443407865 0.013736693709046233 -0.09335291043738785 -0.023439372522229787 0.036026600619329524 0.07120179868295837 0.045470409006856866 -0.07280772733403724 -0.05297273095328636 0.0010611711029363813 -0.027496289135237675 0.06202904408919596 -0.026098877208777353 0.05119115505030223 0.03798025306614543 -0.06603653761932954 -0.14358739826174044 -0.3114960557143875 -0.15775434746303865 -0.1388862157089175 -0.2882862505818133 -0.23127877023744528 -0.26782925840623817 -0.044932886217065815 -0.17271344947017445 -0.09862521938381974 0.02972517904394206 -0.2717435079869784 0.16016926490066252 -0.16787798065803033 -0.053016182110652135 -0.055868413640041234 -0.09060269810295417 -0.060690070599840724 0.02932273583200018 0.012827866608047758 -0.06908488833002722 0.04843450625109563 -0.027981462393943973 0.020838932490807018 -0.06961744799099921 -0.0067668627250649085 0.018306492080006696 -0.1645606645435485 -0.21144546657228153 -0.1267233466743703 -0.19670389730473678 -0.2627085369373869 -0.17502648045135785 -0.09444910831903618 -0.5779689356989642 -0.2597808701562279 -0.2817288966263885 -0.4096036547487941 -0.2247723600563055 -0.28600414010577496 -0.3213059501958372 -0.06859612779077409 0.04883404647686352 0.05958158554364166 -0.08783389558721565 -0.009385597598567191 -0.014488822014139452 -0.01519351709988788 0.012735417718568315 0.0879603620338974 -0.03393571678089845 0.0897936284286743 -0.0508235473815093 0.009132018282694632 0.015892023189008467 -0.07319698122857907 -0.12420805437883352 0.006791938030622651 -0.1000039979637165 0.015121752298632619 -0.08959875707360612 -0.07864221795417414 -0.17547008021832006 0.012184776374929178 0.00817537630267 -0.035125631194389544 -0.06575545112769049 0.034100499652027466 0.046325802931186315 -0.03734805425137446 -0.005179582016227929 -0.021207995079889956 0.07321750391739643 0.006480256350257202 0.07896784033600221 0.04794191101265749
